{
  "blocks.0.bias": {"shape":[128],"data":[0.00000000,0.00000000,0.00000000,0.00000000,0.00000000,0.00000000,0.00000000,0.00000000,0.00000000,0.00000000,0.00000000,0.00000000,0.00000000,0.00000000,0.00000000,0.00000000,0.00000000,0.00000000,0.00000000,0.00000000,0.00000000,0.00000000,0.00000000,0.00000000,0.00000000,0.00000000,0.00000000,0.00000000,0.00000000,0.00000000,0.00000000,0.00000000,0.00000000,0.00000000,0.00000000,0.00000000,0.00000000,0.00000000,0.00000000,0.00000000,0.00000000,0.00000000,0.00000000,0.00000000,0.00000000,0.00000000,0.00000000,0.00000000,0.00000000,0.00000000,0.00000000,0.00000000,0.00000000,0.00000000,0.00000000,0.00000000,0.00000000,0.00000000,0.00000000,0.00000000,0.00000000,0.00000000,0.00000000,0.00000000,0.00000000,0.00000000,0.00000000,0.00000000,0.00000000,0.00000000,0.00000000,0.00000000,0.00000000,0.00000000,0.00000000,0.00000000,0.00000000,0.00000000,0.00000000,0.00000000,0.00000000,0.00000000,0.00000000,0.00000000,0.00000000,0.00000000,0.00000000,0.00000000,0.00000000,0.00000000,0.00000000,0.00000000,0.00000000,0.00000000,0.00000000,0.00000000,0.00000000,0.00000000,0.00000000,0.00000000,0.00000000,0.00000000,0.00000000,0.00000000,0.00000000,0.00000000,0.00000000,0.00000000,0.00000000,0.00000000,0.00000000,0.00000000,0.00000000,0.00000000,0.00000000,0.00000000,0.00000000,0.00000000,0.00000000,0.00000000,0.00000000,0.00000000,0.00000000,0.00000000,0.00000000,0.00000000,0.00000000,0.00000000]},
  "blocks.0.weight": {"shape":[128,128],"data":[-0.03464755,-0.12694985,-0.04621744,0.03267170,-0.06812697,0.11125079,-0.03075596,-0.07585119,0.04694484,-0.03026790,-0.08811535,0.14170381,0.00918917,-0.13348040,0.09520362,0.04431291,-0.05947771,-0.07185087,0.07970759,-0.02209036,0.00341028,-0.05775848,0.12545472,0.01251359,0.02176502,-0.03987644,-0.11561410,0.12656187,-0.11613880,-0.11510852,-0.05285268,0.01579979,-0.03101814,0.05772091,-0.12979601,0.02757315,0.05053905,-0.03088183,-0.05614008,0.04583397,-0.07755025,-0.08137114,0.08260635,0.01214145,0.05817842,-0.01902127,-0.04057485,-0.07653920,0.06093901,-0.03904686,-0.01492702,0.08573145,-0.16372110,0.08637837,0.05707051,-0.15502281,0.05151707,-0.02280212,-0.10367531,0.08128686,0.02676152,0.02872334,-0.10044228,0.09290752,-0.04750940,-0.04607880,0.08675022,0.08882410,-0.04124901,0.06779634,0.14411402,-0.03683366,0.17656836,-0.01908800,-0.07184021,0.16220978,-0.06338758,-0.00208107,-0.13034798,-0.02951017,0.00296094,-0.06859800,-0.05851455,0.04087216,-0.03774748,0.02419347,-0.04392943,-0.10245617,0.06523654,0.01889006,0.01592134,0.11199319,0.05242021,-0.14920986,-0.09917062,-0.07717432,-0.00069510,0.01027130,-0.07346819,-0.01376064,-0.05053660,-0.00966820,0.01712701,-0.07931097,0.05861233,0.00192215,-0.01384386,0.12493882,-0.06304858,-0.12235613,-0.18305093,0.04967578,-0.02414180,0.01873845,0.05476708,-0.01351952,0.08217777,-0.00483230,0.02139224,-0.15355113,-0.10759363,0.02337677,-0.02376812,-0.12563932,-0.12985229,0.09366044,-0.02788542,-0.05245848,0.10716750,0.04681947,0.04483367,-0.00059743,0.10835488,0.07313212,0.18186606,-0.04979720,-0.02529774,0.00831533,-0.14858828,0.03432055,0.14364339,0.11643436,0.18439783,-0.13905661,-0.07025453,-0.12550220,0.04457042,0.00130631,0.11362114,-0.00188921,-0.12062378,0.21568851,-0.12256202,-0.04628908,-0.08443685,-0.03235633,0.10421022,0.14711417,0.02704294,0.08533563,0.04944731,-0.03712977,-0.08577871,0.05214152,0.06763984,0.02377789,-0.06443614,-0.08802714,-0.13818277,-0.05332854,-0.05879455,0.15822282,-0.09584578,-0.01850464,-0.02345009,-0.06141123,0.02821714,0.01149655,0.02408521,0.15044683,0.01313652,0.05607438,-0.06768691,-0.05942903,-0.03787546,0.03777955,0.03063367,-0.14862926,0.09316187,-0.00598614,-0.03505259,0.07696982,-0.00416903,0.03600998,0.15051454,-0.00473791,0.08199938,-0.14801946,-0.01524191,0.01488009,-0.01136575,-0.21904355,-0.11206765,0.04439000,-0.04370446,0.03174541,0.00338127,-0.04475531,-0.05884735,-0.25405249,-0.04109829,0.07370424,0.12316277,0.01382320,-0.07142784,-0.06008322,-0.03523542,-0.06685925,-0.10636773,-0.11127373,-0.03416061,-0.15246804,0.03286996,0.01323572,-0.01260869,0.04232221,-0.11537161,-0.00688200,-0.01986531,0.04824590,0.08747149,-0.02051162,-0.01816112,-0.01271642,-0.15200555,-0.11799767,0.02158991,-0.08211435,0.03416658,0.13881741,-0.02239685,-0.03237941,0.00233869,0.16319835,-0.01532500,-0.08848985,-0.00266185,0.07416425,-0.11263610,-0.09031648,-0.03166486,0.07036804,-0.16557145,0.10934715,-0.15772618,0.13965727,0.00602317,-0.01359551,0.12839466,0.00295610,-0.21499628,-0.09946756,0.05634261,-0.00926115,0.02034726,0.01252504,0.13198374,0.15979278,-0.05893579,-0.05315067,-0.02491011,0.00695377,-0.07271556,-0.03527986,0.04090862,-0.03590223,-0.00423826,0.05035165,-0.01593642,0.10729589,0.05673203,0.11444350,0.02529678,0.05576383,0.16556966,0.04412482,-0.08878250,0.01338296,-0.02639750,0.14582291,-0.09159184,0.12588754,-0.14191115,0.05745911,0.08613965,-0.14734712,-0.02561249,0.07687339,-0.09970876,-0.03698972,0.06804194,-0.06638968,-0.26566482,0.05919770,-0.02855453,0.18791990,-0.01040061,0.00146280,0.02689121,0.02997035,0.06867612,0.06718087,0.00427327,-0.06859563,-0.07905129,-0.00738337,-0.05749429,0.00184606,-0.02968007,0.05469562,0.11108381,0.06827294,0.04436371,0.03691909,-0.03709069,-0.02186727,-0.07825772,0.10255416,-0.02522898,0.10384046,-0.03388705,-0.02378000,0.00062550,0.02536414,-0.24570896,-0.00704003,0.10554665,-0.13844466,-0.09309967,0.03907952,-0.09943751,0.04203270,0.00433078,-0.05292349,-0.02989085,0.03755943,0.05768494,0.13416615,0.14327419,0.01663745,-0.10569048,-0.06032664,-0.06733160,0.19912426,0.06354687,0.08008479,0.03519167,-0.11330587,-0.13287829,0.05785164,0.07135255,0.12379410,0.11185680,0.00058126,0.02594414,0.09436526,0.03247952,0.02806682,-0.05189587,-0.05507116,-0.04087694,0.03172070,0.01950927,0.12145324,0.00054279,0.03145828,-0.04027974,-0.05496762,0.04179090,-0.19744518,-0.13293888,0.03426163,0.05051856,-0.01508730,-0.02992199,-0.05484442,-0.02206222,0.00902195,-0.04409302,0.03197706,0.05587989,0.05090247,0.12577070,0.03239987,0.06223108,0.06941891,-0.00056021,0.03344543,-0.03107465,-0.06501699,-0.00390773,-0.04316461,-0.03036053,-0.07327898,-0.03639926,0.19192511,-0.08081021,0.08964834,-0.10568447,0.12714478,-0.09419138,0.02716929,0.03074997,0.04874272,0.10029697,0.02821292,-0.02207293,-0.15022320,-0.02149210,-0.07348642,0.03951882,-0.13419726,0.02202702,0.09798250,0.04666142,0.10791651,0.00127243,-0.07859803,0.00489471,0.07523212,0.02328671,0.05843024,0.13177392,0.11571956,-0.12831748,0.01104630,0.05940257,-0.01396749,0.02477767,0.07908384,-0.16249171,-0.14953612,0.09668893,0.12018942,-0.06641150,0.06063665,-0.06201753,-0.01860777,0.03636456,0.03583471,-0.10418507,0.14268377,0.00255162,-0.00926229,0.04281725,0.04665382,0.05427625,-0.20177260,0.10026287,-0.12367521,0.00863073,0.07044696,-0.17263485,0.01815970,0.12987395,-0.06489668,0.06785641,0.06321508,-0.02373651,0.13684809,-0.21016869,-0.05033860,-0.00541483,0.02575115,0.10284305,0.01703675,-0.04955950,-0.00830114,0.00573503,0.00642275,0.06767379,-0.10275912,-0.03807051,-0.03052049,0.06505209,-0.12140694,-0.20622377,0.03850911,0.12175352,0.02171309,-0.07132688,0.11498309,0.11143912,0.22783610,-0.12362029,0.00649860,0.11927415,-0.02844550,-0.10271701,-0.03285274,-0.11371940,-0.12522858,0.04865275,0.25016478,0.14064075,-0.02210685,0.07694783,-0.09075786,0.04647835,-0.04313054,-0.03612112,-0.02998482,0.01708978,0.01267451,0.03722130,-0.08313736,-0.02375935,-0.19648184,-0.07716835,0.16467963,-0.01256561,0.09970425,-0.03830535,0.04308220,-0.05170093,0.02603070,-0.06678849,-0.00330963,0.05646650,0.12081568,-0.05905344,0.03723459,-0.01669917,-0.05205559,-0.00042100,0.01190354,0.06397749,0.06913400,-0.05171451,-0.05198281,-0.00890995,0.25391510,0.01816433,0.05777452,-0.06199440,-0.00336554,0.18709092,0.05907273,-0.01846095,0.14904058,0.01640365,0.02069145,0.13616964,-0.12263718,-0.05945182,0.09110962,-0.00811986,0.06843998,-0.08859780,0.12859221,0.08256473,-0.06620048,0.09541027,-0.01164463,0.09333289,-0.03261235,0.10982125,-0.15714218,-0.01537793,0.04183892,0.04395341,-0.05052464,0.22507620,-0.01907569,0.05839741,-0.02330627,0.01626744,-0.07448790,-0.07584990,-0.06017270,-0.01700958,0.02677304,-0.06580132,-0.02488395,-0.00325691,0.02033716,-0.02951349,0.16587371,0.18613970,0.04703189,-0.05956941,0.08268921,-0.11336279,-0.17301816,0.13315657,-0.03063416,-0.07107871,0.29278108,0.06123544,0.10940301,-0.05235971,-0.02654031,0.04824547,0.11629963,0.18588187,0.01584368,-0.03506146,-0.10124790,-0.03455544,0.06322597,-0.00769254,-0.04495513,-0.13258432,0.00493617,0.02313615,0.04745449,0.07748980,-0.04566700,-0.12162290,0.07990067,0.05365892,-0.07095239,0.10254516,0.08950833,-0.08655033,0.00509383,0.06196845,-0.03631789,-0.00852815,0.23066171,0.12632567,-0.06944089,0.23410591,-0.05394983,-0.10161322,0.12019386,0.00316604,-0.04856082,-0.00787218,-0.00761572,0.09683549,0.04443718,0.01906615,-0.00900813,0.02496767,0.05355787,0.08045512,0.00830643,-0.03787543,-0.01435227,0.01348721,0.00100061,-0.03749256,-0.10017674,-0.00295118,0.03306702,-0.10236531,0.01664981,0.02157192,-0.04887740,-0.10104471,-0.03124499,0.07347205,0.08519770,-0.05666686,-0.16053236,0.12592299,0.05543741,0.01363297,-0.02714131,-0.12709038,0.15102084,0.19561937,0.03713115,0.03465744,-0.01930735,0.00300011,-0.00240376,-0.04400324,0.00930294,0.00854336,-0.08590321,-0.01909595,0.00064904,-0.09353160,-0.11801370,-0.10432902,0.12096249,0.01922575,0.13112256,0.08537617,-0.05023864,-0.04834137,-0.15671565,0.01840839,0.05566821,0.01798887,0.02560692,-0.00046794,0.08924242,-0.00150076,-0.09495931,-0.05123114,0.11316496,-0.02190376,-0.13558413,-0.09714118,0.03906872,0.15262455,-0.02690700,-0.09270582,-0.06478822,-0.01508135,-0.18127131,-0.17118482,-0.04653840,0.09318650,-0.07734912,0.09122655,-0.16210172,0.09671681,-0.08193953,-0.04119359,-0.13818257,0.11182784,0.13034239,-0.01094762,-0.05227080,0.07886147,0.01124157,0.08131008,0.00558376,-0.05993108,-0.06094405,-0.07000528,-0.12006816,0.14130719,0.06445649,-0.10202067,-0.06113017,0.00573188,0.02520563,0.02823339,0.03144136,-0.11565180,0.02783551,-0.00906886,-0.02574380,0.00102881,0.04294284,0.06502564,-0.05124985,-0.06327488,0.05363691,-0.02132583,-0.01523616,0.09145600,0.06092054,-0.04440929,-0.05504116,-0.10852095,0.05565591,-0.13081597,-0.18248980,0.00484153,0.08821972,-0.08830157,-0.11514330,0.05479473,0.07560010,0.06086870,0.13354415,0.04218855,-0.05539225,-0.06495374,0.11028028,-0.11648936,-0.12646993,-0.04505075,-0.01526899,-0.05066035,-0.06621240,0.09389757,-0.01110994,0.10963394,-0.05807643,0.05516497,-0.06887412,-0.07822353,-0.09058519,-0.04190578,0.12831435,-0.16139132,0.02937037,0.19122215,-0.00423682,0.06510980,-0.15374251,-0.10385250,-0.07974745,0.16540389,-0.14922038,-0.10427693,-0.09271405,-0.06827129,0.02445482,-0.11532821,-0.12744635,0.02887533,0.15655482,0.09334034,0.11353493,-0.05236759,-0.04827680,0.12147183,-0.02156239,0.12465063,-0.07148155,-0.02262270,-0.02009353,-0.11291993,0.00844841,-0.08199507,0.05692142,0.12057271,0.24067804,-0.14594385,-0.02130361,0.09608082,-0.08491043,0.01829932,0.03088012,-0.08071022,0.02487362,-0.00964023,-0.03570604,-0.08724962,0.10497244,-0.14374959,-0.03591878,0.05275136,-0.20603472,-0.02561269,-0.04733207,0.09593322,-0.06188601,0.03897258,0.03118628,-0.03817751,-0.03548475,0.05608856,0.16465954,-0.05688860,-0.00222645,-0.03248994,-0.08218458,-0.17070800,-0.04420701,0.04933663,0.11268276,-0.00503794,-0.00202324,-0.06855085,-0.07672804,0.03257418,0.20961776,0.05325835,-0.04133910,-0.02337763,0.13561969,-0.10452181,0.09182709,-0.06976762,0.02101291,0.05322475,-0.02723894,0.01363785,-0.02805880,-0.06653682,0.02806490,-0.09168250,0.05535997,0.06488543,0.16340511,-0.14186615,0.07571013,0.00299203,0.01232558,0.00610236,0.01496201,0.17419006,0.15174010,-0.01139786,0.16476205,0.10405184,0.21137738,0.00810385,-0.03487436,0.03001799,0.00052403,0.02707806,-0.02336884,0.00149930,0.08019685,-0.00653316,-0.11785692,-0.02408252,0.02694324,0.02249498,-0.05481203,-0.11037812,-0.13101503,-0.09051215,0.12833838,0.00293539,0.00815113,-0.05886467,-0.02250393,-0.05991414,0.00670760,-0.08276638,0.11123578,-0.20715080,0.12498144,0.02540147,-0.01245403,-0.01753340,0.10487720,-0.13012321,0.04199649,0.01541075,-0.08102325,-0.03285846,0.09786494,-0.05263470,-0.01426563,0.09759620,-0.03467914,-0.08565592,0.01979691,-0.15703316,-0.11543382,-0.10527461,0.00683914,-0.11163146,0.11558729,-0.01507880,-0.02997038,0.04526057,0.02525697,0.07210743,0.01827453,0.10897069,-0.09219882,0.21822584,0.16922411,-0.11306851,-0.06852489,-0.03272095,-0.13276786,-0.05805514,-0.05725642,0.00998057,0.02550080,0.08633281,-0.10702413,0.04611748,-0.08923884,0.01176563,-0.03176878,0.13490988,0.06176141,0.08083007,0.01345505,-0.02164939,0.05890207,0.06154441,-0.05477688,-0.06441420,0.08326951,-0.08076888,0.08901446,-0.10837959,0.02851513,-0.06590664,-0.10500585,-0.08543104,0.05874040,-0.02203449,0.15869212,-0.03807127,0.02147895,-0.09902477,-0.01283276,-0.07311633,-0.05402885,0.11235415,-0.16419207,-0.01522681,-0.00140114,0.09945416,0.05919799,0.12430248,0.09623346,0.01837528,-0.14714840,0.10664727,0.00235302,-0.05917816,0.04177511,0.06298313,0.06093372,-0.01413464,-0.11386104,-0.19224276,-0.08650219,-0.03262733,0.09058484,0.08091468,0.03088149,0.02522493,0.06219146,-0.22734475,0.05288512,-0.01600266,0.06196010,0.04001258,-0.06693288,0.00584217,-0.13217740,-0.04688879,-0.09915951,0.08574415,0.13767889,0.04786184,0.02737137,-0.00982671,-0.01471743,0.04414203,0.04351014,0.00482860,-0.06365433,-0.04857966,-0.13921635,0.07572249,0.01850857,0.01026067,-0.05686268,0.02503941,0.01089322,0.07494061,-0.17812520,0.08721815,0.01775216,0.05946379,-0.01404884,-0.09449250,0.02139241,0.06284036,0.04770134,0.08250997,0.05939591,0.01077607,-0.10936668,-0.06369047,-0.05493925,0.00010276,0.06414018,0.15530919,-0.08698805,-0.01413319,0.06361646,-0.11694492,-0.00607498,0.03940187,0.06050019,0.01878386,0.00849982,0.06750394,0.01309424,-0.06319667,0.09241705,-0.16944908,0.08203746,0.08064243,-0.17495587,0.14458808,0.06434518,0.10392677,-0.12716822,-0.04406669,0.10378380,0.04788904,-0.15217897,0.03512044,0.04398089,-0.15480682,0.00931060,-0.08285840,-0.05739797,-0.08386160,-0.02409769,0.09851460,-0.03508463,0.18202472,-0.10618644,-0.13229924,-0.07970652,-0.06417608,0.02629123,-0.02956725,-0.10094908,-0.07425521,0.07776652,-0.10326003,-0.00658498,-0.10543350,0.00325153,-0.24518156,-0.00877881,0.05532541,0.03280560,-0.02586970,0.01360743,0.17593738,0.05664868,-0.07193378,0.06173341,0.02435154,-0.16019098,0.00215124,-0.01596949,-0.00300497,-0.04414706,0.17266957,-0.09823853,-0.03876482,0.11874010,-0.04023835,-0.05222322,0.15913737,-0.10695302,0.01985854,-0.02647214,-0.00091301,-0.04333990,0.01946269,0.09953865,0.02583716,-0.07736303,0.00015992,-0.02561414,-0.14369361,0.05614883,-0.08367099,-0.02240240,0.09608658,0.02175419,0.00663875,-0.01699548,-0.10552254,-0.03637197,0.01446106,-0.04861554,0.10314506,-0.01813853,0.02524564,0.01837546,-0.15571877,0.07602637,-0.09911519,-0.05873169,0.03572700,-0.06426774,-0.05749255,0.02794482,0.03917404,0.13395771,0.21096864,0.22478482,0.01979918,0.14119273,0.00643634,-0.09027096,0.06557449,0.15393597,-0.09077772,0.07200927,0.02328455,-0.06563907,0.05359048,0.03994802,-0.00030091,0.00543881,0.00056699,-0.04166412,-0.02685107,-0.01121276,0.03240569,-0.00841837,-0.14932001,0.09915689,0.07910746,0.03160268,0.18677628,-0.04296596,-0.06206682,-0.12921065,-0.13384414,0.18325807,0.00566104,-0.01209809,-0.10236295,-0.05516480,0.18337791,0.05369842,-0.06428401,0.03221548,0.01422853,0.12186944,0.11198986,-0.07931599,0.07693313,0.03702218,-0.08811522,0.06390292,0.12775619,0.04958348,0.01803073,-0.02677041,-0.08926862,0.00490335,0.10735241,-0.13976562,0.14196806,-0.03637759,-0.01476832,0.11189763,0.04420223,0.11803207,0.07716876,0.08602412,-0.02261252,0.26337364,-0.04310450,0.01986561,-0.07941995,-0.14139582,0.06031542,-0.05733953,0.01072761,-0.05521251,0.00957167,-0.03940927,0.00157597,0.04351432,-0.05605046,0.14506349,0.07851001,0.10418463,-0.01652999,-0.20207313,0.05735169,-0.07023974,0.01492268,-0.00705889,-0.09446965,-0.00789309,-0.00628272,-0.01931629,-0.05317694,0.02075084,-0.07480486,-0.01058600,-0.06354814,0.15419397,0.02596286,-0.06138366,-0.06206449,0.02236138,0.09708632,-0.09377145,0.07326502,-0.06244529,0.01879045,-0.13311280,-0.26320174,-0.17740040,-0.18479924,-0.02881235,0.09367441,0.16921614,0.09091196,0.22314855,-0.09297268,-0.09030168,-0.12113938,0.00949840,0.07349098,0.08516523,0.07687443,0.01640067,-0.00614485,-0.01156057,-0.05648217,0.02265083,-0.01906425,-0.04578721,0.00928362,0.00110497,0.03492603,0.02050946,-0.03567729,-0.04565128,-0.01489277,-0.25882187,-0.03008828,0.03420912,0.07801032,-0.00282005,0.08214010,-0.01234585,-0.05837026,0.05198118,-0.00407528,-0.18379176,0.10633825,0.01121681,-0.07522339,-0.12787387,0.01934656,-0.22619446,0.19389436,0.04021847,0.07074340,-0.07119158,-0.05760163,0.17587328,-0.07273873,-0.00569135,-0.01375313,0.01098837,0.03886343,0.00293903,-0.03837049,-0.04614020,-0.10689036,0.03345885,-0.01824311,-0.09249964,0.03476068,0.04650047,-0.10587342,0.06197552,-0.24013719,0.02008951,0.08645842,-0.00943159,0.01601993,0.03604321,0.00682219,-0.01150968,-0.05459753,-0.04411738,0.25083697,0.03875026,0.09876104,0.03852466,-0.01745467,-0.15645190,0.01643736,-0.07066414,0.10962752,0.00718539,0.04479950,-0.11962450,-0.00475677,-0.19504738,0.03187856,0.11747617,-0.07631660,-0.02285320,0.16243868,-0.14360262,-0.06217093,0.02547398,-0.03665219,-0.02146592,0.13224486,-0.08821412,-0.05883770,0.02176916,-0.16840179,0.00872859,0.15373035,0.06270315,0.13233347,-0.01871684,0.05346658,-0.13576825,0.07335111,-0.06727117,0.02470802,-0.00019349,-0.02242288,-0.01981000,0.07269087,-0.06131777,0.11184903,0.06230957,-0.00122752,-0.06953868,0.02621991,-0.16906793,-0.08533537,0.12406726,-0.06292997,0.01144599,0.01206281,0.00745402,0.21737070,-0.01376547,0.03928412,0.08198173,-0.00672836,-0.22250426,0.01454505,-0.01249801,-0.13046895,-0.09821699,0.01582258,0.13334343,0.02165311,-0.01951608,-0.09407245,-0.05089382,0.07856559,0.03499659,-0.12215769,0.12881744,-0.07619824,0.02795043,0.10123135,-0.07227715,-0.10180411,0.09216948,0.04522466,0.09962638,-0.07810386,-0.02873839,-0.05924620,-0.06219455,0.01001875,-0.02968667,-0.15106797,0.05635664,-0.08415987,0.04086849,-0.09273113,-0.03661996,-0.11289649,-0.10677136,0.16702260,0.04213435,0.06704865,0.06900099,-0.08739054,0.03363144,-0.03682322,-0.18747120,-0.06925048,-0.02640942,-0.08382762,0.05420213,0.00412611,0.15795586,-0.14023648,-0.07369053,-0.12897755,-0.00785029,-0.12045082,0.05907863,0.10167038,-0.14642434,-0.00532181,0.00383264,-0.05423485,-0.07187710,-0.09051614,-0.08883657,0.01784484,-0.04687389,-0.07563935,0.08696805,-0.06629203,0.12462707,-0.02417617,-0.03581746,0.00682246,0.03899014,0.07400802,-0.16543896,-0.07605058,-0.06637322,-0.01939072,-0.09923276,0.06097024,-0.12560007,-0.09555167,0.08934595,-0.05045855,-0.00582302,-0.04849649,-0.01995534,-0.06416802,0.02715738,-0.14696461,0.07577459,0.02192156,0.06190505,0.07124339,0.05488029,-0.06373577,-0.02830784,0.06851541,0.26290846,0.02597741,-0.00620086,0.02711402,-0.05274733,0.07669000,0.01162487,0.11526483,0.10813964,-0.01172588,-0.11254776,0.07428409,0.00278344,-0.11983149,-0.13370170,-0.11228125,0.10123828,0.04671153,-0.17612413,0.03375112,0.03865358,0.00826417,-0.10332443,0.06741396,-0.09568474,0.13442445,0.07109378,0.11685198,0.04998898,-0.11120480,-0.00809698,-0.24624892,-0.09883928,0.12595733,0.00625716,0.02273434,0.03151341,-0.13795064,0.03015969,-0.06209543,-0.05244207,0.04384127,-0.08186948,0.00418580,-0.04950412,0.03666959,0.01617069,-0.10861775,-0.19028294,0.08434781,-0.10932240,-0.08680594,-0.00520332,0.16444610,0.04152546,-0.04008892,-0.09123622,-0.03976697,-0.05674760,0.14117806,-0.05809847,-0.00881891,-0.04225488,0.11522286,-0.11880247,0.00034230,-0.02385552,-0.02823294,0.03449024,-0.07135960,-0.04897675,0.00852154,-0.01434170,-0.04672709,-0.04088987,-0.08915722,-0.03465107,-0.13050343,-0.02653999,-0.17415850,0.07419761,-0.01285746,0.06843973,-0.08827035,-0.15726715,0.03487002,0.15647280,0.03497190,0.04649457,0.07400315,0.04586260,-0.03502247,0.01959607,-0.05629229,-0.09489805,0.03704298,0.00590065,0.04260591,-0.04859719,-0.16711806,-0.06470462,0.02643839,0.04688303,-0.03478530,-0.06913472,0.17207788,-0.06598649,0.00789437,0.07405570,-0.03249872,-0.01299661,-0.04981013,-0.05229928,-0.10031781,0.11438008,-0.15124185,-0.05749697,0.04234652,0.05287540,0.03753513,-0.19434659,-0.05403224,0.08284979,0.02088527,0.17274496,0.09052188,0.01532576,0.15898080,0.03734092,0.06507231,-0.06331953,-0.04369395,0.17226090,-0.04387074,-0.17934158,-0.02793222,0.04385607,0.00347119,0.08245141,0.10904492,-0.00320625,0.09245998,-0.15259174,0.06080887,0.01934819,-0.15536323,-0.00212173,-0.22822891,0.07283854,-0.11900026,0.07720340,0.18130447,-0.11140822,0.08967970,0.01498713,-0.02762423,0.04310712,0.04307725,-0.05069084,-0.07135189,0.06437013,0.05071614,-0.00691033,0.12979662,0.11194435,0.02780121,0.00008915,-0.04295700,0.04604839,-0.03570212,-0.06774154,-0.03065418,-0.01581095,-0.10857636,-0.01374547,-0.03181726,0.02816941,0.08464678,-0.04370156,0.11676048,0.00761544,-0.02822484,0.03896667,-0.16626942,0.08725043,-0.05287221,0.05353069,0.02375366,-0.09516092,-0.12611133,0.13449176,0.17169619,0.04914898,0.14455467,-0.02821338,0.07368124,-0.00046911,0.04332434,-0.11006825,0.08588903,0.09565832,0.10068231,0.06777117,-0.11934283,-0.03010773,-0.12924750,-0.12483541,0.01788914,0.03605288,-0.01362466,-0.04193716,-0.13711381,0.01350619,0.15587583,0.15583640,0.01083197,-0.13317862,-0.02156162,0.13303861,0.03381512,0.01194316,0.00616941,0.09382671,-0.13898508,0.10634962,0.06924301,-0.16062070,0.11956149,0.02507176,0.05013843,0.04720559,-0.01711539,-0.01662249,-0.02006775,-0.01145419,-0.05503132,-0.02224081,-0.01658222,0.08058734,-0.06927862,-0.00478973,-0.01038962,-0.11761250,0.05449518,-0.13386221,0.01980426,-0.12749130,0.05400303,0.09584226,-0.09312641,-0.18211804,0.02845642,-0.03706495,0.00840001,0.05837668,0.01336478,-0.12504601,-0.12072861,0.09577922,-0.06224831,-0.01012667,-0.09596807,-0.01405638,-0.15304290,0.01857045,0.02402033,0.08135233,-0.14771368,0.03769153,-0.11731417,-0.08072503,-0.10491662,-0.01429495,-0.27588502,0.03640645,-0.05184773,-0.00130588,-0.06976893,-0.11075775,0.05985809,0.03960528,0.07311498,0.16301447,0.09939883,0.05828512,0.02357126,-0.01044711,0.11381543,-0.08940771,0.13338788,-0.08798401,0.09077262,0.05653769,-0.01625282,-0.02592659,-0.02902545,-0.04242158,0.06603368,0.06837417,-0.12536450,-0.00957991,-0.02625939,0.11154012,0.02894294,-0.17236759,0.07319365,0.00023973,-0.04283207,0.03992243,-0.00626112,-0.18350735,0.18290554,-0.11373958,0.01020756,-0.08953218,-0.01910809,-0.08417183,-0.07873066,0.04740678,0.08185337,0.03771264,-0.02453945,-0.15659836,0.00525895,-0.02639574,-0.07635490,0.01137514,0.08045957,-0.15759189,0.05413223,0.01903451,0.06406915,0.06353336,-0.02363932,0.03077278,-0.01404492,-0.07480290,-0.03678801,0.01046437,-0.05803214,-0.15516444,-0.10764451,-0.13304633,-0.00951140,-0.07623747,-0.15271334,0.02687754,0.14832248,-0.15913491,-0.08544199,0.17000893,-0.12358250,0.11424991,-0.02158432,-0.13622130,-0.04807079,0.11069238,0.15061527,-0.09065261,-0.08274186,0.05595904,0.13288368,-0.08492712,0.02982492,0.01660254,-0.00020352,-0.11202220,-0.10236308,0.15547660,0.01935075,0.16833813,-0.02921984,-0.10231793,0.02951659,-0.17962019,-0.00336304,0.13048585,0.05130773,0.17405145,0.02396109,0.10975561,-0.18836914,0.03817878,0.02578536,-0.08444788,-0.10945221,0.01108111,-0.06219538,-0.00890414,-0.05048824,-0.03984063,-0.15725204,-0.09763843,-0.24224138,-0.06820679,0.08601048,-0.08473577,-0.02997621,0.08138712,0.21187349,0.23365258,0.12360095,0.02846241,0.06299825,0.01608149,0.06225695,0.00681019,-0.07101645,-0.00361332,0.05015264,-0.02693669,-0.07813083,0.00551619,0.01598880,0.05329075,0.02320252,0.08206490,-0.11978914,0.06883269,0.04417269,-0.01730568,-0.06776229,0.08643149,-0.01036588,-0.12332108,0.02868154,-0.19078512,-0.10608315,0.10656419,-0.06610205,0.09962136,-0.03736519,-0.09452310,-0.06609077,-0.02096689,-0.05982960,-0.10685782,-0.02785850,-0.01059087,0.14314440,0.05463213,0.12625864,0.13704704,0.03137625,-0.02355574,-0.02532224,0.04761519,0.08470485,0.12874196,0.09513991,0.04102844,0.09634849,0.05759400,0.01458720,-0.04180149,-0.05721828,0.08390398,-0.00546378,-0.00307362,0.04894076,0.10462029,-0.03559039,-0.02869561,-0.13913275,-0.15624024,-0.01760178,-0.14351213,0.01288091,-0.04944610,0.12943900,-0.02780980,-0.07110417,0.06048424,-0.02486642,-0.02548592,0.05998139,0.08853599,-0.02961331,-0.00620122,0.05856755,0.06610744,-0.15883288,-0.03166131,0.00931872,0.00346001,0.02115056,0.05895155,-0.15807401,-0.03804975,0.09584553,0.04098637,-0.06177786,0.01272171,0.24473768,0.02727138,-0.00037995,0.00215160,-0.01661029,0.03858556,0.04434932,0.06381786,-0.07655326,-0.29412863,0.13486344,0.07340356,-0.05583753,-0.06438689,-0.05144870,-0.07067230,-0.09604924,-0.09080965,-0.07909765,0.02299822,0.01940782,0.02682708,0.02429741,-0.08620898,-0.03411448,-0.05259708,-0.04441808,-0.02910401,-0.15948224,0.03123736,-0.02502776,-0.03583957,0.08464226,0.12911117,-0.00677837,-0.02413777,0.00285333,-0.02061111,-0.01854633,-0.14457633,-0.08157154,0.06718803,0.10814226,0.01675843,-0.01048193,0.06279197,-0.01835279,0.01868900,-0.01518698,-0.01935125,-0.04900737,0.12314641,0.00637856,0.09535643,-0.02270596,-0.03650160,-0.04607639,-0.07071260,-0.06829230,0.13648981,0.03216610,-0.00197094,-0.00421925,-0.09958548,-0.06675175,0.12691997,0.03699754,-0.02394149,0.08032757,0.00264229,-0.03209856,0.00418048,-0.04051796,0.28516662,-0.07231929,-0.07504722,0.08175434,0.03395733,-0.08597227,-0.06852918,0.05885040,0.20066300,0.04908201,0.10495580,-0.04890035,-0.10610893,0.16178600,0.08803065,-0.11150728,-0.16696303,0.06970745,0.00557996,0.06912128,0.05239945,-0.00567070,0.08871794,-0.11578422,0.02151547,-0.03300956,-0.19274175,0.08247889,-0.09889385,-0.02382238,0.06789002,0.04784495,-0.08997771,-0.10551963,-0.03439448,0.04491155,-0.04676391,-0.04955488,0.10090039,0.16430333,-0.08315378,-0.03143101,0.02614621,-0.09269234,-0.01147672,0.04253029,-0.08477089,-0.08014683,-0.05918739,-0.02483079,-0.13860469,0.03690427,0.15020218,0.00301861,0.02515810,-0.12734522,0.04830571,-0.00341798,-0.15251380,-0.11355045,0.12657401,0.03857658,-0.00826512,0.07411607,-0.01144189,0.03086191,-0.00781363,0.02124279,0.04256899,-0.00613456,0.02940695,-0.05241208,0.21779008,0.02914114,0.09310684,0.05541864,0.01440984,-0.02801966,0.14886612,0.09741956,-0.02546722,0.04120294,-0.02194517,0.00423523,-0.09270624,-0.10883716,0.06140911,0.01648022,0.04731264,-0.12276827,-0.20733373,-0.04921486,0.16776840,0.01788899,-0.02064001,0.05054847,-0.03513292,0.15131897,-0.00872500,0.10824526,0.03792454,0.08633174,-0.03335602,0.10837328,-0.01224876,-0.01628149,-0.05793221,-0.09150032,-0.04966163,-0.09696373,0.03337578,0.09352695,-0.04960774,-0.03792991,0.11401217,0.16460630,0.12512110,-0.10102965,-0.16165800,0.10964822,0.07380649,-0.02649892,-0.20332123,-0.00234454,0.20728561,-0.13563435,0.17277688,0.01300769,0.02712353,-0.00887718,-0.02348042,-0.08921609,0.15456955,0.02026386,-0.05162261,-0.01855791,0.00657865,0.00957156,0.05894763,0.04436492,0.11996707,0.06480888,-0.00833812,-0.02040625,-0.19285721,0.04081848,0.07897146,0.10746066,0.22482969,0.20713629,-0.05823746,-0.08927099,0.10635085,-0.03669580,0.09209688,-0.02607698,0.15730517,0.01163350,-0.14694691,0.10642945,0.02409121,-0.11679559,-0.24521066,-0.03735756,0.09569573,-0.11764834,0.03021838,0.24465558,-0.08097371,0.07661101,0.17527488,-0.20027782,0.05831537,0.00141019,0.01318369,0.02858474,-0.05023634,0.03660386,0.02870225,-0.08409934,0.18395831,0.04028747,-0.01968755,0.05424571,0.08113851,0.00666380,-0.00502165,-0.00796152,-0.01673435,0.13968545,0.02407791,0.03109288,-0.06245470,-0.05130786,0.01992591,-0.03196499,-0.04917534,0.04513357,0.04084823,-0.01881892,0.02030718,-0.00858417,0.02483376,0.01995894,0.03908341,-0.10693467,0.05200911,0.07675959,0.04998948,0.01251089,0.05879547,0.02093170,0.09892313,0.05158588,0.06837323,0.13835394,0.02803417,-0.06768751,0.08975026,0.01304264,-0.03240713,0.13719527,0.09042220,-0.05485952,0.08138444,0.02373422,-0.01856972,0.13757291,-0.01572721,0.10390297,0.01257885,0.11531472,0.01656967,0.03382273,-0.02180883,0.03422528,-0.09950393,-0.09071673,0.00188978,0.01942099,-0.12009386,-0.17309731,0.10722870,-0.02710644,0.01705755,-0.09290420,-0.05329844,0.10983133,-0.12030741,0.01758585,-0.14905009,0.08263949,-0.04793929,-0.03694224,0.05101442,-0.03938687,-0.10673004,0.06986834,-0.06356456,0.02062278,0.00892787,-0.05982684,0.11497204,0.03453941,0.06764475,-0.08194356,-0.09898488,0.23887165,-0.02669595,0.08709500,0.03906823,-0.07015824,0.03433602,-0.01835152,0.14191745,-0.13616231,-0.05853206,-0.21456873,-0.16749685,0.05376146,-0.14879848,-0.17511323,0.01374818,0.09275534,-0.05948554,-0.19091405,0.02575562,-0.09263760,-0.14430539,-0.11158720,-0.01181801,-0.03777010,0.06117548,0.05234319,0.12082658,-0.03447603,-0.03746307,-0.00023706,-0.20442747,0.11038249,0.13892159,-0.02503078,-0.11811107,-0.00830885,-0.01893724,0.01236051,-0.13019523,0.08976322,-0.07534629,-0.21977842,-0.00284356,0.00826294,0.06855848,0.01635602,0.00876636,0.01032995,0.01633753,-0.01555920,0.23743688,0.05928529,-0.02610583,0.09472716,0.08280402,-0.05748888,-0.09267320,-0.13399298,-0.09239794,0.08744710,0.07050003,0.13236883,0.07551334,-0.08337826,-0.09853236,0.06078859,-0.08693442,0.19295168,-0.05110974,-0.07026362,0.08829856,-0.08014268,0.04560154,0.01646987,-0.08415177,0.00312795,-0.05722535,0.03382511,0.05558987,0.07151318,0.00545901,-0.02583776,0.01663868,-0.00225448,0.18109110,0.00387284,-0.17273389,-0.06124223,-0.06297511,0.08670879,0.13316289,0.07297204,-0.07020208,0.13601571,0.05538882,0.01631383,-0.01892660,-0.05756463,-0.06770892,0.03995054,-0.05587120,0.00926213,0.11269139,-0.03263020,-0.13103230,0.05849784,0.12229161,0.04179176,-0.04601417,-0.08717977,-0.02427847,0.08140091,0.04514685,0.14178103,0.10508704,0.13699438,-0.06300009,-0.12003373,0.00140406,-0.02341494,-0.05018789,0.02369970,-0.01917626,0.14688146,-0.03600112,-0.09866837,0.05105024,0.03934959,-0.09273789,-0.05169891,-0.13058963,0.18293776,-0.00146793,-0.07395066,0.05339769,-0.04423406,0.01191245,-0.06228927,-0.09143463,0.00058137,0.21777965,-0.04316463,-0.05386663,0.03800058,0.02040474,-0.04668426,-0.02432010,0.09390327,0.05776801,-0.03023528,-0.09504610,0.16433161,-0.14851658,0.02889504,0.16622210,0.09418134,0.16598591,-0.07149488,0.02885152,-0.00219870,0.07152393,0.06365805,-0.01532814,-0.10801275,-0.08749121,-0.17342503,-0.01463348,-0.11065736,0.04989005,-0.14521746,-0.05900916,-0.16235191,-0.19192585,-0.05152304,-0.08922932,0.17006543,0.02160078,-0.20894633,-0.15404709,0.08769750,-0.09782097,-0.14135852,-0.09694786,-0.05455479,0.11976049,0.12145043,0.04496005,0.01492225,-0.12353166,-0.00040825,-0.09956138,0.13236667,-0.07427195,-0.00931915,-0.02049014,-0.01388826,-0.12098928,0.05671015,-0.02839490,-0.13609409,0.15078706,0.07096706,0.06696173,0.01097904,-0.00423965,-0.04970590,-0.09968797,-0.01581859,-0.11737034,0.01119693,-0.01562666,-0.08560540,-0.01613925,-0.05486031,0.06492180,0.12116764,0.09699747,0.03993454,-0.23012611,-0.05712781,-0.08270749,0.04261514,0.06096900,0.00344295,0.07598377,0.21095005,-0.08357349,0.16448392,-0.02000233,-0.09211235,-0.17888838,-0.17770492,-0.05304707,0.01080716,-0.11452836,-0.16288728,0.00812408,0.03036039,-0.11346642,0.08726178,0.05107428,-0.09542599,-0.03439347,0.06033688,0.02167491,0.09713396,-0.09849710,-0.07037957,-0.01836138,-0.09602004,-0.00064754,0.09293293,-0.09573315,0.06587248,0.04609139,-0.00608547,-0.13682869,-0.06593607,-0.00282234,0.07111593,0.06593335,0.05586772,-0.08662217,0.04598516,-0.00957524,0.03040544,-0.11555286,-0.02027775,-0.14161795,0.00713874,0.00392152,0.17006175,-0.11161803,0.07110591,-0.06360980,0.02802445,0.05651679,-0.08418039,-0.01500367,0.04490754,-0.04909156,-0.05832113,-0.17321274,0.13505088,-0.04017456,0.23857109,0.03815999,-0.07597864,0.02175350,0.14994334,0.00108433,0.02987941,0.06049876,-0.15475070,-0.11289436,-0.01328511,0.01300709,-0.05122060,-0.01038348,-0.07189903,0.10419725,0.12297829,-0.05473161,-0.20198114,0.13980189,-0.02176349,-0.15819992,-0.12080777,-0.12169030,0.00510038,-0.06054380,-0.06503455,0.04216873,-0.10021964,-0.02651171,0.02091406,-0.07832313,0.01193142,0.06543717,-0.01001403,0.04252137,0.13442799,-0.04507533,0.00751145,-0.20114341,-0.13493471,-0.02878381,-0.05778760,0.01559839,0.05961712,-0.00543772,0.04696411,0.09198734,0.07528573,0.01917412,0.09053528,-0.05342584,0.10554780,-0.05335503,0.04408620,-0.03867338,-0.01370629,-0.06876156,-0.04667055,-0.02037985,-0.00441069,0.14364183,0.08263685,0.08871518,-0.14742519,-0.01137307,0.09879585,-0.04660092,0.01546664,0.07432798,0.07500095,0.13333338,-0.00528478,-0.01902017,0.03220390,-0.09187428,-0.03890251,0.13834432,-0.09308331,-0.07497417,0.00193265,0.03065765,0.02750078,0.05331928,-0.02435338,-0.24242629,0.15280342,-0.04182356,0.17508423,0.04860192,0.11251205,-0.06910886,-0.07620396,0.03307574,-0.10835513,-0.08138317,0.05457465,-0.05372007,-0.15968131,-0.09438510,0.02631494,-0.06764465,0.07651837,0.15059116,0.01641078,0.00093024,0.10467990,-0.01452734,0.18354063,-0.16240929,-0.00891299,0.05050691,0.08496048,0.19732927,0.05587389,0.08225494,0.08374267,-0.05122041,0.07446619,0.06767228,-0.02312725,-0.03947425,0.22353818,-0.07748131,-0.01325725,0.10627651,0.05200447,0.00887207,-0.07304437,-0.07783368,0.03608496,0.12573931,-0.05868262,0.04587863,0.01976441,0.05996478,0.00829690,-0.09582869,0.09357775,-0.08218857,0.14009376,0.05549570,-0.00198443,0.05423526,0.01389389,0.08156214,-0.06156668,0.00937196,0.08502170,-0.05462584,-0.08844344,0.04844647,0.16530241,-0.04569145,0.04303228,0.12633780,-0.00713357,-0.20578961,0.04082823,0.05618146,-0.10048041,-0.09129630,-0.05864019,0.20100331,-0.15552151,-0.03310588,-0.00835930,-0.20057267,0.12511349,-0.12486120,-0.00886426,-0.01010860,0.18280929,0.11361997,-0.15764046,-0.14213069,0.03359210,0.07248008,-0.07735624,-0.03834577,0.01047022,-0.08009316,0.00504764,0.03552211,0.01651906,-0.16387485,0.03922966,-0.07294472,-0.05776749,-0.10651332,0.15147138,0.04459930,0.07304715,-0.04487349,-0.02773238,-0.10442527,-0.13812302,-0.07749323,-0.11150018,-0.01959828,0.13004626,0.02719439,-0.16861379,0.09012796,-0.11160661,0.08355635,-0.02109143,-0.16776989,0.06811868,-0.05067440,0.13384606,0.15023391,0.12199328,0.02882949,0.02089150,-0.04673324,-0.01854008,-0.05346810,-0.01592375,-0.03841817,-0.05344019,0.05700122,0.10015400,0.23888174,-0.01994111,0.05697552,-0.04339442,0.18073726,-0.07911678,0.13868031,0.06621815,0.00947617,-0.01713095,-0.06259877,-0.10258688,0.24378066,0.11018652,-0.27088925,-0.21700141,0.03607452,-0.00929010,-0.14768031,-0.04758397,0.00123880,-0.01877772,0.02174773,0.07195561,0.08565255,0.04142547,-0.03929668,0.03133604,0.03106917,-0.02698399,0.05019600,-0.05792797,-0.04083711,0.03048395,0.02410988,0.04877428,-0.06024826,0.00983911,0.05079487,0.02511790,0.02317010,-0.02477051,-0.16035539,-0.10086410,0.00992426,-0.16115707,-0.12962979,0.06751290,-0.01645198,-0.03416789,0.08916034,-0.11790966,0.12609386,0.09873838,-0.09221634,0.25223613,0.15865441,-0.05582470,0.02210967,0.01617065,0.10544755,-0.21200718,0.05709245,-0.10207738,-0.10484395,-0.05130736,-0.01249059,-0.13280968,-0.02139473,0.02890514,-0.06970535,0.10900951,0.10293879,0.18133159,-0.00786803,0.00988292,-0.00390032,0.14067733,0.03752746,-0.11653657,-0.03278467,0.05760022,0.05313190,-0.14752495,-0.05778327,0.01719026,-0.15765995,-0.27569556,0.07147769,0.05462302,0.04192765,-0.00896150,-0.04587767,0.03034893,-0.01325145,-0.01016737,0.07271837,-0.04439792,-0.07117694,0.00930517,-0.00541966,-0.01363959,0.00367300,0.10189318,0.07861034,-0.01645952,-0.02394962,-0.04595557,-0.07272715,-0.21126731,-0.09491853,-0.10876901,0.08952165,-0.07069079,-0.01140792,-0.06986022,-0.09487648,0.01999669,0.04716789,0.12988664,0.05631415,0.13518411,0.01173375,0.14865330,-0.06953097,0.00274749,0.05150190,-0.04707341,-0.06848899,-0.12142929,0.10829892,-0.14598945,0.00057491,0.08703744,-0.10647336,0.10164054,0.11276264,0.02239319,-0.06286719,-0.01045980,0.05289174,0.19962652,-0.01812861,0.13351330,0.06401022,-0.18447250,-0.09073281,0.09651582,0.02728079,-0.07633047,-0.02053342,0.08402374,0.10244949,-0.08929426,0.03587873,-0.03368456,0.00669392,0.00655826,0.08729026,-0.14844321,-0.02643494,0.02572956,0.10765724,-0.12102410,0.09019350,0.04336819,0.02617157,-0.07409808,-0.00220725,0.15822931,0.00198594,0.09890306,-0.04737699,-0.13518910,0.07778328,0.00449529,0.02486144,0.02952293,-0.05169547,-0.04189695,0.01585153,0.11616930,0.19695660,-0.05700321,-0.01815178,-0.13547368,-0.05867838,-0.07874035,-0.00139312,0.00346011,0.08066665,-0.03510533,-0.00138141,-0.11750726,-0.14429243,-0.05454688,0.06081775,0.01876569,0.05050048,-0.01503505,0.07734020,-0.08976272,-0.14411706,0.12034632,-0.08372898,-0.06849024,-0.06498075,0.09798825,-0.00058984,0.00091649,-0.04068773,0.03431804,-0.21019717,-0.08689750,0.21644005,0.01106264,-0.05304067,0.03793531,0.00182117,-0.08201209,-0.04761862,-0.07355487,-0.02275290,-0.03140537,0.01622445,0.16626626,-0.16526517,-0.03187282,-0.03668409,0.07962136,-0.14710994,0.01730851,0.10571291,-0.18163659,-0.00758829,0.00219462,0.01151685,-0.12440526,0.05462448,0.00774418,0.08198345,-0.03831529,0.02290592,-0.00497257,-0.07758038,-0.04219810,0.05236249,0.16401850,0.02950813,-0.04699562,-0.00682853,0.04135957,0.00780121,0.03850577,-0.12286144,0.08375312,0.10517808,0.07510775,-0.01489348,-0.00596152,-0.09289106,-0.11143081,-0.01397446,0.00963901,-0.13235445,-0.05388259,-0.00843719,0.15491970,-0.05910870,-0.09235081,0.07137126,-0.10789067,-0.15262403,-0.06798939,-0.06622750,0.04457312,0.08772551,0.05469739,-0.02304732,0.04250945,0.12237077,0.06064065,-0.16916060,0.11475310,0.12430576,0.13423288,0.11972831,0.00123133,0.11326056,0.05862998,-0.05034143,-0.12662530,0.01966001,-0.10739378,-0.06092226,0.21641362,0.06918641,-0.16618057,-0.12569521,-0.01216103,-0.08177140,-0.05571510,-0.07380047,-0.00739546,-0.04497566,0.01515348,0.05673731,0.10145182,-0.05429520,-0.09574440,0.13381039,-0.08106825,-0.01827782,0.00818283,-0.12206605,0.00502595,-0.05300379,0.05257099,0.09351279,-0.14028895,0.07469063,0.11882743,-0.03064533,-0.00653358,0.09811711,0.03054242,0.06496829,0.06128797,0.15541814,0.05159385,-0.02648226,0.04699657,0.13567224,-0.03862325,0.03868048,0.03090166,0.04141439,0.11838225,0.00985905,0.08218934,0.03832502,0.10457778,-0.10791751,-0.07222255,0.06002709,0.17343508,-0.02892801,0.23330131,-0.10778852,0.11385165,-0.13635573,-0.21234851,0.12301395,0.06074735,0.09901751,-0.03291139,-0.17156872,-0.05339539,-0.08229764,0.11903185,0.01380283,-0.10122567,0.06450781,-0.01011840,0.01464836,-0.09502858,0.17473455,-0.07225931,-0.06725835,-0.13305283,-0.05170082,-0.00832171,-0.00152075,-0.00381035,-0.07008927,-0.05788580,0.02803154,-0.01863008,-0.00205043,0.06227098,0.01073643,-0.14024962,0.07037930,0.04194500,-0.14141431,-0.11909372,0.20663740,0.08747981,-0.08919435,0.01972725,0.07069291,0.21758844,0.02890921,-0.03701733,-0.04258351,-0.04701289,0.17594072,0.06020053,-0.07517390,-0.04853623,-0.08406222,-0.07417779,-0.01562259,-0.01617287,-0.14780243,0.09542782,0.07246447,-0.00848200,-0.03807597,-0.01516530,-0.10096218,0.01601779,0.08150650,-0.01047145,0.00467219,-0.08052291,-0.02335611,-0.06922962,0.03174813,-0.08180929,0.08792801,-0.09483657,-0.03672245,-0.19271885,0.03260748,0.08181555,0.07824462,0.01704043,-0.10322374,-0.02581540,-0.03016724,0.14896421,-0.18522264,-0.02062625,0.18008189,-0.02494767,0.04168790,-0.16291873,-0.07433078,0.03750049,0.09047067,0.04130165,0.00433275,0.04386076,0.00029907,-0.02291083,-0.02861542,0.04159973,0.07140452,0.04283693,-0.15824383,0.00286820,-0.02478116,-0.01375789,-0.12161731,-0.00134014,0.08204593,-0.02479961,-0.01141029,0.05180523,-0.08575157,-0.02633407,-0.00472803,-0.01711696,-0.04749712,-0.08995173,0.08431488,-0.06322737,-0.01019484,-0.10803294,0.10392534,0.06389981,0.00292727,0.05720237,0.07955150,-0.00609216,0.16931036,-0.02666716,-0.07276068,0.11405241,0.03047804,0.01905566,0.03310775,-0.01497586,-0.17362648,0.03591267,0.13134463,0.09786771,-0.07335474,0.03721781,-0.05893843,-0.00533500,0.11925441,0.01161208,-0.07606184,0.02957778,0.00223605,0.10253545,-0.05249999,-0.01714253,0.02127950,-0.00733917,-0.06045994,-0.11911053,-0.12126788,-0.06524154,0.03230195,0.09735893,0.04314123,-0.19863194,0.09845781,0.07930851,-0.04116983,0.05449081,0.07126705,0.15186520,-0.07686197,-0.02276924,-0.01625039,-0.09596962,0.08532440,-0.06022967,-0.02303403,0.13058424,0.07673868,0.18513325,0.04526830,0.05246080,-0.19984631,0.04962394,-0.12879968,0.04512851,-0.11464772,-0.00478130,0.04999526,0.02844340,0.09559403,-0.13964756,-0.04920343,0.04022874,0.14627878,0.11745107,-0.03840946,0.08395476,-0.07051659,-0.06421681,0.05203972,-0.02117481,0.00864252,-0.02756985,0.06939284,0.04559266,-0.17014301,-0.00673354,-0.06436959,-0.04316933,0.10203717,0.03022734,-0.01525906,-0.18855661,-0.09236766,-0.00044206,0.14875829,-0.13976939,0.09016766,-0.15872459,-0.10785382,-0.01301199,0.03718678,0.02696641,-0.03676548,0.20972486,0.07033019,-0.05545099,-0.00702775,-0.07164609,0.07240734,-0.04679336,-0.05395794,-0.14802514,0.04971235,-0.07054725,0.12715553,0.07415167,-0.00442797,-0.06372631,0.05058210,-0.01311202,-0.01406966,-0.12663937,-0.03524319,0.01705086,0.00134004,0.13739274,0.09348867,0.12808363,-0.08575898,0.03052307,0.00428889,0.07071450,-0.04126916,0.01856299,-0.05915726,-0.04435612,0.00076207,0.18310910,-0.09580056,-0.05699475,-0.00977522,-0.12485910,0.08815234,-0.15566291,0.07135133,0.06747642,-0.20405632,-0.02938551,-0.02640047,0.22485574,0.14135854,-0.01149107,0.10267006,-0.09862719,-0.19084054,0.03788121,-0.02764266,0.19942494,-0.06625117,0.05746224,-0.05518899,-0.10895698,-0.18689798,0.06806827,0.03073951,-0.20758435,0.12644595,0.04197711,-0.14403832,0.02822459,-0.04846736,0.00311073,-0.02603276,0.03194043,0.03481169,-0.04246689,-0.14730330,0.02325728,0.11047405,0.00903007,0.11572931,0.06786901,-0.08200432,0.14418647,0.07311702,0.05105636,0.11659829,-0.14259833,0.18015015,-0.12055431,-0.02327330,-0.10751354,0.11045965,-0.05243981,-0.01749537,-0.00582490,-0.05557277,0.01442799,-0.03006596,-0.06884845,-0.18643159,-0.02156354,0.08186807,0.02056227,-0.07799935,0.18261576,0.00680103,-0.16109639,0.09523742,0.02961624,0.11119426,0.01435810,-0.09183668,-0.11010130,-0.13777275,-0.09570006,-0.01759801,-0.00520676,-0.05185123,-0.16352056,0.07737817,-0.05486404,-0.15739702,0.02664729,-0.03502908,0.14475994,0.03944455,0.01813227,-0.07079774,-0.09316758,0.04122693,0.14818323,0.03500599,0.05709199,-0.01725376,-0.06632646,0.02168753,-0.11339619,-0.01471523,-0.06681725,0.07925927,-0.04439218,0.16467497,0.00878069,-0.07090469,-0.05947460,-0.02242357,-0.12405124,-0.02592278,0.02643447,0.12125725,-0.04128729,0.07607497,0.07196946,-0.03196587,0.04113204,-0.03923700,0.06470214,0.08798294,0.00215944,0.01601620,0.03248956,-0.02788519,-0.01656137,0.06965373,0.02274191,0.01591385,0.05793476,-0.16258173,-0.05415615,-0.12735508,0.14819351,0.01051778,-0.08318794,-0.02695702,0.16797346,0.16207591,0.07889730,-0.00458555,-0.01794001,0.18331514,-0.17041413,0.03133999,0.08779281,-0.05679487,-0.06232478,0.05511187,-0.12218463,0.13452391,-0.02381049,0.00396571,-0.19953521,-0.03389413,-0.10709658,0.04170286,0.06470114,0.09127267,-0.05861692,0.02440234,0.02491799,-0.03725155,0.00870795,0.07499585,0.06902115,0.23226289,0.00262132,0.09366783,-0.06632362,0.06398752,0.10416754,-0.13365178,-0.02094303,-0.03727658,0.05070531,-0.13086770,0.18965867,0.00392641,-0.17819500,-0.09277584,-0.10297304,0.05426067,0.03995011,-0.06385243,0.04846031,-0.17182025,-0.07776982,0.02027957,-0.08799914,-0.04138003,-0.00464965,-0.07439367,0.22834042,-0.11990198,0.20223711,-0.03505577,-0.14898425,-0.03138644,-0.04767844,0.00578223,0.02571947,0.01351077,0.03011734,0.12168398,-0.03753106,-0.00590718,-0.04467367,0.08543360,-0.04948435,0.08685048,-0.09858701,-0.01517371,-0.04736441,-0.05742275,-0.03887763,0.05030921,-0.06988640,-0.10207563,-0.02841170,0.02131411,-0.18610924,0.03800372,-0.13234802,0.06871918,-0.10883725,-0.06405043,-0.02377798,0.15101953,0.07068163,-0.06474630,0.03062506,0.00679138,0.09468282,0.01614836,0.02926180,0.05581535,0.09853590,-0.09283407,-0.06040829,0.10534056,0.03494464,0.09239726,-0.07393906,0.02461450,-0.15287051,-0.00197058,-0.03081558,0.04231443,0.10140738,-0.05768480,0.18743552,-0.07532764,-0.02733994,-0.05048219,0.05095945,-0.03049879,0.00537565,-0.10269900,-0.01106661,0.02934279,-0.01869929,-0.03982011,0.03603027,0.06762021,-0.15524650,0.08496761,-0.10115977,-0.06697477,0.03798695,0.02662070,0.16135713,-0.21349862,-0.05619013,-0.04447298,-0.00186248,-0.00781921,0.04564755,0.07842053,0.15569380,-0.19783564,-0.03913677,-0.09921780,-0.08237142,0.00225637,-0.07955058,-0.14513074,-0.05658386,-0.18531777,-0.11833991,-0.20081244,-0.02320110,-0.00741328,-0.02982991,-0.13586567,0.08586109,-0.12175287,0.21306330,0.06345269,-0.14440656,-0.14415905,0.01153618,0.05921117,-0.03501494,-0.05876500,0.05545148,0.00517688,-0.06952067,-0.09771455,-0.06105034,-0.04239075,0.04286031,-0.02643532,-0.14358707,-0.05556573,0.12953778,-0.03388562,0.09909126,0.01110604,-0.02998426,-0.04883964,-0.07520778,-0.07038588,0.10040385,-0.09520331,0.09872795,-0.01336686,0.12580246,-0.06348895,-0.10642776,0.02947848,0.00165295,-0.01429184,0.05913811,-0.03058880,-0.03170214,-0.06657250,0.15775022,0.11924653,-0.12300403,0.06823888,-0.01183849,-0.04601330,-0.03244595,-0.09926571,-0.03298150,-0.07021592,0.10139795,-0.00919574,-0.07820506,-0.00637418,0.03541562,0.09224142,0.02505747,0.13100672,0.16512430,0.14974836,0.02332310,-0.14760688,0.00344985,-0.14129208,-0.09347124,0.01824551,0.10197764,0.09079663,0.09930405,0.05675941,-0.13757844,-0.05392308,0.02504079,0.04877422,-0.04894458,0.09156159,-0.01588089,-0.10482036,0.00867455,0.03860122,0.06327514,-0.04427513,0.06637035,0.01440957,0.08017118,-0.13596195,-0.00812463,0.04080286,0.01047161,0.08035313,-0.01048975,0.08158459,-0.03180736,-0.01163277,0.11599565,0.02612330,-0.06570479,0.01442722,0.15364772,0.03691531,-0.01841461,-0.11844273,-0.05266636,0.00025207,0.02834429,0.03117149,0.03380089,-0.19957890,0.02600988,0.07421248,0.03623876,-0.15209348,-0.08538038,0.09134507,-0.00464068,0.09873510,0.01180544,-0.01562878,0.13297912,-0.09698512,0.03098880,-0.01276184,0.04915969,0.13041005,-0.15953454,-0.00882345,0.00798439,0.03542024,-0.05787823,0.10461932,0.06035763,0.08350708,0.01540803,0.02489979,0.05673211,-0.10199581,0.03166321,-0.00975160,0.01706030,0.08255596,-0.12183408,0.14811659,-0.05491168,-0.06369932,-0.09462197,0.05687365,0.02969705,-0.02104309,-0.03970187,0.02666919,0.00869133,0.07901417,-0.02963795,-0.14797315,-0.05308719,-0.04507929,-0.08652624,-0.05158618,-0.02997010,0.24744880,0.01143886,-0.06133312,0.04870763,-0.16711400,-0.11250764,-0.03596466,0.05005265,0.12594168,-0.07914227,0.03342297,-0.07453130,0.01871183,0.07835130,0.01783796,0.09887803,-0.13599269,-0.11014815,0.03738304,0.08185616,0.15366295,0.02705441,-0.01838235,-0.06406925,-0.12125225,-0.17110179,0.04567512,0.04677416,-0.00730898,0.12080259,0.08407637,0.11407508,0.13650228,-0.01788614,-0.08216729,0.05601333,-0.22340676,0.11451774,-0.02430853,0.00454155,0.17839745,0.02120800,0.07569522,-0.00344488,0.04137395,-0.08559838,-0.09107617,-0.08344540,0.03148988,-0.04515640,-0.08329063,-0.07789216,0.02842605,-0.06982733,0.10410063,0.00139479,0.08002531,0.05227688,-0.00740181,-0.12115771,-0.05232922,-0.05447241,-0.02101232,0.03876678,-0.04215168,0.08586207,-0.13006948,0.00255248,0.05959000,0.06542482,0.00398498,0.12690833,0.01519862,-0.10019628,0.07354834,-0.12942690,0.12528607,0.14273860,0.00136797,-0.03539161,0.01620866,0.07021064,-0.08422350,0.01717024,-0.21205495,0.03585432,0.06920169,0.09849379,0.09603063,0.09753669,0.15344021,-0.01849818,-0.13588260,0.11921982,-0.01763625,-0.03273619,-0.03010465,0.04516791,0.04756515,-0.09134951,0.02545930,-0.07032984,0.08122535,0.21147560,-0.05221278,-0.00241688,0.10938146,0.07495455,-0.12380239,-0.08078682,0.01156118,-0.15213402,-0.02877378,-0.10711826,0.11152758,-0.00506577,-0.14717028,-0.03095149,-0.07543111,-0.07453572,-0.07486679,0.14810167,0.16113839,0.06715391,-0.02452806,0.17603320,-0.16841626,0.02112692,-0.06124024,-0.04667236,-0.17420994,0.02653081,-0.09249987,-0.19556645,0.05515881,-0.01268595,0.04538454,0.22956164,-0.07327593,-0.05659554,0.00301423,-0.06557059,0.00710606,-0.04235173,-0.05126231,0.15638743,-0.02316279,-0.12279697,-0.13157628,-0.00328019,-0.07590990,-0.01470458,-0.02498333,-0.02225273,-0.08030272,0.08454197,-0.21340363,0.12273297,0.00609312,-0.02021916,-0.00314144,0.03354495,0.06158531,-0.04250407,-0.16105276,0.04419804,-0.08813515,0.00966076,-0.04861215,0.02089971,0.06613272,-0.09225987,0.04818557,-0.06124380,-0.00576649,0.02305066,-0.14039564,-0.07744303,0.02890848,0.00978296,-0.13019057,-0.05087037,0.09933508,0.01308774,-0.12074693,-0.16952819,-0.01838489,0.03456291,0.00443637,0.12579119,-0.01643584,-0.12104699,-0.04912835,-0.03999087,-0.12900145,0.04217456,-0.02759669,-0.08442263,0.05937516,0.08461347,0.06495509,-0.09152936,-0.02139180,0.13783666,-0.10526910,-0.09522737,0.16269559,-0.25666144,-0.07759155,-0.08360554,-0.10263803,0.00260093,-0.08017920,-0.21050991,0.00636746,-0.10319326,0.06276152,-0.04690580,-0.05522677,-0.03420858,0.03584415,0.00073479,0.00776739,-0.08220673,0.12470124,0.08314537,-0.19469675,-0.01011103,0.03311176,0.01471213,0.03297337,-0.05137209,0.06936847,0.06185952,-0.00527439,0.15919608,-0.13929866,0.01814230,0.01769189,-0.03764226,0.00732024,0.17151894,0.00985065,0.06736616,0.04827921,-0.07693192,0.06765086,-0.03477400,0.04445418,0.00804368,-0.05045749,-0.13337502,-0.05613847,-0.06540020,-0.15244679,-0.00704234,0.04364010,0.08620410,0.09242539,0.01877080,-0.14619975,0.14007930,-0.06267483,0.16999109,0.02966525,0.10278702,0.06854106,-0.11205266,0.13940804,0.07445724,-0.04705378,-0.03371727,-0.02696005,0.02099554,0.06461287,-0.08602782,0.01012761,0.15483506,-0.03771011,0.07149430,0.05024336,-0.11206020,-0.02180242,0.02012881,0.01645704,0.08524808,0.01389038,0.03493777,-0.10804325,0.02933143,-0.02887488,-0.21114261,0.09750584,-0.04422650,0.01903648,-0.02697641,-0.01406339,-0.14268160,-0.06582262,-0.00574983,-0.11604866,0.03990579,-0.00921937,-0.10086864,-0.00855760,0.35442600,-0.03456844,-0.10061333,0.17397620,0.06801643,0.04610957,-0.01717611,-0.04584591,-0.09063279,-0.07909458,-0.12305732,-0.06808874,0.07248034,0.00840435,0.16412362,0.03949291,-0.03258166,0.00252096,0.16402842,-0.02150122,-0.10568357,0.04690822,0.02539754,0.08364482,-0.21704698,-0.12758105,0.00565865,-0.05867672,0.02123990,-0.02980002,0.01021180,-0.06962436,-0.06847836,0.02145609,-0.11987260,0.08579585,0.09591592,0.03242993,0.03642503,0.01560868,0.04897321,-0.07390837,-0.00249456,-0.19535477,0.18519084,0.02702619,0.02427277,0.14921713,0.01142386,-0.02585644,0.11709249,0.02294470,0.03758548,-0.10711940,0.06477243,0.19413285,-0.02114589,-0.08829004,0.06619583,-0.06449638,-0.07783830,0.02635625,-0.05850901,0.00496385,-0.15890907,-0.04570824,-0.09029954,0.27192760,0.08382653,0.07053979,0.05478116,0.09123873,-0.05807217,0.09082812,0.05330399,0.13168977,-0.14750718,0.00628819,0.04822932,-0.12056387,0.01445748,-0.04723391,-0.01394468,-0.13003741,0.03590844,-0.01520897,-0.07797658,0.00404426,0.07088674,-0.06694880,0.07657858,0.03520096,0.03926162,-0.12401841,0.05299654,0.01075428,-0.05463413,-0.11320419,0.16356784,0.05737087,0.15050118,-0.03525447,0.08896026,-0.02489199,-0.02988568,-0.09500853,0.09167911,-0.06214425,-0.07354879,0.10307469,-0.05806813,-0.00345771,-0.12235798,-0.11784934,0.06681602,-0.04467889,0.01829963,0.04667325,-0.01169559,-0.09161745,0.06746059,-0.16505599,0.04625878,-0.00370179,-0.05343513,-0.08136544,0.00526225,0.05545249,-0.05330205,0.16038659,0.07435499,-0.01646234,-0.02580973,0.02451897,0.03002429,0.14564815,-0.02033273,-0.10035964,-0.00351583,0.03471789,0.00720241,0.01710849,-0.01597978,0.13467231,-0.09173741,0.00233979,0.03226979,0.02505982,0.18889526,-0.15274040,-0.06894836,-0.12675104,0.06925420,0.04159129,0.02646651,0.01357089,0.04760403,0.07049995,0.00784669,0.06259304,-0.00847823,0.00510933,-0.12651774,0.05636197,-0.03269908,-0.04766476,-0.01840407,0.05964843,0.05963439,-0.10024272,0.11282417,-0.03364947,0.04203292,-0.11710615,-0.03028417,-0.07930718,0.02017748,0.01644672,-0.09067225,-0.06103345,-0.03440933,-0.18709548,0.01234554,-0.15300064,0.10350741,0.04484793,0.10347270,0.14142233,0.05886050,-0.09819248,-0.07384040,0.09315897,-0.02725427,-0.03569984,-0.10373484,-0.16281049,-0.09410256,-0.08550804,0.08018372,0.03062498,0.03946775,-0.06559275,-0.01904364,-0.05106495,0.09812777,-0.08332355,-0.05333278,0.08777481,-0.04071543,0.07419387,0.12717557,-0.05746317,-0.01667706,-0.06543871,0.12158532,-0.05473212,-0.19968224,-0.04182887,0.21403426,-0.02943753,-0.09614345,0.04543202,-0.11646641,0.14667772,0.00691305,-0.07558822,0.01235826,-0.04832529,0.05379670,-0.25066990,0.05151057,0.01986801,-0.16199218,0.03446442,0.02278353,0.09609327,-0.04136279,0.09239040,0.31719327,0.00498699,0.01203418,0.06356503,0.11292922,-0.06932469,-0.03442125,-0.06475216,-0.17558573,-0.07061655,-0.11096469,-0.13726057,0.00202978,0.09944475,-0.11313431,0.04268710,0.12702708,-0.05130486,0.03985360,-0.00254037,-0.10370835,-0.03470245,0.05045108,-0.04692655,0.02863083,-0.24013790,0.03911589,0.01341697,0.01581114,-0.12229107,0.00120234,0.03027734,-0.14145575,-0.08444890,-0.00621742,0.00559848,-0.13796805,0.02195273,0.02453090,0.11271942,-0.00431230,0.02114660,0.00480259,-0.09011990,0.18915294,0.02214016,-0.05140851,-0.20018335,-0.01497987,0.00219827,0.01056176,0.04534595,-0.06517874,-0.01329723,-0.10271476,-0.01480250,0.19026397,-0.03916327,-0.18671247,-0.08815522,0.05723589,-0.03574146,0.00480362,0.00362269,0.02186951,-0.09275285,-0.01054665,-0.02768348,0.15736562,-0.00952305,-0.10212034,-0.08458071,0.08150516,-0.01613718,0.24381782,0.05134009,0.04033066,0.02571506,-0.15748750,0.05548857,0.17796022,0.11482252,-0.12704445,-0.08209192,0.10582543,-0.06879576,-0.00468915,-0.05041537,0.01192905,0.02605886,-0.00793415,0.10626376,-0.06451377,0.21714778,0.05546445,-0.15617840,-0.02511039,0.02647080,0.01618941,0.09336709,0.09160527,0.05877716,0.17531978,-0.12182620,-0.03215243,-0.06313226,-0.09881879,-0.02478411,-0.09516257,-0.10026047,0.11549173,0.15556617,0.07997312,-0.07112018,-0.10768033,-0.00998567,0.00170235,-0.11037702,0.08905612,0.10979417,0.13602093,0.06960078,0.06278238,0.06651305,-0.00531023,0.01263884,-0.00480080,-0.04998921,-0.00936200,-0.03802832,0.05767506,-0.11756699,0.08555655,-0.02400305,0.08922293,0.05933405,-0.02651830,-0.05625959,0.04813155,0.02995542,0.06140406,0.06436744,0.10733417,0.07725120,-0.02361817,0.00871195,-0.12463564,-0.03245981,0.01771361,-0.09011418,0.15015395,0.01387445,0.04878080,-0.02047941,0.03947698,0.01951830,-0.01165199,-0.14427932,0.08794893,-0.03610484,0.06525083,-0.09426613,-0.14141089,0.18733642,0.16826937,0.10530997,-0.00756890,-0.14700079,0.00748460,-0.06108838,0.04390318,0.13493647,0.03060866,0.04052252,0.25900006,-0.12861076,0.01495892,0.01918453,-0.06215185,-0.05988034,-0.03910685,0.07000251,-0.01259524,0.08184704,0.02902985,-0.01372324,-0.01827660,0.01328971,0.04168429,-0.11446629,0.05119918,-0.12256826,-0.10346848,-0.05232066,0.06305300,0.15541983,0.02455334,0.06439497,-0.18234906,-0.04782393,0.10582748,0.03059358,0.07279388,-0.04566652,0.03552685,0.01909223,-0.02388312,-0.10408117,0.13136746,-0.02881726,-0.03002457,-0.02597256,0.09601892,-0.02160409,-0.09628197,0.07596336,0.05727494,-0.06988465,-0.12221975,0.00509467,0.06729545,0.10783119,-0.00376776,0.04838262,-0.02401854,-0.02555699,0.08180757,-0.24370505,0.04555577,0.12792319,0.03265634,-0.00729374,0.05721268,-0.04688920,-0.11727842,-0.12075431,-0.05835545,-0.08044744,-0.05242220,-0.05697742,-0.03343441,-0.02984225,-0.08305112,-0.07397383,-0.01487710,0.04744107,-0.01593078,-0.04190677,-0.03993656,-0.01637912,0.06589478,-0.06528318,0.05988714,0.03730552,-0.07827199,-0.06896637,-0.03273556,-0.04221417,-0.07744989,-0.01987228,0.07066181,0.04100680,-0.02859358,-0.01998915,-0.00995023,-0.10135368,0.05483584,-0.09961455,0.02872819,-0.02911199,-0.01821386,-0.03482405,0.01015617,0.05542374,-0.05104143,0.15807435,-0.14821495,-0.03116321,0.00596939,0.06150682,0.02008822,-0.08312290,-0.05057969,-0.04899026,0.03813139,0.10444067,-0.05097679,0.11696693,0.04420421,0.01462304,0.12019919,-0.00002541,0.09929171,-0.06210793,-0.02169574,-0.02655221,-0.04953772,-0.09623530,-0.01684923,0.00732923,-0.02323817,0.06165896,-0.08246466,0.06287698,0.03306651,0.04470768,-0.05134274,-0.06658936,-0.05895454,-0.04691914,0.00639789,-0.09901932,-0.09523108,0.07734749,-0.13541213,-0.03804864,-0.12495148,-0.12409888,0.18625514,-0.05870423,-0.03033230,0.07810829,-0.11724760,-0.10677351,-0.01307334,0.01300667,0.03152870,0.06790972,0.06543808,-0.06447751,-0.20483314,0.01847123,-0.14311281,0.14333491,0.12744974,0.13851424,-0.10022299,0.00680084,-0.05945000,0.03886871,0.12375900,-0.17706800,0.00347097,0.11262009,0.06731004,0.01341030,-0.11120172,-0.01494429,0.07401258,0.09103984,0.16029833,0.00695079,0.18435447,-0.00288712,-0.03045172,0.17714845,-0.06111633,0.01731093,-0.12710157,0.17080975,-0.11953262,-0.01347315,-0.06509793,0.07267455,0.13003923,-0.01967802,-0.14602347,-0.00883454,-0.03378595,0.04915805,-0.09412415,0.04689101,-0.06115249,-0.10284367,0.01740893,0.13524862,0.01116664,0.07338311,0.07539639,-0.00715803,0.07271955,-0.03440754,0.10390253,0.00666176,0.01282540,0.02390889,0.03631552,0.05544965,0.07758226,-0.01187375,0.07432899,-0.06004050,-0.01427705,-0.20553783,0.01141646,0.10030696,-0.14450429,0.07563417,-0.14570254,-0.14386441,0.06712794,0.07066701,0.07101706,-0.01069600,0.07559006,0.04717043,0.04373607,-0.04819517,-0.02890102,-0.14714754,0.04701190,-0.04299101,0.09198900,-0.04993340,0.03343806,-0.04189727,-0.01682740,-0.11371846,0.02057730,-0.05155759,-0.02242902,-0.05305459,-0.19301598,0.17835794,-0.14001727,-0.01745669,-0.13591258,0.03794449,-0.00846136,-0.03775809,0.05153524,-0.08079641,0.03588084,0.11416765,-0.02351195,0.01969383,0.04104048,-0.03238133,-0.01746841,0.13760161,-0.02456276,-0.06404604,0.02240691,0.02762572,0.06274789,0.10588940,0.04070823,0.06214544,-0.03131568,-0.11875091,-0.00588090,0.06363346,-0.05744944,0.03343624,-0.06507137,-0.07173748,0.05814319,0.07984547,0.08375025,-0.00555635,0.08808582,-0.05886454,-0.02012501,0.06465741,0.00567418,0.02442992,0.02916021,0.02715422,0.18340418,0.02066987,-0.16438106,-0.00967145,-0.07166781,-0.02364531,0.03262970,0.00418269,-0.00366314,-0.00791171,-0.14209408,0.08793510,0.02511389,-0.02646187,-0.07058927,0.08773999,0.14628211,0.01054240,-0.07003284,0.04569669,0.02166798,0.06833623,-0.12959722,0.10931107,0.00301081,0.05669821,0.04613452,-0.14577012,0.12100513,0.13128015,0.18949492,0.09737249,-0.07870366,-0.17502525,0.05725704,0.07245577,0.14909214,-0.07420411,0.08900898,0.02394697,-0.14802763,-0.08273473,-0.07086226,-0.09358017,-0.13312478,-0.04709123,0.01281217,0.00630517,-0.02936438,-0.12986247,0.07264958,0.04014565,0.09289899,0.00977869,0.00716607,0.06527513,-0.03880480,0.04845429,-0.04898028,0.04117882,-0.00610870,-0.11707510,0.13031119,-0.03486419,-0.05791476,0.15783611,0.03311123,0.01830387,0.00372137,-0.01830985,-0.03834231,0.06708553,0.01622386,0.02137798,0.10200791,-0.10634138,0.10145169,0.17336565,0.15366107,-0.02889349,-0.06990453,0.06139429,0.03733276,-0.02383272,-0.27370918,-0.05088482,-0.15999946,-0.07558925,0.01206542,0.02537425,0.05851224,0.18115790,0.02864755,0.05725440,-0.13090593,0.03609114,0.05933718,0.14854112,0.07902209,0.15790817,-0.06507418,-0.07482573,-0.13072626,0.02256453,0.04515193,-0.01832679,-0.07932121,-0.08794736,0.06088497,-0.04594071,0.02100254,-0.06707798,0.03010548,0.02597785,-0.00246900,0.06689221,0.01942035,0.01962485,0.02213364,-0.03589347,0.08758572,0.10570481,0.05999745,0.02179168,-0.02546817,0.10591844,-0.10249477,-0.15532281,0.05088086,-0.01013008,-0.11749226,-0.02554876,0.01124172,0.06401137,-0.08112981,-0.14612220,-0.05698848,-0.10097177,-0.08460440,0.02741180,0.01694908,0.16158552,0.01787044,-0.02105046,0.05522077,0.00169544,0.09472222,0.05672666,0.06182898,-0.23354569,-0.02851440,0.03336814,0.02516605,0.09482468,0.07447860,0.01547872,-0.09225978,-0.05398470,0.07134027,0.02196135,0.05077497,-0.02591996,-0.01895604,0.02792852,0.01045078,0.15096538,0.02671435,0.08002279,0.00250724,0.04148919,0.07383493,-0.16738468,-0.15795703,0.02426771,0.00259133,-0.03519307,-0.00081473,0.02048850,-0.06202585,-0.06352916,0.05431487,-0.03965825,0.18580666,-0.05344751,-0.10486342,-0.05669218,-0.08449400,-0.00209822,-0.03534019,-0.00262791,0.13018249,-0.05513135,-0.01995399,0.07844067,-0.04733443,-0.03994374,0.00219387,-0.01614366,-0.11573381,0.04056376,0.00054412,-0.07142094,-0.01417712,0.02177752,0.07577795,-0.14787915,-0.01523115,-0.06770270,-0.20635356,-0.00919041,0.08866268,0.23097879,-0.02619279,0.07921210,0.04730481,-0.08116529,0.08420638,-0.11604430,-0.17775136,0.01460090,-0.02114501,-0.08872920,-0.07936221,-0.09785330,0.16587003,0.02938114,-0.10254160,0.11128637,0.10686751,-0.05202823,0.06464402,-0.11610303,0.04808300,-0.01305814,-0.01303252,-0.02025075,0.03667038,0.03852811,0.07247511,0.01595998,-0.13522506,-0.09958556,-0.02679773,0.01232297,-0.12748431,-0.01836484,-0.10872440,-0.15873523,-0.00858726,-0.07895092,-0.09787010,-0.12115912,-0.10900417,0.07408924,-0.04354781,-0.00323926,-0.14163674,0.13822314,-0.03460270,0.04132402,0.00473748,0.06066217,0.06479511,0.05798257,-0.07213716,0.01281158,0.02140021,-0.06303734,-0.11029903,0.00308155,0.06671709,-0.00063743,0.14905769,0.09700234,0.00923290,-0.10772371,-0.08918532,-0.03865902,-0.00915815,-0.02110104,0.09264451,0.01187078,0.01922563,0.16381283,-0.02078598,0.08933066,-0.08817478,0.06197247,-0.02767381,0.12017574,0.03587144,-0.11515761,-0.15281178,0.06541163,0.02823679,0.07303118,-0.03346715,0.10960809,0.08431830,0.04152574,-0.08168496,0.06393607,-0.21633372,0.05102251,-0.07656374,-0.08198556,0.08213679,0.01861195,-0.04820291,0.02321389,0.08616068,0.12927261,-0.08504637,0.03041839,-0.02067945,-0.15609640,-0.03239757,0.25752261,-0.00411848,0.04332354,-0.03574249,0.03985628,-0.02604172,0.09843440,0.03317905,0.03706574,-0.06823190,0.03739034,-0.00842481,-0.09579617,0.02549209,-0.02077246,-0.11017951,-0.03417004,-0.06366336,0.06810869,0.12352041,0.01358927,-0.11522049,-0.00652568,0.07690797,0.15140261,0.06580419,0.07729802,0.01361701,-0.18436100,-0.12973392,0.01559561,-0.15025839,-0.13827500,0.12492693,-0.02217060,-0.01222431,-0.09936456,-0.04845162,-0.04335422,0.06679025,-0.10122717,-0.22819030,0.09389987,0.23368815,0.10292324,0.00441259,0.04019413,-0.10828482,-0.13706055,0.07275150,-0.05374877,0.01315475,0.11781765,0.06017697,-0.11271445,0.08500629,-0.06901786,0.12988682,-0.12463190,0.04601887,-0.09596661,-0.16492158,-0.04581685,-0.17118576,-0.10143146,0.11321899,-0.07133996,0.07542797,-0.06406481,-0.05329961,-0.06097932,-0.19134139,-0.12038227,-0.00717473,-0.07911902,-0.13189188,0.04447750,0.14542408,0.03293981,-0.03154540,0.05453466,-0.10824955,-0.08791812,0.05599355,-0.06197202,0.00926758,-0.02922110,-0.02388623,-0.02948908,-0.03292308,-0.14183393,-0.16033621,0.03447288,-0.03509395,0.12459449,0.17700249,-0.01122115,-0.09870765,0.08588637,-0.10727862,0.07104298,-0.13004792,0.04564187,0.03086941,0.20272201,0.18778229,-0.06877288,-0.10380334,-0.01880792,-0.00059328,0.12139498,0.06634405,0.03802691,-0.06326225,-0.02091301,0.05652587,-0.08627743,0.01952324,0.08684386,-0.12398415,0.14692239,0.04052339,0.16163246,-0.09928576,0.01074838,0.14780588,0.03586632,-0.12356058,-0.04676653,0.12813711,-0.05988878,0.00880118,-0.05299437,0.04017176,-0.02010309,-0.08888584,-0.11219112,0.04291933,-0.09037658,-0.01972353,-0.00233546,0.03623294,0.05711837,-0.02009942,0.03756468,0.01255811,-0.00583747,-0.19178620,0.01937496,0.03350281,-0.01378795,0.05168420,-0.11454467,0.16686480,-0.03475298,0.08908287,0.14406566,0.01711637,0.06015152,-0.02773824,-0.01142738,-0.11074425,-0.05080240,0.05560507,0.08418187,0.03038307,-0.05702502,0.10591979,-0.06775931,-0.10135251,-0.03497171,0.16620465,-0.03741023,-0.13997237,-0.05623210,-0.01777374,0.03545906,-0.05174857,-0.07849569,0.00310547,0.01278687,0.09536132,-0.04456425,0.08383800,0.12531257,-0.12589984,0.14280355,-0.07156490,-0.18102768,-0.06617539,-0.00239876,0.04527327,-0.05583214,-0.15001586,-0.01934238,-0.00856872,-0.09633345,0.18009658,-0.34471968,-0.01311067,0.10176922,-0.02246302,-0.05041588,-0.08169234,0.09722374,0.04349333,-0.21695343,0.00187106,0.08713932,0.01420187,0.11882555,0.08083465,-0.08109923,0.10706545,-0.22479029,-0.03033481,0.02639923,0.04484830,-0.05591811,0.04599430,0.02818427,-0.02358237,0.05184251,0.15751700,0.00617468,0.06425695,0.00928738,0.17169307,0.00893516,-0.13449828,-0.17124164,0.06167936,-0.12177179,0.07338183,-0.10691652,0.16215645,-0.04061558,0.06320131,-0.04586102,0.04947167,0.07249212,-0.04057101,-0.19173443,-0.10144714,-0.12263882,0.03122577,-0.05825114,-0.17236507,-0.01023629,-0.02314620,-0.00140146,-0.12800658,0.00142698,-0.04805201,-0.03946545,-0.05436427,0.09290832,0.15906818,-0.02620015,-0.10633733,0.02030820,0.05692263,-0.14960565,0.16431876,0.11968419,-0.04448207,0.14284165,-0.03791257,-0.00861213,-0.13168021,0.11242063,0.04759799,-0.04082847,0.12693976,0.06163560,-0.05445291,-0.00205857,-0.12037714,0.02836149,0.14456493,-0.10859035,-0.01381977,-0.00458461,-0.14084990,-0.07709483,0.08789611,-0.11400373,-0.03934207,0.07679147,-0.13057545,0.17655817,0.07478843,0.00098530,-0.01168146,-0.12453544,0.14560811,-0.09528325,-0.09759884,0.12054231,-0.03603598,0.05070104,0.03590104,-0.07461791,0.09176458,-0.07257786,0.05352425,0.08733748,-0.13007854,0.12649244,0.09941256,0.07030492,0.10442776,0.16098201,0.15289178,0.06744270,0.05774226,-0.06208261,0.00113963,-0.04647388,0.06869982,0.02910161,0.07861008,-0.00355580,0.07321760,0.00338318,-0.02305802,0.01597345,-0.06606325,0.09623903,0.03655545,-0.05374771,-0.01732797,-0.15743005,-0.01388860,0.01545667,-0.07865293,-0.01236285,-0.09810539,0.02458389,-0.02580625,-0.06500727,-0.06631421,0.18440261,-0.13376269,-0.04651321,0.10591926,-0.08922210,0.17047760,-0.18186067,0.16057588,0.12839834,0.04106791,-0.02098664,0.00670624,-0.21110964,0.08182919,0.16025358,-0.01003444,0.09060396,0.05678609,0.13958417,0.00709533,0.16285303,-0.12122145,-0.05492858,0.04614871,-0.03904603,0.16300429,-0.10877065,-0.02565099,0.01485238,0.03088062,0.16890702,0.04983702,-0.08758000,0.10027761,-0.26594979,0.07220183,0.13945401,-0.02322546,-0.04917066,0.06236147,0.14829995,-0.10731458,-0.21186136,0.09410276,0.21815318,0.11944453,0.00062824,-0.00033112,-0.01680122,0.00815334,-0.09556331,-0.13098542,-0.02641481,0.02157740,0.05426529,0.11282799,-0.09760515,-0.12566680,0.09609065,-0.06258488,-0.02735482,0.12515281,-0.02251754,0.02826300,0.00139782,-0.04257177,-0.03041683,0.11719654,0.00970107,-0.07382298,-0.04300831,0.10627206,0.01528987,0.17824435,-0.03773903,-0.04749870,-0.03184663,0.00374980,0.07067505,0.08995639,-0.01155903,-0.06258060,-0.07920387,0.05238681,0.25623569,-0.04944727,0.07984166,0.04460447,-0.10464498,0.04555613,0.08364968,0.06574764,-0.27499953,0.03330223,0.02719953,0.10126385,0.10478330,0.04479115,-0.15408114,-0.02292650,0.02134837,-0.12787829,0.00118959,0.00391681,0.13416989,0.00792819,0.03570199,0.14476617,0.00897666,-0.07572230,0.08671910,0.00762942,-0.11111031,0.17938539,0.14662267,-0.11695299,-0.02299643,-0.06451471,-0.07948962,0.01140353,-0.04115927,0.07679218,-0.01104312,-0.05198748,-0.11806844,-0.00451113,-0.08629798,0.12224010,0.02261720,0.21697971,0.07807259,-0.21829863,-0.00225432,0.11207934,-0.00705890,-0.17759672,-0.09613275,-0.00225090,-0.01182961,0.10249975,0.11223146,-0.13162944,-0.06149461,0.11475156,0.00058064,0.05031826,0.16942129,0.01260615,-0.11046082,0.04270436,-0.10013647,-0.08344468,0.11020394,0.01925257,0.04798213,0.00422593,0.03526771,0.10458500,-0.11481110,-0.02576467,-0.16062385,-0.01072401,-0.09837243,0.06698841,0.14611115,-0.17332205,0.11581910,0.03910312,-0.11215005,-0.21962222,-0.09303971,-0.01688575,0.30309945,-0.00084719,0.03622302,0.06167610,0.05962805,0.00734615,0.03444649,0.06721296,0.14156719,-0.08710486,-0.02500046,-0.08476618,-0.01026498,0.22668307,-0.06915361,0.09049025,0.03537626,0.01999643,0.05746684,0.00887087,-0.03914649,0.05248206,0.10659198,-0.11336445,0.03976985,-0.09976240,-0.01502582,0.13634965,-0.00527860,0.03000491,0.05185502,-0.00379228,0.03445147,-0.07553654,0.05697429,0.02765604,0.09895381,0.01778730,0.12066712,0.06881327,0.02116565,-0.02811543,0.07960892,0.06899885,0.13243267,0.01554936,0.05967712,0.03637482,-0.02486234,-0.05953948,0.08153442,0.00195167,0.06590169,-0.11184703,-0.05376832,0.10532890,-0.12257354,-0.00161317,-0.05757783,-0.10848124,0.00507980,0.08286949,0.02067115,0.11036067,-0.07248669,0.00787588,-0.01205808,-0.07182354,0.08699504,0.06843640,0.02084776,-0.11695809,0.04705029,0.08355375,0.04250243,-0.11960670,-0.02704704,0.02376240,-0.16749758,-0.09595085,-0.01981973,-0.02827593,0.00501994,0.07046460,-0.00787645,-0.09555658,0.15791561,0.00257184,0.03147497,-0.08754969,-0.06359839,0.08545434,-0.04159097,-0.09731394,-0.03395674,-0.11875713,-0.08203994,0.20327176,0.07930838,-0.01090866,-0.15049821,0.05681974,0.16453780,0.10108031,0.06070499,-0.12734292,0.12677193,0.03527071,-0.10318815,-0.04741557,0.07285199,-0.02367212,-0.03963439,-0.17892216,0.01073772,-0.07937373,-0.00288251,-0.06366578,-0.16015874,-0.00396286,0.12925650,0.03208030,-0.00198435,-0.00499205,0.18408856,0.07122823,-0.06647518,-0.05825443,-0.08107007,-0.07409739,-0.00826575,-0.00481000,-0.03594179,-0.06365999,0.02059120,-0.04407896,-0.10613483,-0.10318743,-0.10822801,-0.03371392,0.05432590,0.04726158,0.22590430,-0.13762672,0.00771955,-0.08135322,0.02677116,-0.22098750,-0.03596652,0.01629432,-0.13544644,-0.05671869,-0.03897455,0.12047098,-0.14967918,0.00632034,-0.09409747,-0.14510775,-0.01512030,-0.04795277,0.03312746,-0.15487523,0.18207957,0.15200178,0.01582637,-0.07042336,0.01844566,0.04937326,0.03110262,0.25363019,-0.05990800,-0.10665317,-0.08814775,0.03887143,0.13027556,-0.05611723,0.01661033,-0.05681448,-0.02085047,0.00842335,0.07935466,-0.11435098,0.19581664,-0.01733721,-0.03658232,-0.08933586,0.04199396,-0.10617299,-0.07664555,0.00163583,-0.17727801,-0.02809422,0.14636843,0.08064255,-0.10429785,-0.04375382,0.02734553,-0.12414549,-0.00602008,0.06241267,0.16181722,0.11531400,0.08753709,-0.13125896,0.02510038,-0.04079498,0.09744201,-0.06162473,-0.17087792,-0.13308030,-0.11261763,0.07565150,-0.08321541,0.00106860,0.06824088,-0.01061883,0.15128063,0.01547128,0.22687969,-0.11285900,-0.03457375,-0.06572273,0.14931476,-0.10729987,0.13545842,0.02845858,-0.18902509,-0.07834677,0.09273880,-0.24821201,-0.04802387,0.04686562,-0.03741954,0.02202278,-0.01474371,0.06713968,-0.09624597,0.14434372,0.16672592,0.03275450,-0.00091874,-0.07413285,0.10382234,0.01335435,0.02955798,-0.06640685,0.00760793,-0.01482690,0.02678464,0.00074218,-0.11708235,-0.18646857,0.05007047,0.01801085,-0.05927942,-0.02217144,0.04641255,-0.08572324,0.02117930,0.20610997,-0.04397605,0.12451758,-0.11997478,0.12883678,0.21077120,0.00828404,0.05944625,-0.05679200,-0.16263895,0.09128676,0.06240011,0.01135974,0.03879124,-0.03068031,0.01862994,-0.05205359,0.13921788,-0.04043487,-0.00153237,-0.07592257,-0.05398285,0.09181281,0.05289165,-0.05330852,0.01974456,0.02993006,0.04006114,-0.16867523,-0.00618458,-0.02834496,0.02351327,-0.10783270,0.00152242,-0.08050267,0.01704426,0.17199698,0.04495636,-0.11488120,0.05058100,0.10578606,0.02941822,-0.00379263,0.10113237,-0.18097062,-0.12932897,0.14158207,0.02128232,-0.12239496,-0.06719851,-0.08328377,-0.06575250,0.21809240,0.12991607,0.02173250,-0.08767848,-0.13666001,-0.01300413,0.00928306,-0.06763361,0.10080692,0.08732955,-0.08685108,-0.08516769,-0.04703908,-0.16537273,-0.01624421,0.04842602,0.04813994,0.00277220,0.09440476,0.00583936,-0.02662859,-0.00410952,0.13415609,0.15049146,-0.09225291,-0.16917098,0.13413608,0.18573846,-0.10521499,0.03678664,-0.00433210,0.10012339,0.06448838,-0.02238384,-0.02639153,-0.05372050,-0.05962813,-0.07691618,0.11439723,0.00096879,-0.01960241,0.09478080,-0.02358708,0.14346729,0.02204503,0.07095955,-0.16558287,0.05083907,-0.01030125,-0.14303863,-0.07375073,0.01730115,-0.23201978,0.08018380,0.00128605,-0.01890910,-0.01155237,-0.03939538,-0.03067562,0.02781869,-0.05437887,0.09752705,0.14296362,0.08788767,-0.11903124,0.04993620,-0.11429086,0.02004256,-0.04618795,-0.00427603,0.18863846,-0.12398531,-0.03211481,0.03362690,-0.02436133,0.07751545,-0.02127697,0.01986097,-0.01777871,-0.00848481,-0.02481055,0.05644112,-0.04937699,0.11338366,0.04968351,0.10987717,-0.01041725,0.09980897,0.03172342,-0.11610524,0.06072709,0.02106198,-0.01798965,-0.00974405,0.02493283,0.02249685,-0.00584463,-0.03566385,0.09515034,-0.01241554,0.06904630,0.09048378,0.05600124,0.03448986,-0.03843379,-0.13984825,0.06291603,0.05582840,-0.05059047,-0.01905751,-0.05041754,0.04537163,0.01057571,0.16258723,-0.04511002,0.04398979,-0.06212767,0.09217585,0.16024199,0.05719614,-0.07224957,0.01353906,-0.08218296,-0.03901670,0.01821177,0.01528256,-0.03905416,0.00545798,0.02186178,0.11982163,-0.04098498,0.02658305,-0.07307905,0.01660402,0.04827578,-0.18058856,-0.04107849,0.15283631,0.10289586,-0.18881071,-0.07438599,-0.16625990,-0.09060863,-0.09108134,0.13949233,0.04548161,0.03898131,0.01059933,0.10055052,-0.04051443,0.11369117,-0.12295663,-0.02675622,-0.07280185,0.00177235,0.10438101,0.01236393,0.02266512,0.29118600,-0.02156289,-0.01994171,-0.03956403,-0.02791044,-0.18114550,0.07271492,0.00957002,0.03759903,-0.03062322,-0.09006813,-0.13428357,-0.09806748,0.03671277,-0.17768905,-0.00987858,-0.02339776,-0.00035039,-0.12989913,0.02492890,0.10928535,0.14657816,0.03664579,0.17316987,0.00837288,-0.03512504,-0.05532163,-0.09551731,0.02745183,0.00820254,-0.00591209,-0.14349779,-0.02546743,-0.01325114,-0.02447533,-0.01940541,0.07600225,-0.04720725,-0.00277075,0.09373116,-0.03239108,-0.08422744,0.06847840,-0.00762301,0.12237249,0.00409346,-0.03518111,-0.01116566,-0.07394108,0.02584550,0.07493348,0.20313074,0.01311494,-0.05427479,0.19511446,-0.29630259,0.10769137,0.00733239,0.04682880,-0.05024293,0.17911643,0.01499915,0.02226927,0.05991088,-0.08334304,0.05342460,0.12278017,-0.05821614,0.14956835,0.13671680,-0.02566758,0.09229982,0.01748311,0.13793866,-0.00993109,0.09589575,-0.08942520,0.07117337,-0.06654698,0.01006120,0.07437766,0.08401056,0.13259187,-0.00146434,0.05036279,0.01615292,0.01812343,-0.04687785,-0.13018075,-0.14135936,-0.03015537,0.02511333,-0.06009012,-0.15844615,0.14636880,-0.07363138,-0.01281576,-0.02669432,-0.10596172,0.08099923,-0.07311688,0.00517557,0.12457281,0.05845730,0.08095261,-0.03172829,0.09361832,0.03347198,-0.18361484,0.00555526,0.02508298,0.10156072,-0.10315496,-0.09951745,0.04513830,-0.11590116,0.07938986,-0.01088341,-0.08549386,-0.06753524,0.00350814,-0.00363374,-0.03631577,-0.10791130,-0.05812617,-0.09428800,-0.03029785,0.10930347,-0.01878331,-0.03982386,-0.04097665,0.10362678,0.06223961,0.03856147,0.06210871,-0.11092564,0.13137521,0.04225151,-0.00731615,0.11037492,0.02868574,-0.08726940,0.08389165,-0.06995018,-0.17986995,0.08908077,0.01925195,-0.04068155,-0.24379326,-0.09412953,-0.08815058,0.00226594,0.03554349,-0.03731851,0.17394136,-0.12663232,-0.03679327,0.05817157,0.08454033,0.02872435,0.02530380,-0.08466230,-0.13609418,0.01150795,-0.12207412,-0.06106922,0.11128531,0.03290160,-0.04340143,0.08825086,0.00989007,0.12671648,-0.02236553,-0.12886338,0.03124379,0.11187891,-0.08273847,0.07515177,0.06300960,-0.05561474,0.04236289,0.08413655,0.03831710,0.16545306,-0.16882633,-0.12331903,-0.06286519,0.05252102,0.07274098,0.03534718,0.02951683,0.03390785,-0.04448337,-0.11313077,-0.17782554,0.05149935,0.17780361,0.02256479,-0.02019875,-0.00489576,0.13898472,0.07974228,-0.12518066,-0.06790165,0.09896926,0.05863425,-0.05140662,0.11753110,0.10043287,0.04889762,-0.07420120,0.05319052,0.04879297,-0.20942990,-0.03672828,-0.13875140,0.21142256,0.02183262,-0.07957038,-0.00304632,0.01213973,0.11793587,-0.02068048,0.02036258,0.08234978,-0.02855399,-0.16018926,0.06895164,-0.05701680,-0.08799413,-0.06558374,0.00552987,-0.11057045,-0.09553638,0.12159340,0.15946878,0.03935112,-0.15974766,-0.01299508,0.11341159,0.06887443,-0.12054294,-0.03957923,0.00749984,0.13736700,-0.05123539,-0.00329601,-0.07767776,-0.11666442,-0.00452789,0.15099393,0.02305913,0.01329592,0.04259592,-0.11134160,0.11384808,-0.03511344,-0.12889889,0.00382334,0.18563394,0.08840880,0.13471109,-0.10873964,0.01641341,-0.05066216,-0.06943241,0.05239545,-0.05438526,-0.01962312,0.08103722,0.05957665,0.05016607,0.01176331,0.00330093,0.03745655,-0.05248188,-0.04095053,-0.18220955,0.17110726,-0.05164031,-0.06267214,-0.05655909,-0.05155256,0.02824506,0.11885145,-0.06566987,0.01905613,0.07796815,-0.04065985,-0.23509863,-0.01029822,0.02381336,-0.04170135,-0.08674360,-0.14265992,0.02625351,-0.14407656,-0.04334495,-0.11731777,0.00586874,0.04833601,0.02733123,0.02910286,-0.03382011,0.11518066,-0.01867970,0.01062930,-0.02946452,0.10581957,-0.07951792,-0.03353267,0.07012171,0.03855619,-0.03556409,0.11597377,-0.03434811,0.04464239,-0.05284870,-0.24482325,0.02210630,-0.16286112,-0.12185998,0.02431309,0.04610037,0.10803854,0.01451102,0.03716083,-0.06669212,-0.07650316,0.21281102,0.03841003,-0.03787301,0.02052675,-0.03862336,0.02069432,0.12282740,-0.03652395,-0.05863981,0.03270375,-0.00868598,0.12495143,0.01685420,0.08420382,0.08061824,0.05977230,-0.15273561,-0.08442652,-0.06756514,-0.06965960,-0.10675208,0.06811720,0.06413803,0.06951738,0.11572589,0.01106741,0.17494020,0.03066085,0.08184888,-0.04229837,-0.03270486,0.02684904,-0.00691018,0.17294720,0.05308647,0.06208673,-0.03359200,0.04679888,0.13924137,-0.04231878,0.06369629,0.01596124,-0.04565078,-0.03151415,0.09238970,-0.08321128,-0.01195543,0.02364182,0.02265001,-0.07421394,0.02063759,0.14279225,-0.07672850,0.00377776,0.15738215,0.17678905,-0.02110426,0.09165042,-0.01866920,0.14519086,0.15704241,-0.03206967,0.02610493,0.02740271,0.11912923,-0.01772270,-0.06258138,-0.00265178,-0.11301103,0.14732224,0.08938523,-0.07429121,-0.09259865,0.01284188,-0.05456995,-0.08095815,0.01069361,0.03360872,-0.03211371,-0.03982584,-0.02539017,-0.13529158,-0.20610769,-0.09883758,-0.05931115,-0.05401058,-0.02476242,-0.09050122,-0.00364436,-0.07568393,0.07234698,-0.02419621,0.12472036,-0.05179889,0.09248957,0.01321885,0.08543738,0.00972663,-0.00270079,-0.10130751,0.01453174,0.12021935,0.01126172,-0.01873338,0.16538593,-0.15622926,-0.12519442,-0.03141052,0.16806261,0.02337307,-0.00732698,-0.02139964,0.01336082,-0.01106699,0.10427199,-0.22007969,-0.02091764,-0.06449682,-0.07734101,0.03196182,0.09042338,0.00646390,-0.17075096,-0.06246722,-0.05458734,0.09543027,-0.02267250,0.03372192,-0.06697378,-0.02595617,-0.05574515,0.14013632,-0.11759959,0.06570608,0.10731176,-0.07127127,0.04579721,-0.00652022,-0.23619711,0.03585775,-0.08846983,-0.03488182,0.00556637,0.00283196,0.10517507,-0.14986281,-0.16711517,0.16770883,-0.04637371,-0.03955121,-0.10814200,0.17053792,0.10993858,0.08938310,0.04719644,-0.01690369,-0.05214296,-0.07552922,0.02183302,0.03115876,0.03333932,0.15314096,0.01694442,0.07163112,0.04810622,0.07342051,-0.18197055,-0.17341727,-0.07893807,-0.05145337,-0.08623618,-0.03721536,-0.03889938,-0.07305110,0.09276147,0.08266129,-0.00687637,0.10039901,0.00307799,-0.08718217,0.12363876,0.03909054,-0.01743919,-0.05162199,0.00898403,0.09480498,-0.12167580,0.17784493,0.05485741,-0.18303537,0.01834868,-0.01653556,0.04906367,0.05119240,-0.14694673,0.04159876,-0.06212990,0.04369128,0.02747197,-0.16099443,-0.07615958,-0.16429467,-0.09204964,0.04693263,0.07974835,-0.01489387,-0.11628879,-0.04400599,-0.09489467,0.07956561,-0.01629891,0.17191227,0.10388333,0.00902418,-0.03006280,-0.05554008,0.07187454,-0.08596471,0.17605829,-0.05467792,0.03564911,0.07096893,-0.01818908,-0.04489066,0.01887775,-0.16551971,-0.04366296,0.03009728,0.05631779,-0.00517497,0.06369842,-0.01711536,0.02780631,0.03436158,-0.08108693,-0.06670975,0.02237913,0.00155828,-0.07926975,0.03589030,-0.03072389,0.03228455,-0.04628100,-0.04752171,-0.02534069,0.12346987,-0.00522626,-0.16104671,-0.06187595,0.14981617,0.05090137,0.08438077,0.05161476,-0.02512076,-0.09307055,-0.08989322,-0.19201739,0.00421556,0.06650607,-0.14719178,0.06013365,0.01615537,-0.12908925,-0.02869194,-0.02567298,-0.07115537,0.01532660,-0.00131617,-0.04955552,-0.07123984,-0.06313059,0.00291187,-0.07769249,-0.03380582,0.06141841,-0.04605732,-0.07536108,-0.09271917,-0.07970756,-0.05564149,-0.02550673,0.05546129,0.01078030,-0.11613639,0.09576569,-0.00929090,-0.09654187,0.02375244,-0.08532546,0.24835595,0.08198419,-0.07762686,-0.03532775,-0.06513980,-0.03212206,-0.11556010,-0.05483514,-0.05727340,-0.03892756,0.02301635,0.04929452,0.07866250,0.04407113,0.01634078,0.06046371,0.07932042,-0.00041555,0.13063088,0.06868365,0.01554028,0.04745710,-0.03116249,0.14317609,0.03327878,-0.04057391,-0.00174274,0.15673853,0.07018790,-0.08742893,0.05618997,0.06454425,0.02053324,0.04554817,-0.07801179,0.06518520,-0.11345519,-0.01358190,0.11667950,0.02941047,-0.10129341,-0.23589255,0.16247001,0.03111428,-0.08290561,-0.03200327,0.05851234,0.00657955,-0.03784960,0.11008161,0.14476393,-0.10832274,0.12173790,-0.04279633,0.00436268,-0.00895880,0.00181627,-0.07429222,-0.03937336,0.08173594,-0.09235851,0.01126174,0.06038679,-0.13985783,0.12219824,-0.02531721,0.04483268,0.05524478,0.02320288,0.07674565,0.27633888,-0.18295005,0.02045172,0.17877546,-0.04215339,-0.05185994,0.00501617,0.09218214,0.00483613,0.01683411,-0.02484293,0.06061169,-0.08562335,0.06651507,0.04411470,0.03344866,0.01259708,-0.13459641,-0.06112599,-0.00307578,0.03598865,-0.00143812,-0.01654878,-0.04125786,0.03170068,0.05588115,0.11387760,0.10934931,-0.01017255,0.00160471,-0.02120673,-0.00193041,-0.07157703,-0.04470943,-0.06725187,0.06901111,-0.05539774,-0.00003059,0.02455161,0.05548963,0.06868836,-0.03519825,-0.04333430,0.00254209,-0.03879033,-0.03708292,-0.07520083,0.00792448,0.08218025,-0.01967903,-0.09407309,-0.06938581,-0.06325653,0.04981307,0.01320045,0.00985425,-0.19508518,0.13013606,-0.14926162,-0.00279417,0.12543333,-0.07732692,0.08405683,0.00673394,-0.02013521,-0.13810544,-0.08805403,0.08274964,0.00568344,-0.01939962,-0.12659910,0.08321168,0.04967606,0.17018476,-0.00747934,-0.06097689,0.01098384,-0.02402901,0.04489831,0.09821325,-0.03114124,-0.04870339,-0.12000298,-0.01341081,0.11632267,0.11546478,-0.01351457,-0.01796787,0.01455436,0.12690242,0.13501793,0.07826446,0.17941354,-0.07213435,-0.00961632,-0.09997159,-0.00721971,0.00796443,-0.17052086,0.04591965,0.04393390,-0.10854954,0.13262087,-0.04477089,0.09305894,-0.10854094,0.02106184,0.08131996,-0.23616491,0.22771569,0.06705967,-0.01882498,0.17884265,0.06806230,-0.08841892,0.01552672,-0.03197161,0.03999575,-0.05597649,-0.04927863,-0.04508419,-0.02581632,-0.07778692,-0.10252512,-0.16571493,0.02827280,0.04282814,-0.06789766,0.10098268,0.17647906,-0.06100682,-0.17299448,-0.06878488,-0.00300079,-0.03347939,-0.09585062,0.00757851,-0.06382105,0.08480267,0.12434252,-0.04364485,-0.16248928,0.05802325,0.06401260,0.04961101,0.00999173,0.05687577,-0.05019113,0.12961176,0.00143172,-0.04050393,0.01312171,-0.01525640,-0.12619922,-0.01626391,0.27267262,0.21895659,0.05755372,-0.02678992,-0.00619213,0.01070859,-0.12829989,-0.04124087,-0.10205185,-0.01092831,-0.02444537,0.02719947,-0.04596958,0.11009649,0.10874584,0.09697938,-0.04777708,-0.14333078,0.05711184,-0.07164947,-0.05188617,-0.05703684,-0.04265311,0.06292171,-0.09760704,0.04609307,0.00683688,0.05797156,-0.12565736,0.02723917,-0.04565507,0.06172246,-0.09450583,0.06843248,0.08724982,0.20970802,-0.14799589,0.14946088,-0.10920431,-0.07541382,-0.00253282,-0.17556037,0.12184266,-0.09832910,-0.00313472,0.08070164,-0.08726937,0.03463701,-0.11607493,0.12666085,0.09217058,-0.03257163,0.03263173,0.01930315,0.01184465,0.13925958,-0.14817655,0.05765876,-0.02334589,-0.04383799,0.00687649,0.03652225,-0.06422281,-0.07201666,0.06973940,-0.02450165,0.22697091,-0.13293366,-0.12731618,0.01677150,-0.00093586,-0.15335399,-0.11407436,0.06330458,-0.02053294,-0.06117789,-0.14668849,0.09306993,-0.04783879,-0.01129715,0.11016632,0.06876197,-0.04758947,-0.15152043,0.09803920,-0.11786465,0.13574810,-0.08535510,0.07337657,-0.11406025,-0.10402340,-0.17047393,-0.08831279,0.14146683,0.09486730,-0.11961857,0.07479391,-0.00994753,0.00729186,0.03593608,-0.14666265,-0.10515603,-0.02666049,-0.09335852,0.02850653,0.12357358,-0.04345056,-0.01815288,-0.05583803,-0.13865668,0.04401671,-0.07946102,0.02855952,0.12533204,-0.06005749,-0.00757895,-0.15165018,-0.01807436,-0.02330673,0.08316716,-0.00122086,-0.06784463,0.13132438,0.03691246,0.11238775,0.03130195,0.07881136,-0.01803882,-0.10074902,-0.10028536,0.09578228,0.00926060,-0.03343507,-0.04422543,0.20583697,0.26912019,0.01333723,0.01624823,-0.00778707,0.03256125,-0.10681910,-0.12412682,0.07955322,-0.05165368,-0.10281789,-0.02807620,0.07382331,-0.17234178,-0.07738758,-0.08510267,0.02476757,0.08407192,-0.13184871,0.08071438,0.04016203,0.01717904,0.01076353,-0.01727717,-0.01255852,-0.07493921,-0.00582010,-0.04382704,-0.00072249,-0.00406524,-0.08236352,-0.03001897,0.01109935,0.04453734,0.07522795,-0.02917753,-0.04536796,0.01645831,-0.01291611,0.02528733,0.01322441,0.03321003,-0.07724528,0.00164425,0.08149309,-0.05834330,-0.05703510,-0.08728846,-0.00692014,-0.04470116,0.00345553,0.00135328,0.12350960,-0.02240680,-0.00028773,-0.06724828,0.03685768,0.03093677,0.00220030,-0.02506507,-0.09298916,-0.02920733,0.18348603,0.00598403,0.14062420,-0.08487459,-0.07371981,0.22794753,-0.01766584,-0.11023945,0.03641552,0.04153204,0.00073153,-0.18634397,0.00454569,0.17415121,0.12805846,-0.02942604,-0.11396908,0.01205440,0.12316971,0.04402955,-0.00258139,0.11385661,-0.02339043,-0.10720274,0.05064053,0.04750927,-0.04756009,-0.05032602,0.01257472,-0.06205630,-0.06361503,-0.14031123,0.03180958,0.14584631,-0.04700959,-0.06709905,-0.02052662,-0.14279544,-0.14357835,0.11512175,-0.12703434,-0.16661961,0.03579437,-0.01607994,-0.09068943,-0.11336935,0.15377308,0.09872194,0.10435375,-0.02580873,0.10091916,0.08550582,-0.14387184,-0.14251266,0.11625933,-0.08105350,-0.05443373,0.17253473,0.10152737,-0.05431842,0.04066311,-0.00198978,-0.16885842,-0.03452610,-0.02797716,0.00122132,0.14783490,-0.09066930,-0.07809550,-0.03766153,-0.06425297,-0.01722619,0.02449274,-0.25386822,-0.07207465,-0.03886648,0.04130680,0.04240088,0.03442666,0.06269587,0.05841159,0.10253857,-0.18383758,-0.01022086,0.06035050,-0.10928398,0.08467815,0.06352934,-0.02924692,-0.08493858,-0.06968581,0.05299826,0.08591625,0.00142934,-0.03744729,0.00790508,0.05273315,-0.01937820,0.08683989,-0.12717563,-0.07518538,-0.03926757,0.09499928,0.05523347,0.08378261,-0.00262733,0.09268942,0.02759439,0.01814650,0.12062506,-0.05691560,-0.06203586,0.16380657,-0.10044577,-0.11808814,0.06362356,-0.07135102,0.08809321,0.00499868,-0.10102313,-0.01890155,0.02154902,-0.18252097,0.03512386,-0.16738193,0.11689978,0.14778303,-0.02795717,-0.14605464,-0.02771037,-0.06460889,0.05020760,0.13165736,-0.07676465,-0.00760182,0.01974679,-0.12082416,-0.00301060,-0.19468832,-0.03253108,0.02044317,-0.05327652,0.14202082,-0.06009574,0.03132871,0.01228316,-0.00394772,-0.13026100,0.07902442,0.01689381,0.18275471,0.20682926,0.05666783,-0.07233612,0.04632177,-0.01850829,0.02006971,-0.17002684,0.11359560,-0.03181997,0.08521546,-0.01665318,0.05869964,-0.01787528,0.04988664,-0.08468562,-0.02096139,-0.04811253,0.00539651,0.10929324,-0.13101393,-0.12399374,-0.02198064,-0.03151480,-0.00539281,0.12977336,0.04708016,-0.04428743,-0.07304914,0.01268709,-0.07230201,-0.02189364,0.08752723,0.05321233,0.02350179,-0.10789906,0.00075613,-0.00959145,0.07051697,-0.06764291,0.07643143,0.10167094,0.00724909,-0.10126072,0.00053359,-0.01793548,0.06683281,0.16444458,0.02653023,0.07805043,-0.03341885,-0.20231226,-0.25818691,0.06668478,-0.07587200,0.05217756,-0.07430267,0.07442480,0.01011634,0.03501885,0.04567855,0.01153252,-0.07282880,0.13721326,-0.09823120,-0.00764266,0.08850328,-0.12463080,0.00581852,0.12553218,-0.00658974,-0.12384386,0.14594956,-0.02299493,-0.13792147,0.03897778,0.06171886,-0.04280588,0.03090166,0.04230345,-0.04808170,-0.08226927,-0.14062785,-0.10836853,-0.11110203,-0.29519945,-0.24140321,0.06623445,-0.07225078,-0.02710371,0.02135791,-0.07973789,-0.02947169,0.03259058,-0.04137032,-0.04080083,0.12487876,-0.09532364,-0.09797186,-0.06180008,0.12744588,0.07980297,-0.06508783,-0.13731378,-0.09251883,-0.02645038,-0.09847381,-0.10593268,-0.12431271,0.00653385,0.13309789,0.03697880,0.05066523,-0.06310360,0.04098987,0.15280095,0.08655789,-0.14750476,0.03573695,-0.05686442,0.07879753,-0.08909342,-0.01053800,0.07914258,-0.10331158,0.04879065,0.00205727,-0.06024276,-0.17635229,-0.00619318,-0.06907042,0.11667974,0.04101474,-0.10001366,0.00018872,-0.06985760,0.12129671,-0.08863144,-0.02332027,-0.00641463,0.08613451,0.00899467,0.01231390,-0.04486844,-0.05128564,-0.08393275,0.05624228,0.15273075,0.00504497,0.08798297,-0.01961295,-0.00481890,-0.10797918,-0.11726919,0.13839266,0.07513286,-0.00435683,0.16581269,-0.07264108,-0.02440203,-0.06329586,0.07018222,0.07136910,0.02861231,0.11187849,0.11571781,0.07725909,-0.02448075,-0.08685402,0.09214509,-0.00716299,-0.00786710,0.03497817,0.03305438,-0.05382941,-0.09364435,-0.14657545,-0.04888657,-0.16019610,-0.03170698,-0.14337693,0.11866850,0.02574056,0.03153480,0.01810672,-0.11916444,0.01705734,0.02119889,0.01156801,0.08826891,0.03450004,0.09861407,-0.15494996,0.09268633,-0.06904288,0.08408233,0.10210783,-0.12818973,-0.04750572,-0.15565923,-0.02039735,-0.25528476,-0.07422550,0.04703717,-0.02216391,-0.02662786,-0.06465189,-0.05013982,-0.01625754,0.08454964,-0.10915929,-0.04797247,0.03409823,0.14332707,0.08088440,0.13678893,-0.03077820,0.06836001,-0.00869924,0.06804777,0.04284615,-0.04433025,-0.19899221,0.01289871,-0.21019845,-0.00955938,0.13354751,-0.06800865,-0.13173246,0.08278514,0.12958899,-0.04865300,-0.06692030,-0.01353148,-0.04122985,-0.04524755,0.06844945,0.05123738,0.07916899,0.00532723,-0.12350328,0.08386455,-0.05505610,0.02841941,-0.03537365,0.00456570,0.07769462,0.18436155,0.08890074,-0.03561250,-0.12578104,-0.11010077,-0.01365542,-0.00181015,0.01334987,0.01461632,-0.00971499,-0.04163653,0.08941498,-0.03842119,-0.14402910,0.13318811,0.03402774,-0.02563480,0.08497250,0.04679923,-0.15964806,0.02879953,-0.09926301,-0.11185852,0.07491526,-0.00487943,-0.00374691,-0.07104092,0.01492844,0.00050659,-0.07707531,0.00933403,-0.05689291,0.08385050,-0.00793086,-0.00492215,-0.11901707,0.03436758,0.14976324,0.08710191,0.14952733,-0.00630887,0.02374428,-0.00450727,0.01725751,0.02432658,-0.00113890,0.03794839,-0.00501123,0.01116620,0.14331135,-0.01998284,-0.00465326,0.06697082,0.04377605,0.06790333,-0.08977690,0.08251772,-0.03568264,0.15090735,-0.03677665,-0.04070478,-0.24518123,-0.02585264,-0.16001256,-0.20038255,-0.04480795,-0.05751163,-0.13993731,-0.02598542,-0.15162981,-0.01946612,-0.14908533,0.05475872,0.01337344,-0.12387802,0.09033257,0.12291477,-0.05279898,0.00935362,0.00931913,-0.09133271,-0.05415932,0.01099550,0.14972965,0.14479934,0.18686111,0.06347910,0.03134854,0.03792356,-0.00000719,0.06067665,0.08438586,-0.12540370,0.00940869,0.11722665,0.05410307,0.00597405,0.07945049,0.05906883,-0.01747190,0.07476340,0.04495952,-0.09173017,-0.12114467,0.09880129,-0.01908294,-0.18874757,0.18970349,-0.06821206,0.07692599,-0.08554656,-0.08672468,-0.00020655,-0.05794968,-0.12339409,0.01525131,0.22068290,-0.00123760,-0.05800538,-0.07206793,0.08647352,0.08541869,0.04568768,-0.02984423,0.02608830,0.06851193,-0.00691321,0.07925285,-0.03102089,0.07950134,0.03267523,0.06401128,-0.00926869,-0.15380478,0.02647065,0.16889171,-0.04469619,-0.08368153,-0.03013729,0.21257541,-0.09597047,-0.07560105,0.10675777,-0.00475552,0.07150532,0.04641351,-0.01299232,0.03132807,-0.12452677,0.09970821,-0.09089782,0.05267550,0.01431139,-0.05828850,0.11944824,0.09322525,-0.05918786,-0.07038356,-0.00202886,-0.19744997,0.00769768,0.09110949,0.03968836,0.02750908,-0.05208120,0.07250120,0.04390445,-0.12895007,-0.04935512,0.07443549,-0.03133913,0.01704238,0.00919087,-0.02910732,0.16573456,-0.09426335,-0.01178135,0.09329033,0.09942465,-0.10238142,0.06211757,0.08922944,0.03707822,-0.09027751,0.02612982,-0.11271583,-0.06711219,0.04663005,0.13471274,0.10933483,-0.04726291,0.08502129,-0.01865660,-0.00170014,0.00817508,0.07386059,-0.20991898,0.07682966,-0.10582688,0.01477946,-0.03276859,0.12759045,0.06595460,-0.05541452,0.10303006,-0.02227404,-0.02746743,0.12660317,-0.01069517,-0.01025116,0.14320917,-0.07759959,-0.05339488,0.08602207,0.04570790,-0.07221390,-0.05179960,0.07814461,-0.09704707,0.02495578,0.05932051,0.02037949,-0.00862390,-0.00667145,0.04812597,0.05220526,-0.04201052,-0.08585621,0.04376903,-0.05284619,-0.08901279,-0.11294953,0.05218828,-0.01563871,-0.06370909,0.05230465,-0.05116293,-0.00599152,-0.00498674,0.00005225,-0.05880729,0.08069317,-0.20323540,0.10012852,0.02588857,0.14079705,0.10229334,-0.03185299,-0.14853947,-0.09462278,0.15470494,0.02507995,-0.08068873,-0.05713423,-0.08580073,0.01319396,0.03475546,0.09740353,-0.01747765,-0.00726499,0.12613849,-0.06446269,-0.15572685,-0.00628076,-0.02937075,0.01589764,-0.04640202,0.04280644,0.01158519,0.10162763,0.04761530,0.03693356,-0.05840488,-0.08206516,0.08469313,0.00048116,-0.01390833,0.03329256,-0.09086300,-0.00269169,0.11454576,0.02083484,0.02296101,-0.09064916,0.04281335,0.02463074,0.01906577,-0.02904077,0.15166984,0.17906106,0.11642233,-0.18040720,-0.05272016,0.08325917,0.29686272,0.04430030,0.02975313,0.17197767,0.04713672,-0.01917712,-0.09629545,0.01179452,0.09387069,-0.05774614,-0.07420009,-0.01223129,-0.11717731,-0.01100209,0.05776583,-0.09917751,0.07701327,0.11037872,-0.02388735,0.18053724,-0.13955939,-0.00256114,0.16954985,-0.00043111,-0.00801984,-0.02153098,0.03581563,0.16225059,-0.06820008,0.00887065,0.09115005,-0.03988127,-0.12510245,-0.15692687,-0.04019816,-0.03626357,0.01406599,-0.05479188,0.05153491,0.10963721,0.08716187,0.00329027,-0.05789626,-0.21854259,0.00973631,0.10452761,0.05642637,0.15378524,-0.07029809,0.11498640,-0.04280940,0.14444885,0.07309396,-0.01272767,0.09769494,-0.06957787,0.09572750,-0.08909486,-0.12727506,0.03154425,-0.09381881,0.06596507,-0.06195435,0.10799929,-0.00934243,0.06440418,0.00548343,0.05805278,0.04812220,0.00611411,-0.05246338,0.03714616,0.13502061,-0.01136070,-0.05585595,0.10123017,-0.08804069,-0.01540741,-0.00326790,-0.18374214,0.02385104,0.09789186,0.04399166,0.09945983,0.03493742,0.04303198,0.00874258,0.01377770,-0.11115862,-0.02397746,-0.12968451,-0.12081187,-0.19387181,-0.12220670,-0.11781879,-0.14603816,-0.04592076,-0.10042754,-0.04339951,-0.00864293,-0.00485139,0.04267665,-0.09885352,-0.11332351,0.02204337,-0.01678558,0.12180392,-0.05289321,-0.07252268,-0.02444779,-0.06761584,-0.00698888,-0.01068398,0.12903401,0.01153333,-0.04739986,0.00774802,0.06119236,0.01759384,0.01337817,0.08233318,-0.05595565,0.02650897,-0.06568246,-0.07125294,0.18230575,-0.05527809,0.05293594,0.11359707,0.11697398,0.09179789,0.02682683,-0.16995451,-0.08360051,-0.02060069,-0.02522825,0.06862521,-0.01693212,0.07136575,-0.02883494,-0.05183758,0.02541143,0.00563082,-0.17974342,-0.11112712,-0.06323830,0.04726950,-0.05413765,-0.03791900,0.00410017,0.00101958,0.01554575,0.06909137,-0.05113502,0.11172304,-0.09742680,-0.01903201,0.04591018,-0.00243254,0.04470020,0.09737553,-0.26158771,0.14937426,0.02375179,0.06065580,0.04498356,-0.14375548,0.12361027,-0.02702420,-0.12419672,-0.00035932,0.03289327,-0.04009406,0.01201009,-0.08206407,-0.01827107,-0.21209046,0.07823772,0.07632395,0.05809662,-0.00521234,-0.15359148,0.09699389,0.08106195,-0.11203685,0.11520864,-0.06618337,0.06957787,-0.02743667,0.11628785,-0.05029971,0.05079878,-0.00343111,0.08563121,-0.03986721,0.03993905,0.11738842,0.04760952,-0.10844604,-0.00700324,-0.13954787,-0.10842174,-0.01137973,0.01557673,0.07121149,-0.07771257,-0.06610092,-0.02141442,0.08266858,0.13102490,-0.14901090,-0.11032169,-0.08130384,-0.00423138,0.08675621,0.17925000,-0.09773470,0.16522844,0.10627399,-0.09800623,-0.01027493,-0.08296070,-0.05290236,0.07562394,-0.08856277,0.12617771,-0.05889721,-0.08822363,-0.00969379,-0.07955310,0.04024405,0.04069870,0.10892536,-0.18040895,0.20621412,-0.11682283,-0.04051459,0.16610624,0.09661589,-0.07790356,0.09088373,0.01459394,-0.08084002,0.08107611,-0.02998484,-0.01342339,0.10843598,0.13472307,0.10598215,-0.11817699,-0.01055944,-0.03524195,-0.12620723,-0.08089397,-0.01120943,-0.23028745,-0.03098263,0.10597464,0.06109576,-0.03977816,-0.05828910,-0.04843671,0.04685930,-0.10144542,0.03114898,0.02253352,-0.06729408,0.07561656,-0.11635386,0.04022778,-0.04220200,-0.17829947,0.00674874,0.07124913,-0.12590617,-0.09433689,0.02307620,-0.02535816,-0.10298752,0.04813360,0.10413670,-0.16006124,-0.04574513,0.03370021,-0.01335286,-0.09305412,-0.04820522,-0.01463486,0.07079376,-0.11852632,0.12934686,0.17757614,-0.05373793,-0.03058116,-0.12042651,-0.03280986,0.03125316,0.00988053,-0.02915838,-0.02583885,0.03659949,-0.03468520,-0.16439523,0.10250970,-0.09513893,0.00623829,-0.05385100,-0.06074520,-0.05740878,-0.17043400,0.04456797,-0.12864636,-0.10482360,0.07972836,-0.12474330,-0.00479606,-0.01673588,0.02865236,-0.16587621,0.17360066,-0.15140559,-0.07249071,0.04965176,0.04025266,-0.07021105,-0.04178132,0.04004635,0.06653565,0.01433987,0.03651390,0.07852403,0.01038568,-0.09327610,0.05227349,0.07053255,-0.11600714,0.06969935,0.04673517,0.07159819,0.05636159,-0.05520875,0.00530825,-0.16349970,-0.05543424,-0.04036005,0.07439008,0.00373355,0.05394781,0.12521477,-0.04124373,0.17010416,0.03325799,0.00016524,-0.24851114,0.12896627,-0.00939462,0.07322476,0.08583085,0.07787295,-0.01429506,0.12439204,0.04744929,-0.05486257,-0.19344215,0.06723312,0.05759787,-0.09300446,0.13127546,0.01900309,0.03101775,0.05812130,-0.08046883,0.00729393,-0.04144511,-0.04493264,0.13717903,0.03341471,0.03407969,-0.06971580,-0.12277686,-0.08435816,0.04600105,0.09409781,0.16257149,-0.02362059,-0.00473612,-0.01866349,0.10574893,0.19000910,0.06676788,0.09820630,0.01110575,-0.07362525,-0.04317020,0.01783989,-0.14353439,0.04892397,-0.16063192,-0.02060508,0.06574288,0.00387206,-0.03488781,0.12493797,-0.09385736,-0.00173645,-0.09788361,0.01741459,-0.14481147,-0.03264259,-0.02880052,-0.02249965,0.05520324,0.08168802,0.00068132,-0.08253411,-0.06615530,-0.06700435,0.04741790,0.04764017,0.07128453,0.10896196,-0.14447971,-0.05103886,0.00374514,-0.00384491,-0.02780296,-0.01339965,0.04547661,0.10021523,0.16097024,-0.05633384,0.05320833,-0.11739776,-0.12061308,0.14097837,0.04021928,-0.04639131,0.03206248,-0.07424238,0.02876422,0.06668957,0.07976908,-0.03803442,-0.12759961,0.09844625,0.16149122,0.10950755,-0.10028061,0.06941666,0.06719564,0.10180349,0.03441628,-0.17766324,-0.02944201,0.05808497,0.01452973,-0.16702142,0.02016067,-0.11602277,-0.00396196,-0.08300153,-0.14170994,0.01277432,0.04606412,0.10277674,0.07517648,0.04870834,0.02619096,-0.00001412,-0.07506476,0.03053685,0.08836707,-0.01033845,-0.19655073,0.01632487,0.11065308,-0.07690597,-0.08552726,-0.12039004,0.01776533,0.05219331,0.06585816,-0.00248571,-0.01668133,0.08168901,-0.06936329,0.08670838,0.07271685,-0.02657875,0.00734453,-0.12910308,-0.00916281,0.04055236,-0.10177859,0.08601230,0.10309029,0.06922561,0.01235872,-0.05341987,-0.13265871,0.08259585,-0.16303509,0.01230156,-0.21522416,0.05671628,-0.08769938,0.02780916,0.07708895,-0.19223578,0.16205125,-0.17699638,-0.11376762,-0.12388445,-0.07945011,-0.15838349,-0.08978152,0.10765390,0.13263875,-0.14453375,-0.06537344,-0.00636562,-0.02656520,-0.00881441,-0.02134190,-0.09716523,0.01624324,-0.01093357,-0.12221920,-0.05803544,0.05440594,-0.09223219,-0.12898667,0.01430756,-0.13881961,-0.01740289,0.20769642,-0.05878240,0.07613689,0.02359157,-0.14510946,0.10092152,-0.15280990,0.04483198,-0.03491592,0.17941831,-0.04873108,-0.05720075,0.11293277,-0.07616534,-0.04601043,0.00724336,0.10109296,0.06459899,-0.04185551,-0.06492097,-0.05882136,0.04550009,0.06509004,0.03003007,-0.06289045,-0.06150878,-0.05612194,-0.02534447,0.04660979,0.00959684,0.11288406,-0.07515598,-0.11300204,-0.08525459,-0.12781520,-0.13107629,-0.12500647,-0.01217764,0.14004374,-0.09367113,0.16821398,-0.13796592,-0.04285551,-0.05001795,-0.06491753,0.00560964,0.05613677,0.02884441,-0.02664696,-0.21435335,0.03128834,-0.11006308,-0.09171502,-0.04968988,0.04151419,0.06944698,