{
  "blocks.0.bias": {"shape":[128],"data":[0.00000000,0.00000000,0.00000000,0.00000000,0.00000000,0.00000000,0.00000000,0.00000000,0.00000000,0.00000000,0.00000000,0.00000000,0.00000000,0.00000000,0.00000000,0.00000000,0.00000000,0.00000000,0.00000000,0.00000000,0.00000000,0.00000000,0.00000000,0.00000000,0.00000000,0.00000000,0.00000000,0.00000000,0.00000000,0.00000000,0.00000000,0.00000000,0.00000000,0.00000000,0.00000000,0.00000000,0.00000000,0.00000000,0.00000000,0.00000000,0.00000000,0.00000000,0.00000000,0.00000000,0.00000000,0.00000000,0.00000000,0.00000000,0.00000000,0.00000000,0.00000000,0.00000000,0.00000000,0.00000000,0.00000000,0.00000000,0.00000000,0.00000000,0.00000000,0.00000000,0.00000000,0.00000000,0.00000000,0.00000000,0.00000000,0.00000000,0.00000000,0.00000000,0.00000000,0.00000000,0.00000000,0.00000000,0.00000000,0.00000000,0.00000000,0.00000000,0.00000000,0.00000000,0.00000000,0.00000000,0.00000000,0.00000000,0.00000000,0.00000000,0.00000000,0.00000000,0.00000000,0.00000000,0.00000000,0.00000000,0.00000000,0.00000000,0.00000000,0.00000000,0.00000000,0.00000000,0.00000000,0.00000000,0.00000000,0.00000000,0.00000000,0.00000000,0.00000000,0.00000000,0.00000000,0.00000000,0.00000000,0.00000000,0.00000000,0.00000000,0.00000000,0.00000000,0.00000000,0.00000000,0.00000000,0.00000000,0.00000000,0.00000000,0.00000000,0.00000000,0.00000000,0.00000000,0.00000000,0.00000000,0.00000000,0.00000000,0.00000000,0.00000000]},
  "blocks.0.weight": {"shape":[128,128],"data":[-0.17629698,0.05827564,0.12225104,0.15549701,-0.01310258,0.04674301,-0.03478756,0.00156274,0.05847831,0.13512340,-0.01357509,-0.06907797,-0.10425853,0.05631918,-0.01977959,0.10015740,-0.24297725,0.06083500,0.00302983,-0.02830497,-0.07474600,0.03762825,-0.10277150,-0.14849506,-0.04838059,-0.12320461,-0.03436111,0.14106956,0.13045537,0.01845540,-0.09481537,-0.00696439,0.04024263,0.01466356,0.01569133,-0.25033271,-0.01869050,0.02986790,-0.07138429,-0.09736615,0.18086420,-0.01264040,-0.12434153,-0.05928434,0.14790983,-0.13889666,-0.06483041,-0.02377043,-0.07731691,-0.00039445,0.12194024,0.04052453,0.02766628,0.02924273,-0.07196648,-0.16557857,0.02808390,0.16351241,0.07994813,-0.07159778,-0.01295210,-0.05777189,0.06081033,-0.09210030,0.16875868,-0.09834404,-0.12212327,-0.04624041,-0.05176067,-0.13001834,0.08015599,-0.06017725,-0.08029319,0.13364168,-0.05051811,0.11368205,0.19619150,-0.23290332,-0.21053360,0.01031495,0.11746223,-0.12969896,-0.00034768,0.06158828,-0.11407628,0.03870910,0.17088796,-0.11192716,0.03578849,-0.08240665,0.04410863,-0.08128737,0.08508158,0.13118850,0.00070326,0.02541799,0.06290668,-0.05706516,0.04896492,0.10927229,-0.00847192,-0.03093423,-0.00892235,0.06131483,0.03388957,-0.07795749,-0.06334238,-0.11335700,0.08285213,-0.04688783,-0.00624370,-0.15919626,-0.07992737,0.04991907,-0.08461003,0.03362097,0.06625102,0.10896078,-0.11149445,-0.14118321,0.03357066,-0.04004887,0.15999764,0.06146125,0.02806622,0.01088290,-0.02845623,0.09320790,-0.08414443,0.12146001,0.08244885,0.04332012,0.07748754,-0.14828598,0.14891382,-0.11607742,0.04728673,0.07822661,0.20352019,-0.08926713,-0.03634419,0.04634914,-0.06123012,0.07963075,0.01549021,-0.11185173,-0.05514476,-0.06899205,-0.08081441,-0.03494954,-0.15765496,0.04107476,0.08914619,-0.03747008,-0.09303302,0.01521129,-0.13453932,-0.00896493,-0.11877415,0.00408318,-0.07309395,-0.15157475,0.02251498,0.03367995,0.16206063,0.17626876,0.04260619,0.16172557,0.06249061,0.22263695,0.07878436,-0.07466892,0.01415906,0.06191435,0.07127908,0.03509545,0.09977789,-0.07681745,-0.03557641,-0.06082441,0.04655507,0.01543369,-0.02434390,-0.02063369,-0.13372536,0.06937680,-0.00972633,0.04010386,-0.04214297,-0.05211329,0.05162934,0.07817977,-0.02031142,-0.05645068,0.04774053,-0.05176130,0.01463110,-0.03601627,0.03582209,0.04931080,-0.14022578,-0.02217858,-0.02981074,0.12043381,-0.06588446,0.05822386,-0.09632143,0.07075237,-0.14223029,0.00710864,-0.09903445,0.02288691,0.06760961,0.13500854,0.14125422,-0.03988281,0.04888489,-0.12389416,0.04766762,-0.03021151,0.19476548,-0.05382694,-0.03219409,-0.05184515,0.17932428,-0.06216865,0.01742803,-0.09961455,-0.08122515,0.01179593,-0.12971787,-0.04772172,0.26680750,-0.08228736,-0.10585910,0.00260865,-0.09089120,-0.03561349,0.02256051,-0.03997297,0.01110871,0.05529489,0.06839617,0.08755698,-0.06047056,-0.15020785,0.01241860,0.04672823,-0.01789689,0.05053712,-0.12567499,0.14600095,-0.19658272,0.13688570,-0.02478311,0.21418522,0.01572566,-0.02145769,0.01281480,-0.08164556,-0.00060077,-0.03129484,0.00092446,0.04918797,-0.00062963,0.19684941,-0.03884636,-0.05583574,-0.06624284,-0.08306773,0.04971856,-0.04456498,-0.04966991,-0.10471132,-0.00911605,0.08996176,0.12673910,0.03357512,0.01904708,0.11603984,0.08834333,-0.06137471,0.11409278,-0.23774946,-0.01187835,-0.05813716,0.21584012,0.06257878,-0.00498132,0.16305900,0.04238973,-0.06431742,0.16618802,-0.08125129,-0.13180320,0.01936547,-0.01208921,0.04529050,-0.07571957,-0.10334838,0.04489104,-0.04729198,-0.13028611,0.03218196,-0.00796015,-0.07888680,0.15618879,-0.14736670,-0.09186093,-0.04383238,-0.05113848,0.06165188,-0.05414140,0.06073289,-0.02698597,0.03957908,0.03051236,-0.04398739,-0.07294157,0.15769227,-0.18634649,-0.05444453,0.03285502,0.22099498,-0.10781652,0.03617362,0.04286640,0.02126337,0.03140067,-0.04982373,-0.00161442,-0.06428529,0.05016558,0.05846790,-0.12461691,-0.03011758,0.15118347,0.04491104,0.09964656,-0.10294159,-0.05233950,-0.09814011,-0.14072065,-0.08412434,-0.05405218,0.22725871,-0.02120003,0.06157395,-0.05060939,-0.02616298,0.15381600,-0.07302558,0.07786237,0.02540313,-0.01576455,0.20817393,-0.18972223,0.06774990,-0.09503721,-0.03709444,0.05025010,-0.10125945,-0.02951540,-0.05815041,0.02998725,-0.02487017,0.05592187,-0.15334542,0.07569300,-0.11037152,0.16639243,-0.08921490,0.10158720,-0.10354760,-0.01990398,-0.00864226,0.06036744,-0.08293941,-0.03390133,0.03348307,-0.15004800,0.08394527,0.02811036,-0.03969175,-0.03433390,0.01946569,-0.07150299,0.03980299,0.13473170,-0.05018912,-0.06098663,-0.12924799,0.00315451,0.12679967,-0.11546299,0.14276823,-0.01740263,-0.04018806,0.25658718,0.07856232,-0.09809727,-0.05225616,-0.06525346,-0.12020458,0.01742177,-0.10466075,0.00911270,-0.19149810,-0.10327169,0.00201266,0.08109152,0.15376960,-0.04003170,0.07794395,-0.06367876,-0.05746202,0.13640472,0.02835008,-0.05476222,-0.03008038,-0.04490806,-0.05723526,0.04851323,-0.04831000,0.06794316,0.04118608,0.02425549,0.06826691,-0.07642238,-0.19332336,0.00176865,0.10253409,0.01515994,-0.08595344,-0.06173396,0.04987183,-0.03813722,0.08934091,0.03317484,-0.12859307,-0.01622267,-0.06510507,0.09926536,0.03200452,-0.02927759,-0.11360999,-0.00541995,-0.04260375,-0.04483254,-0.04437436,0.01785497,-0.01428458,-0.09669404,-0.06372891,-0.14210901,0.06222613,-0.11980732,-0.06149277,0.20908833,0.12569332,0.03117481,0.05529124,-0.10554548,-0.06116436,-0.13546105,-0.22534730,-0.06069814,0.08420838,0.07672334,0.05370434,0.01555925,0.00399868,-0.08525872,0.05851366,-0.11527597,-0.04364871,0.12349058,0.05815439,0.01593282,-0.08056074,0.03455476,-0.10100230,0.16257089,0.12927826,-0.03179947,-0.02988821,-0.03839539,0.16276194,0.05352739,0.05679892,-0.01907603,0.09762471,-0.04920868,-0.08497620,-0.03899954,-0.03901897,-0.02534604,-0.10468583,-0.09769914,-0.07048447,0.14376295,0.04216351,-0.06753194,0.12998112,-0.00049650,-0.04162202,-0.16398588,-0.05653327,-0.14199962,-0.12668064,-0.04941392,-0.02830344,0.11341489,0.04511528,0.03327747,0.05998755,0.09395366,-0.02993699,-0.11057483,-0.12289503,-0.01390144,-0.10988761,0.06535234,0.21313418,-0.10284466,-0.04843142,-0.09326404,-0.08089934,-0.01336266,0.10377122,0.03299635,0.07343517,-0.13373955,-0.02444245,0.01528858,-0.04146464,0.05668288,-0.04160030,-0.03214188,0.03713414,-0.07764925,-0.11334425,-0.01994347,-0.01034212,-0.19708614,0.12853573,0.00606977,0.00312753,0.06814148,-0.12355290,0.01097095,-0.06826445,0.02791652,0.07126473,0.00190845,0.09605751,-0.13631678,-0.01992295,0.01934738,-0.05687229,0.03045582,-0.08781695,-0.07238700,0.03219898,-0.03350214,0.04959406,0.19310676,-0.02215132,-0.02745756,0.10576275,0.25594762,-0.28005135,-0.09979494,-0.04992183,0.03703158,0.04619438,0.04259446,-0.02818115,0.14025995,0.00906995,-0.13653889,-0.01199463,0.14658719,0.02990138,0.03286692,0.01043673,-0.00011502,0.00775645,-0.14072853,0.02554518,0.11684349,0.00287521,0.09761894,-0.06146185,0.08595155,0.10091874,0.16062950,-0.05978934,-0.11783477,-0.02272077,-0.03333688,-0.00917990,-0.02914300,-0.05686919,0.19643162,-0.05907651,0.04135471,-0.02841716,0.00767464,0.09745766,-0.00917624,-0.07628842,0.04774081,-0.07203514,0.09812853,0.03930778,-0.01883264,-0.10440735,-0.03410933,0.08006353,0.00201508,0.10310858,-0.05987832,0.03672392,-0.08200356,-0.04840765,-0.04852924,-0.13191713,-0.13649929,-0.09907696,0.04380297,0.06127579,-0.11356515,0.01253899,-0.03297552,-0.02935246,-0.17548905,0.08825734,0.07385329,-0.02376586,0.15152590,0.04486276,-0.12810846,-0.06565170,0.06902759,0.02745598,0.03775164,-0.09391110,-0.08916000,0.02762641,0.01715666,0.01020666,0.17091323,0.02128769,0.02446375,0.04023953,0.06947790,0.05776854,-0.11586833,0.05066499,0.14873242,-0.08366916,0.16246679,0.03463490,-0.15210061,0.00743134,0.01095054,-0.02150231,0.06672559,0.09741348,0.23913707,0.12364055,-0.02935234,0.13466339,0.02386485,-0.15965858,0.01674883,-0.02968752,0.14001115,0.05986292,-0.06227637,-0.05625121,-0.02595221,0.01525328,0.10838674,0.02777788,0.00849457,0.01256925,0.04668764,-0.10906334,0.14455438,0.09571093,0.07744623,0.04713771,-0.00208650,0.00691497,0.10483245,0.07523312,0.17907581,0.11876620,-0.05220309,0.03413527,0.01307230,0.13033482,-0.02761575,-0.02956100,-0.04065060,-0.03797220,0.09619296,-0.05437630,0.01417406,0.09468231,-0.10689302,-0.09412769,0.06032361,-0.09145521,0.12377755,-0.03125611,-0.11509784,0.08841165,-0.09543723,-0.10317635,0.01135231,-0.01469740,0.14278439,-0.05419938,-0.13742617,-0.07176414,-0.00578078,0.05992324,-0.11248468,0.05009153,-0.16831052,-0.00741719,-0.05463453,-0.17108722,0.00034233,-0.05450280,-0.10125080,-0.12207834,0.06305254,-0.13172470,0.02932127,-0.02462137,0.02350359,0.04565563,-0.07979491,0.05375219,-0.11783627,-0.07115992,-0.22758242,-0.02449190,0.15901050,-0.07593287,0.08860125,0.02918484,-0.05486414,0.12739238,-0.01515791,-0.25926360,-0.17160620,-0.09802746,-0.00395198,-0.01077188,-0.12316917,-0.11113746,0.02266739,-0.02339371,-0.00161615,0.03790860,0.16964263,0.10788604,0.25073376,0.03439681,0.07954851,0.17933202,-0.08484610,0.11242752,0.03599089,-0.04830701,0.01990912,0.26953518,-0.13573638,0.03652020,-0.01928913,-0.10949031,-0.15379784,-0.04468710,0.10046344,-0.05790525,0.05479521,-0.07620806,-0.09704565,-0.03529968,0.03593667,-0.04736222,0.02363945,-0.08613013,-0.19223146,-0.07846152,-0.07083938,0.05318218,0.00281661,0.07872307,-0.14980426,0.05654571,-0.13817234,-0.16854803,-0.09222690,0.00071512,0.15001339,0.09358390,-0.04884921,0.19997802,-0.12688176,0.00344358,0.19057810,-0.05150897,-0.01649506,-0.03653668,-0.06327716,0.11440606,-0.06903551,-0.01015675,0.00201731,-0.00051249,0.00272397,0.02510175,0.01419812,-0.09549373,-0.11341535,-0.07937020,-0.01874509,0.01091480,-0.01938471,-0.01442696,-0.08319408,0.07666078,-0.03944733,0.08900619,-0.01590322,0.09540306,-0.01691050,0.10760640,0.04474857,-0.05573007,-0.07362188,-0.04512736,0.12982880,0.02591196,0.08804724,0.00166395,0.07639132,-0.15635648,-0.06490585,-0.02454058,-0.12853317,0.00701274,-0.04354838,0.11184727,-0.02531917,-0.05229467,-0.05105324,0.00535661,-0.08456723,0.00313203,0.07704370,-0.04504681,-0.00887809,-0.02813999,0.03022015,0.05655558,0.00680604,-0.01935116,-0.02678780,0.08713342,0.14697002,-0.02672813,-0.01964202,0.09031479,0.22398862,-0.06406759,-0.03615728,-0.03033075,-0.13083628,-0.05204673,-0.01538582,-0.12663786,0.03726010,0.15355828,-0.17591663,-0.01402726,-0.06796686,-0.08540772,0.05080555,-0.04977398,-0.08583499,-0.14877187,-0.03807724,-0.05337781,-0.13844904,-0.06767093,-0.02637742,0.12801655,0.07042523,-0.07357234,-0.00309436,-0.04263891,0.11014310,-0.06923847,0.14219338,-0.04885806,0.04968238,0.15487498,0.07304185,0.03958552,-0.02345609,-0.03668403,0.15070787,0.05429620,-0.09554290,0.04280717,-0.10537072,0.05858803,0.00672551,-0.04060872,0.11304548,0.06387725,-0.04610816,0.01546641,-0.12608258,-0.15189284,-0.09779249,-0.06408343,0.04915706,0.00519917,-0.00707558,-0.02729380,-0.04755197,0.08086866,0.02345783,0.01964308,-0.17227614,0.00308655,-0.03373263,-0.02617916,0.05910600,0.13976581,-0.14088669,0.00233373,-0.06370377,-0.02702137,-0.15940563,0.10586004,-0.05316045,-0.06348234,0.01483065,-0.05668592,0.11840909,-0.13834229,-0.14046845,-0.00823027,0.03167854,-0.02724362,0.01693823,-0.05721992,0.01085432,0.00683194,-0.01298668,0.02168730,-0.02355916,0.09777119,-0.15772346,0.00517822,-0.07097223,0.11076147,0.07720694,-0.10239238,-0.08210106,-0.05934613,0.09818412,0.07545233,-0.01843309,-0.03266924,0.06247653,0.00459427,-0.02069118,0.09776369,0.16587944,0.03608848,-0.06709982,0.10672946,-0.08782251,0.08781211,0.01565682,-0.00336028,-0.03426616,-0.01904156,-0.05528154,-0.10958885,0.05095993,-0.18263641,0.12113524,0.06367978,-0.17997715,0.08264370,-0.02753828,0.08370019,-0.14371060,-0.07333475,-0.04534019,0.08104654,-0.06552016,0.06403273,-0.08131440,-0.02078670,0.03241539,-0.04223601,-0.04243547,-0.02476561,-0.01231870,0.08765107,0.09907255,0.03909995,-0.04703036,0.03437102,-0.00769113,-0.04409434,-0.02546710,0.04155315,-0.04512925,0.05328585,-0.07119489,-0.17002557,0.04460010,0.01568944,0.16919251,-0.01752513,0.15427448,-0.07062329,-0.12595966,-0.00886899,0.04160652,0.17495154,-0.12865855,0.07021128,-0.10405075,0.05515744,-0.00235233,-0.03695110,-0.06350628,0.09972788,0.12665221,0.01895128,0.09779598,-0.07314159,-0.03646628,0.03519150,-0.01706593,0.26928949,-0.04659996,-0.10727318,-0.06433679,0.15041114,0.26135892,-0.07711430,0.05251580,0.03552403,0.00454331,0.05065329,-0.10526411,0.04446848,0.00099664,-0.03612543,-0.03026676,0.12106155,0.01668038,-0.01337394,0.00693089,0.14529550,-0.06821754,0.09561784,-0.11452798,-0.08518486,0.14579064,-0.09608053,0.11669292,0.03128404,0.10735025,-0.21136594,0.03469501,-0.04453953,-0.10106274,-0.02992848,0.05270104,0.00672586,0.03103580,0.01221300,-0.07507053,0.15848172,0.09243944,0.18097113,0.10420188,-0.04301361,-0.05590475,-0.09306633,0.04856471,0.01052809,0.03694219,-0.03914683,-0.01052123,0.04666553,0.13539201,-0.04481821,-0.09114729,-0.03109580,-0.07822070,0.13035554,-0.02732113,0.03698087,-0.04727334,0.01940916,0.17975846,-0.05520900,0.03712303,-0.07034174,-0.06475714,-0.06233458,0.02297542,-0.01595704,0.05289499,0.07085037,0.02109278,0.09816325,0.06603335,-0.00721018,0.03937395,-0.05042332,-0.04180473,-0.11303866,-0.09950058,0.09072807,-0.15921046,-0.01587606,0.15427439,0.13886377,-0.06400223,-0.01733252,0.05152947,-0.10975756,-0.11401120,0.03748777,-0.08832052,0.11604384,-0.00539208,0.01898043,0.07586102,-0.07050362,0.06298307,0.01054780,-0.04703767,0.12924811,-0.02032241,-0.09023003,0.18413362,-0.00144002,0.10739385,0.04597111,-0.01449672,-0.06212557,0.04403428,0.00757618,0.07503438,-0.04629976,-0.00204975,0.01732580,-0.07433976,0.04218032,0.09223580,0.12369028,0.05923995,0.00755155,-0.06405064,-0.09194337,0.04737406,-0.08696367,-0.00925147,-0.05536803,-0.00928412,-0.00080201,0.00215111,0.06128859,-0.03944505,-0.09765969,-0.13684554,0.05030313,-0.07294548,0.00130783,-0.02031471,-0.07742221,0.03158148,-0.22426878,0.09510188,-0.00981519,-0.04014119,-0.06808883,-0.14702569,0.12311018,-0.06584731,-0.04625581,-0.02058138,-0.01494906,0.07437320,0.01127432,0.06803802,0.14179154,0.14945838,0.00341780,0.02090587,-0.09337674,0.01954893,0.01738976,-0.01713307,-0.08750033,0.03242893,0.06133173,0.06342942,-0.01172374,-0.05761447,0.02435735,-0.03421795,-0.06955010,-0.05238967,0.04733112,-0.12767750,0.01096634,0.00664363,-0.15667231,-0.08114342,0.00702523,0.06123275,0.07401727,0.00108103,0.03122259,0.01799903,0.05046073,-0.03355358,0.05574103,0.15720427,0.01582863,0.13322835,0.03419184,0.09861076,0.02020774,-0.15970145,0.25139448,0.05406446,-0.02458894,-0.05546723,0.07459003,0.02166990,-0.07288667,0.10049038,0.00441270,-0.15541960,-0.02389024,0.00717775,-0.05083814,0.02520945,-0.09265791,-0.08255444,0.02934187,-0.03226896,-0.01544504,0.02052591,-0.02342852,0.01558663,0.06467765,0.11992310,-0.08546513,0.00194829,0.05198732,0.06579849,-0.11496251,-0.02648578,-0.15388937,0.10943092,-0.02510088,-0.05201487,-0.16336304,-0.03495110,-0.11865295,-0.05030767,0.10288174,-0.08185314,-0.12848844,0.01029695,-0.05109096,-0.01485803,-0.03069223,-0.05307017,0.08006416,0.12866180,0.10185941,0.05676421,-0.01885526,-0.17657904,-0.09398976,-0.03398212,-0.04455745,-0.00095216,0.02925701,-0.10402247,0.10422305,0.03893241,-0.15282300,-0.14677042,-0.11107222,-0.07174780,-0.07788943,-0.05142703,0.00876536,0.06456321,0.03479958,-0.03900985,0.01644586,0.11676265,0.01670921,0.09111129,-0.16963702,-0.08095712,-0.01078523,0.21640261,-0.01996109,-0.09257213,-0.06433173,0.02959717,0.06922176,0.03251385,-0.08272922,-0.09391052,0.07889924,-0.02754945,0.01421362,-0.17184247,-0.00638037,0.06636715,0.00570381,-0.11117229,-0.03253822,-0.01877866,-0.06805199,0.03762556,-0.17748474,-0.02023946,-0.05970606,-0.02200019,0.06300146,-0.01620065,0.05473934,0.16742709,0.04794760,-0.07516202,0.04473522,0.04304273,0.14009589,-0.03879071,0.02624382,0.00818040,-0.09484464,-0.07827014,-0.13146724,0.05023904,0.14391591,0.00496660,-0.10021047,-0.12051060,-0.01231799,-0.03565325,-0.02793170,0.00397507,-0.10430813,0.03871011,0.00380152,0.04497955,0.09755512,0.15174256,-0.12525837,0.07223748,0.12510288,0.07066736,0.12564406,0.02683662,0.00298132,-0.12299273,0.14249206,0.07978284,0.09791619,0.11353381,-0.06281111,-0.05517576,-0.00186295,-0.03096189,-0.00415997,-0.13810228,-0.02518211,0.02689102,0.04601972,-0.12525190,-0.13671577,0.01058958,-0.08313072,0.01779306,0.00123692,0.09032709,0.04587946,0.05034881,0.04845215,-0.02096858,0.08118605,0.07649260,0.01150936,-0.09686141,0.05773380,-0.14437865,0.14147399,0.06644904,0.00565724,-0.03250213,0.16131024,0.09008577,0.08426981,-0.10797010,-0.20039755,-0.04476456,-0.06430883,-0.02620792,0.08657698,-0.04003016,0.13094379,0.19770031,-0.08132899,0.06698281,-0.00720206,-0.10065241,-0.18718211,-0.04151233,-0.10981828,0.06173206,-0.01612511,0.07822208,-0.11930668,0.08322354,-0.00417095,-0.08306953,0.02846042,-0.02874212,0.01062603,0.13718472,-0.02866537,-0.01179539,0.02844462,-0.11735628,0.02029759,0.05221357,0.06793232,-0.15608899,0.01685026,0.08089567,-0.12553057,-0.07635185,0.07698306,0.06875908,-0.11356792,-0.11148469,0.08204666,0.02988504,-0.09811698,0.03065619,0.05747857,-0.12096187,0.03602557,-0.26366860,0.08510420,-0.10371494,-0.06601144,0.05934344,-0.28736529,0.12038953,0.09147628,0.01146891,0.05571229,0.02513495,-0.00477319,0.03261966,-0.00055101,0.14996453,-0.02074854,0.03153858,-0.00919504,-0.00794906,-0.06012795,0.10814973,-0.01873279,-0.06348239,-0.02098884,0.02575038,-0.16332215,0.03011686,-0.07356495,0.00560304,-0.08072794,-0.15649590,0.05716315,-0.05242771,0.11459676,-0.00007665,-0.03292255,0.02338652,0.05556912,-0.10852385,0.14302114,-0.07187165,-0.23346235,-0.16463609,-0.00953641,-0.17356785,0.04560478,-0.16682164,0.07257512,-0.05209012,-0.06797770,-0.05519877,0.13124128,0.04137622,0.07368375,0.06114086,0.12476357,0.10955605,0.21114351,-0.05747191,-0.01690113,-0.07793821,-0.17110050,-0.02222663,0.08861223,0.04038159,-0.05216213,-0.21156929,-0.05912873,0.01896656,-0.06940599,0.04882371,-0.21265499,-0.05317103,0.11062970,-0.05836647,-0.10886672,-0.12909406,0.16558088,-0.08304173,-0.14627451,-0.15049560,-0.09590369,0.10719252,-0.03521352,-0.19410452,-0.11931334,-0.03798496,-0.22025275,-0.12439777,0.06603289,0.05459028,0.12769015,-0.08057214,0.03909179,0.16588350,0.01056248,-0.02003774,0.05156577,-0.19012506,0.02708444,-0.03953066,-0.06837147,0.16313137,-0.07965680,0.02598461,0.01488027,-0.01426468,0.04892359,0.04738203,-0.13284725,-0.05638830,-0.16325195,0.02560298,-0.11624323,-0.09378901,0.05158269,0.01584656,0.00625974,0.12361771,-0.06131773,0.08423970,-0.00046585,-0.05450001,-0.09081477,-0.09125941,-0.02804787,-0.10031471,-0.05373788,-0.04541526,-0.10878146,0.06106047,-0.04156196,0.07336579,-0.17188512,-0.02720857,0.02232141,-0.05506158,-0.13259172,0.02535927,0.20361198,-0.08076505,0.16737811,-0.01402733,0.15472728,-0.01802822,0.20431437,0.14635088,0.13592567,-0.06564740,0.10858641,0.01969586,-0.07259702,0.05638173,0.13481118,0.23439567,-0.00981179,0.14310484,-0.00709871,-0.20054232,-0.10500299,0.09631608,0.02548027,0.02540394,-0.15550117,-0.15930651,-0.05333909,-0.06331325,-0.10735582,0.12883587,-0.06697103,0.01513523,0.08620628,0.06434093,-0.01731328,0.09542182,0.02593897,0.00498896,0.05250634,-0.03424478,0.02864212,0.06256285,0.04614177,0.11131652,0.06940665,0.09874527,0.07649381,-0.07627312,0.03227286,-0.03864707,-0.04628650,-0.06005535,0.16265410,0.03521375,0.03509579,-0.06768376,0.11073488,0.03568245,-0.10797287,-0.01030913,-0.07946362,-0.12456638,-0.01406196,0.01149207,0.00022936,-0.00390256,0.06060433,0.01142950,0.12362171,0.11045416,0.01662499,0.10560698,0.06151162,-0.17458282,0.07947905,0.05376999,0.10048658,0.13041203,0.08374853,0.02314905,0.06170171,-0.00965761,0.08626214,-0.10492367,0.06324523,0.01193670,0.07064404,-0.11608184,0.00026740,-0.14482963,0.01915478,0.04072591,0.10874794,0.11508351,0.04886165,-0.03109458,-0.18538254,0.05696630,-0.16453965,0.00868970,-0.10365351,-0.00149310,-0.08991150,0.07397384,-0.00093931,0.08875551,-0.02971010,0.09009202,-0.07112215,0.04769766,-0.00121241,-0.18438235,0.08750847,0.08713006,0.10920365,0.04291627,-0.22388572,-0.00126636,0.02019480,0.05699242,-0.19163586,0.07860003,0.00695848,0.08646028,-0.15008713,-0.02700019,-0.01294038,0.24860424,-0.09060317,-0.14792204,0.08462220,0.07129239,-0.01157668,-0.03661359,-0.01507729,0.00016995,0.14091443,-0.03419617,0.00242694,-0.03003426,0.09180804,-0.23192295,-0.05909894,-0.05738653,0.14123447,-0.04194887,0.12327243,0.01934976,0.10487898,0.05037635,-0.01243702,-0.14322105,0.05619497,-0.10586422,-0.00310560,0.18172415,0.16526251,0.06841176,-0.01180383,0.07437525,-0.00978124,-0.04558980,-0.15872255,0.04794033,-0.05967546,-0.22128238,0.00383061,-0.03302742,0.05204847,-0.02657618,0.02372039,0.06637085,0.09967691,-0.13655752,-0.02613914,0.07077684,-0.10186085,-0.11361002,0.02860748,-0.00013299,0.05321541,-0.10105716,0.02283714,-0.09622978,0.10116754,-0.00011834,-0.08561832,0.01342686,0.06952365,0.00130120,0.07720629,-0.05776934,0.06263744,0.07407084,0.06946553,-0.01867728,0.03385823,-0.12388685,-0.03138842,-0.05836636,0.02133833,-0.08295695,-0.04862278,0.05989018,-0.11463360,-0.19544630,-0.18671466,0.02954177,0.04491569,0.01230314,0.01359906,-0.17467822,0.05387245,-0.04075475,0.15948941,-0.01888305,0.04707934,0.17190939,0.05228270,-0.05280203,0.04241323,0.00297005,-0.13375600,0.02970806,0.04273719,-0.01446971,0.10401465,-0.02269212,0.06354250,0.10208760,0.08042251,0.08513879,-0.08611816,0.10094473,-0.03471933,-0.00315348,-0.08845942,0.00322483,-0.12788147,-0.03939515,-0.16218226,-0.03420177,-0.04522859,0.08349762,0.08673295,-0.03819657,0.10435763,-0.06849939,0.00575759,-0.02583497,0.05173175,-0.08459789,0.01308613,-0.04747968,-0.12751301,0.06078460,0.18477878,-0.05136825,-0.01238560,-0.04405314,-0.14291807,0.06676557,-0.07780757,0.00630902,-0.02514710,-0.06857163,-0.02345030,0.10452104,0.08364578,0.14326851,0.03362794,0.01893195,-0.09226805,-0.13638291,-0.03077218,0.02717426,0.04482924,-0.18169883,0.13933456,0.00575169,0.14972320,0.01557647,0.05642686,-0.02835547,0.00940234,-0.13109805,0.01153082,0.04391551,0.15043484,0.02446292,0.02874956,-0.17081571,0.08873872,-0.07300532,0.06965022,0.09082565,0.10130859,0.18999021,-0.04127318,0.01742200,0.14687808,-0.19069523,0.11443570,-0.06711087,-0.03443222,-0.15781915,-0.20420204,0.18027546,-0.11983594,0.03504584,0.05179223,-0.12206680,-0.13856602,0.04358328,0.16254658,0.02675283,0.05524802,0.07471047,-0.13742858,0.01589773,-0.06720981,0.04311395,-0.01846397,-0.12993719,-0.05296452,-0.17678601,0.09980794,-0.08141092,0.15589865,-0.10525461,0.10883834,0.07480648,0.08922139,0.12310293,-0.16063502,0.01243373,0.02862692,0.07985328,-0.01650235,-0.06804911,0.01885765,0.10906277,0.08961585,0.06117361,0.05914072,0.09674701,0.10453507,0.04360741,0.02317508,-0.01076091,0.10640212,-0.07118579,-0.12004229,-0.12890540,-0.04451366,-0.00357910,-0.09235346,0.05048328,-0.05648877,-0.00406284,0.18346366,-0.11775437,0.09122172,-0.08055469,-0.05197651,0.12716696,-0.00107825,-0.03060252,-0.01383829,-0.01191896,0.06328337,-0.01917081,-0.07420602,0.04720332,-0.06904201,0.08936864,-0.03193531,-0.08377215,0.00386202,0.06857888,-0.01905280,0.01149690,0.13669455,-0.01414499,0.05298861,-0.10821476,0.10403532,-0.10523937,0.16711490,-0.13955885,-0.02113291,-0.16899016,0.04238430,-0.11014837,0.03788646,0.03205077,0.00275353,0.03111805,-0.01961652,-0.00925422,-0.13299675,-0.11109577,0.04380708,-0.12112734,-0.04297626,-0.05855115,0.00512109,0.00225117,-0.00025061,-0.12248972,-0.04916877,0.14104065,-0.04053499,-0.03662959,0.10095856,-0.02360726,-0.07260104,0.05543350,-0.16242066,-0.07848236,0.25671971,-0.08844579,-0.11493040,0.03874994,0.03672327,-0.02065935,-0.10259415,0.17213167,-0.07305294,0.00899121,-0.06768522,0.19057877,0.04569356,0.07761972,-0.02603040,-0.19439211,-0.01262694,0.04007258,0.07186392,0.14896800,0.05993543,0.13113655,-0.03548006,-0.16333500,0.04382161,0.12166484,0.05854102,-0.08323128,-0.06583499,-0.05078598,0.00304509,-0.03616579,-0.09221722,-0.04665983,-0.16719675,-0.15391350,0.02713023,0.04617661,-0.03868106,-0.08668846,0.06854052,-0.08671042,0.00748615,-0.00848213,-0.06742980,-0.05852248,-0.06470918,-0.01356599,-0.18042766,0.09016231,-0.05553369,0.04881402,-0.07291812,0.06687488,0.04659565,0.09684866,-0.02536141,0.09632240,0.10558259,-0.04402245,0.07538007,-0.12555932,0.21186879,0.18460956,-0.01237578,-0.13687968,0.10729174,-0.04207147,-0.01839953,-0.06148712,0.00314339,0.02019271,0.10743201,-0.01634192,-0.06732550,0.01445494,-0.08394770,-0.06478456,0.06640326,0.01920376,0.03387560,0.06341682,-0.04887031,-0.05845813,-0.03256569,0.05850160,0.00485855,0.06417863,-0.11975189,0.01533326,0.03090401,0.04483059,-0.18283331,0.08899529,0.01770347,-0.22225931,0.11093693,-0.01126397,-0.11264428,-0.00994304,0.06372322,0.17509466,-0.09744469,0.02171835,0.06008398,0.04262359,0.03224815,0.07844546,-0.06819995,-0.04093327,0.13942294,0.22098796,-0.15901592,-0.03751644,-0.08325365,-0.02257399,0.10417880,0.06320255,-0.05721998,-0.07906896,0.10900757,0.11759654,-0.09233532,-0.07521877,0.14053559,-0.13353974,-0.09507934,0.08221323,0.05633524,-0.00271501,-0.09259099,-0.13266040,-0.17619166,-0.01179759,0.04032293,0.04551827,0.07342354,0.05383789,0.00570350,-0.10590181,0.04476787,0.07981016,0.06212467,0.10018897,-0.07972898,0.02550222,0.13647850,0.09782559,-0.01051437,-0.12374029,0.03310385,-0.09330177,0.12958059,0.10920011,0.03355905,-0.14565895,0.05479003,0.02482496,0.06002199,0.05909134,-0.02061801,0.05603866,-0.02069754,0.03186774,0.13533704,-0.09401625,-0.07870831,0.07581779,0.10634478,0.12214465,0.11905368,0.05648109,0.25396684,0.20322379,0.14999701,-0.19093154,0.15826431,-0.03809145,-0.12582749,0.09949561,0.02852935,0.07373979,0.13005406,-0.04310569,0.11369321,-0.09321345,0.06819823,0.04126020,0.06681488,0.07631253,0.09975271,0.05536393,-0.08501705,0.04489769,-0.00594372,-0.03538159,-0.07417658,0.04517313,0.08063591,-0.07151370,-0.08662945,0.00406025,0.13414046,0.04297988,0.09316082,-0.01421415,-0.01899185,0.08711021,-0.02308893,-0.06278400,0.00773410,-0.07426258,-0.05286963,0.03473018,0.12334334,0.04875147,-0.06053219,0.13952629,0.13023369,-0.08726548,-0.06066341,0.06581464,0.07922012,0.01690746,0.05858329,-0.13302924,0.13120160,0.08051686,-0.13633855,0.12017513,-0.03780960,-0.07573827,-0.01122894,-0.01420700,-0.01913533,-0.04413179,-0.01656400,-0.11877531,-0.06731150,0.01278424,-0.09894209,-0.05300935,-0.07959612,-0.12917046,0.10247269,0.03218513,-0.08077219,0.03082866,0.02869597,-0.01433685,-0.00075176,0.16000813,-0.02540878,-0.09591752,-0.07816064,-0.13733248,0.06487013,0.11577451,0.00141625,0.02226235,-0.17916369,0.01879984,0.02921024,0.06627846,0.03287435,-0.01816808,0.06024598,-0.11933021,-0.02537207,-0.05194646,-0.08056711,-0.07806096,0.03460509,-0.06988426,0.10427524,0.13130328,-0.12318491,0.13240869,0.11363163,0.01856578,0.11657345,-0.01430852,0.09287502,0.16015834,0.03532870,0.01838251,0.03955397,-0.03029069,-0.00506470,-0.05722794,0.01299769,-0.12458136,0.08624732,0.00930830,-0.08511133,0.02872286,0.03883285,-0.10326614,-0.03914674,-0.07817679,0.03238601,-0.02973888,0.11150488,-0.12275342,-0.03073081,0.00561433,0.03672156,-0.09778278,0.09269585,-0.01063189,0.04401254,0.01519866,0.02152468,-0.09368341,-0.03287417,0.07026146,0.03434062,0.11231685,0.03866019,0.00203123,-0.13215689,0.03394840,-0.00859073,-0.08261090,-0.06768223,0.16712908,-0.03661200,-0.09227062,0.07306489,0.00214929,-0.08001205,0.10886490,-0.01677827,0.03637968,-0.12483534,0.01338536,-0.02838446,-0.01312190,-0.01649550,-0.11548001,0.00708590,0.14709254,0.01776504,0.04077796,0.09041882,0.19519997,0.04564231,0.07894124,0.03481500,-0.05567781,-0.05935043,-0.06471933,0.16558519,0.04693650,0.11443581,-0.03180478,0.11768433,-0.00916151,0.01997106,0.03150540,0.06039643,0.11005031,-0.06822681,0.09067162,-0.00195700,0.08658337,-0.08649530,0.00047750,-0.01108564,0.00962109,-0.11822660,0.00413408,-0.00444770,-0.18504427,-0.12702604,-0.06183125,0.19278626,0.10167377,0.03927497,-0.01502911,-0.10734475,0.07052048,0.04645449,0.04824801,0.09651064,0.13800332,0.02234651,0.01862251,0.03639821,0.12446979,-0.04695811,0.06622671,0.05319717,-0.08209281,0.07107791,-0.08361832,0.05191265,-0.06142425,0.03844501,0.01470603,-0.06454935,0.20001423,-0.02327814,-0.00986207,-0.22994532,0.23181158,0.05724350,0.12659697,0.00776138,-0.05174465,0.04809998,0.05438346,0.08567125,0.02147545,0.11936115,0.01346615,0.10126169,-0.01323863,-0.00837885,0.19763727,0.12435147,0.04002307,0.08537493,0.05087266,0.10473767,-0.02496908,-0.08448993,0.11716143,0.04453551,0.00174701,-0.01542239,-0.05749233,-0.04739967,0.11874560,0.00070181,0.08077023,0.01597674,-0.06658717,-0.12074172,0.10297220,0.13682503,0.21887189,-0.03937475,0.13096544,0.01435520,0.09692721,-0.16159838,0.19070402,-0.00906828,0.00670495,0.19378537,0.08857990,-0.03368885,-0.01260242,-0.03610710,0.10393550,0.08268283,0.07278886,0.01415514,-0.07790311,-0.05578697,-0.00058912,0.09089106,0.07351911,-0.15342334,-0.22628863,0.14590412,-0.01089387,0.22555102,-0.03358949,0.08398075,-0.16092139,-0.03057072,-0.03712441,0.06888928,-0.01163919,-0.05180839,0.02732268,0.09701072,-0.12002093,0.05437331,-0.09448764,0.12196983,0.13968588,0.08197491,-0.10216105,-0.09992130,-0.01298345,0.06431078,0.14877960,-0.01510204,0.02037830,-0.03684822,-0.22235394,-0.17014213,0.05295753,-0.10316127,0.02031135,0.15631375,0.10342620,-0.03729654,0.03819379,0.00573236,0.13077937,-0.07936122,-0.18365185,0.02560649,0.12958819,-0.05795414,0.04652654,-0.14861463,0.01422350,-0.10823546,0.03378378,-0.08867759,-0.10184456,0.06036039,-0.08213221,0.00133315,0.08594532,0.13627490,0.11613148,-0.04995604,0.02572574,0.09811515,-0.01552919,0.07921092,0.08798290,-0.08322357,0.05781661,-0.07297281,-0.06232936,-0.09375668,-0.12991439,-0.08876396,-0.02068990,0.20351638,0.10490971,-0.04187867,-0.00325603,0.03894360,-0.12202927,-0.11331692,0.03950007,0.03121415,0.04047055,-0.07273961,-0.02884714,-0.09724480,-0.06289857,-0.09630085,-0.11811782,0.10514982,0.03068396,0.10252018,0.03433717,-0.01023295,0.09007084,-0.02551653,-0.01191615,0.03526132,-0.11268683,0.05270452,-0.03487334,0.01047578,-0.00725588,-0.07385262,-0.11010342,0.16328642,-0.08377472,0.09900767,-0.08362638,-0.00779822,0.17852037,0.06269910,0.02750692,0.01067159,-0.04394818,-0.10161740,-0.15657263,-0.07084762,0.12782365,-0.17633565,0.16352057,0.03340451,0.01236576,0.05583083,-0.06479876,0.02881762,0.04490924,0.06741083,-0.00094773,0.01552424,0.09514058,0.06690376,-0.04807854,0.03415919,-0.09204619,0.07527734,0.06340116,0.06059074,0.01276598,-0.07559767,-0.12823491,0.08201475,0.08455133,0.01322556,-0.14288905,0.03585045,0.05680252,-0.03488261,-0.03069443,-0.09514735,-0.08941761,-0.15093857,-0.06654689,-0.08910432,-0.01680653,-0.03407601,-0.18375945,0.01912848,-0.05392154,-0.08946811,0.09002011,0.11171688,0.12280498,0.04465727,0.04743713,-0.06059588,-0.09823418,-0.02836888,-0.04488129,0.06445614,-0.02995318,0.13821886,-0.00110049,0.03225675,0.12831755,-0.02958437,-0.02297070,0.18397897,-0.06821544,0.00567972,0.03090295,-0.13425399,0.04835109,-0.00809662,0.02571138,-0.19270112,-0.11468610,-0.01320312,0.01306897,-0.03470934,-0.16254121,0.06117787,0.06084367,-0.07532313,0.01915479,-0.01420573,-0.02044668,0.04056595,0.07567506,0.00729960,0.03353367,0.09749902,0.10250884,0.00104233,0.02161419,0.01546456,0.12897739,-0.00995895,-0.07624681,-0.03505243,0.03730185,0.14808536,-0.04661622,0.06557413,-0.03325709,-0.02208229,0.00051823,-0.09151954,0.06084220,0.06465523,-0.19753715,0.04192208,0.04575176,-0.11339876,0.04082527,-0.01354953,-0.12611648,-0.02480471,-0.07795798,-0.03471259,0.07006229,0.03920193,-0.04897862,0.07859001,0.03015586,-0.05062161,0.11866112,-0.03462895,-0.01463253,0.02979988,0.01246287,-0.07328384,0.09284776,0.03035779,0.03589646,-0.06275024,0.03248596,0.06122978,-0.02237313,0.12383524,0.09032364,-0.04440578,-0.17206196,0.07393465,0.01795238,0.12408009,0.02489440,-0.01268579,0.03124100,0.10413643,0.01798551,0.06512267,-0.22464363,-0.00658393,0.04157148,0.08371596,-0.12801754,0.05279160,-0.02945205,-0.09195551,0.07215920,-0.02472497,0.05368085,0.13476992,-0.02782128,0.09926518,0.01159020,0.12016366,-0.00451905,-0.04385110,-0.06013021,0.02273970,0.08680130,0.02954818,-0.04388241,0.05621523,0.08751086,-0.07237323,0.10137118,0.06204877,0.07344223,-0.03859404,0.02537730,-0.05373242,0.16658175,-0.10829104,0.06756488,-0.01812482,-0.05811614,-0.17136307,-0.04216454,-0.06534369,-0.09184141,0.01946670,0.05689926,0.14734571,0.12084807,0.03796546,0.05991983,-0.05008043,-0.00438181,0.01964556,-0.03470981,-0.09436396,0.00657402,-0.04313436,-0.11836844,-0.01969970,0.12035821,0.05443094,-0.05792731,0.02774723,-0.07463872,0.05489067,0.15706638,0.06693910,-0.13769139,0.12739034,-0.11922912,-0.05021775,-0.05921957,0.02994456,0.03528717,-0.05104752,0.00372005,-0.10893010,-0.09678414,0.07154620,0.03687849,0.05850609,-0.10522544,-0.06456512,-0.01816776,-0.05194089,-0.05539784,0.00937020,0.13632111,0.08565490,0.01876603,-0.23786122,-0.05488163,-0.01555960,-0.12575856,0.01880722,0.05384471,-0.08334293,0.08783129,0.01014954,0.02516733,-0.11306679,-0.05233006,0.15433119,-0.10938642,0.12482829,0.00122175,0.05308592,0.03759192,-0.09368634,-0.07041587,-0.02340667,-0.06083231,-0.03328915,0.05402615,-0.00720797,-0.06666085,0.06355453,-0.21622536,-0.14247437,0.03265780,0.15805331,-0.04207335,-0.09769434,-0.00070014,0.04079464,-0.10223812,-0.05075903,-0.05682639,0.03194550,-0.06290249,0.04127171,-0.15082438,0.15423483,-0.07328912,0.22286174,-0.09574450,0.03073769,0.04760448,0.08069216,-0.00588317,-0.07428819,0.11401357,-0.13213985,0.01206656,-0.12906265,-0.06523560,0.00211985,0.01938553,-0.11386358,-0.02224760,-0.04507999,0.05537472,0.09539526,-0.12874278,-0.08497643,-0.06254762,0.11187592,0.06996273,-0.01071635,0.09354506,-0.07837015,-0.11611393,-0.08908054,0.08652196,0.05800123,-0.09708846,-0.00698887,0.07395495,-0.20827346,-0.01806548,0.01286505,-0.00853658,0.19408682,-0.07834235,0.11313823,0.04139625,-0.02177636,-0.08614904,-0.03510622,0.00841311,-0.01705210,0.09235060,0.02986826,0.14586611,-0.02992449,-0.05354974,-0.03969580,-0.17368056,-0.04169865,0.20365390,-0.08702364,-0.04042901,-0.05143102,-0.02941954,-0.12143610,-0.02847449,-0.17052573,0.06915341,0.04258185,0.08053533,0.00642038,-0.04842778,0.17183034,0.03195314,0.07259341,-0.03451452,-0.01798330,0.06318174,-0.00897575,0.02588608,-0.09212048,-0.07101681,-0.04913696,-0.01392324,-0.00748314,0.03237396,0.03507213,-0.07666208,-0.08055127,0.11800987,-0.08818354,-0.02117589,-0.08765142,0.09916127,0.01757249,0.01523253,-0.08699981,0.01740653,0.09117039,-0.14305142,-0.06903845,0.06514764,0.04046640,0.05492275,-0.05485401,0.03110290,-0.09829373,0.07989082,-0.01543852,0.02341090,-0.10603324,0.05233801,0.01913697,-0.07806292,-0.02321200,-0.01032545,0.12229354,0.17634276,-0.04620064,-0.00748695,0.11330523,0.02644376,0.06424336,0.10819323,0.04245421,-0.15894137,0.10600979,0.18566898,-0.09900764,-0.00353517,-0.08462324,-0.06805594,-0.01955706,-0.08944933,-0.06173135,-0.04641532,-0.08199107,0.03105478,0.01054965,-0.01728760,-0.01500665,0.01599935,-0.06123710,0.08554750,0.12833098,0.10483868,0.13421872,-0.06882292,-0.00705737,-0.03650529,-0.00968458,-0.02297932,-0.00511027,-0.06702652,-0.05696727,-0.06602219,0.05343326,0.12756459,-0.20023134,0.05875417,0.06844707,-0.10268144,-0.09699419,0.14927150,0.08735201,-0.05847600,0.02249085,0.15906657,0.16715552,-0.02423737,-0.08226036,-0.05939271,0.01430341,0.06995875,0.14934653,-0.19307625,0.02620597,0.00669990,-0.13064799,0.02037539,-0.18416303,0.09777740,0.15009591,-0.08856731,-0.07863843,0.06285787,-0.00531815,0.02267230,0.03709433,-0.03785800,-0.01374603,0.03550205,-0.04269424,0.06207846,-0.06991688,0.05876242,0.04299570,0.02531372,-0.01768899,0.11600456,0.12394757,-0.06923540,0.07021724,0.11402812,0.09268505,-0.03218015,-0.06217964,0.09805128,-0.03167986,-0.09095194,0.03159690,0.03731205,-0.01914254,0.21509072,0.02320394,-0.06916217,0.04089205,0.15270834,-0.07220250,-0.07462674,-0.05148666,-0.04650407,0.12336777,-0.04337591,-0.10143486,-0.05841186,-0.04533899,0.04408118,-0.16976668,0.02326810,-0.10790996,0.02972434,-0.00272259,0.07751861,-0.14659764,0.02762651,-0.00023902,-0.02600602,0.04929018,0.01892325,-0.02323907,-0.04398817,-0.10293492,0.13300242,0.04241872,0.16007061,-0.06821609,-0.01211385,-0.00774147,0.09910655,-0.03412585,0.05227514,0.07717805,0.03442564,-0.03678234,-0.10988653,0.18008676,-0.05743057,-0.16814850,0.02207522,-0.00432925,0.03240643,-0.05038976,-0.10756131,0.12375385,-0.01970474,0.18704236,-0.04768019,0.14030726,0.05837582,0.04400900,0.19141974,0.05680519,-0.08598067,-0.04801198,-0.20020448,0.05342236,0.04514218,-0.12532167,-0.07728077,0.03547719,0.06238180,-0.09171779,-0.18003559,0.06717464,-0.12541045,-0.12113176,-0.13830993,0.00534925,0.17394353,0.02800877,-0.04393962,0.05524962,0.07248329,-0.08921508,-0.02489060,0.07445827,-0.06818239,0.01228292,-0.06339946,-0.17787184,-0.05018790,-0.01863214,-0.05052552,0.08498358,-0.03500380,-0.04529957,0.03638653,-0.00187859,-0.11532571,0.04764557,0.02016418,0.07677296,-0.05117350,0.10429724,-0.35272664,-0.11412231,-0.10076393,0.05520786,-0.01320152,0.00733527,-0.00075485,-0.10826171,0.01361064,-0.05471774,0.05174103,-0.01427754,-0.11302720,0.11414225,0.12239751,-0.05034158,0.12528546,-0.04057417,-0.01279260,0.06593399,0.00375520,0.11762898,-0.00518298,-0.04824728,0.00825136,0.01752283,0.12369105,0.09787728,0.06096123,-0.01916417,-0.06552287,0.19432536,-0.16330348,-0.00507286,0.07635677,-0.00939877,0.07406031,-0.02892537,-0.00226367,-0.06843685,0.02921447,-0.02516443,0.20996237,-0.04121239,-0.07248143,-0.02942763,0.06447769,0.10516806,-0.05342021,-0.02035940,-0.04390377,-0.13168833,0.05388496,0.03011169,-0.00668708,-0.04335491,0.02025679,-0.02919532,0.04693317,-0.03375059,0.02941062,-0.05780365,0.06929668,0.00468061,-0.05040514,-0.18192767,-0.07998377,0.01891611,0.00961150,0.16858055,-0.06017368,0.02904984,-0.16612785,0.00765787,-0.00087347,0.18217395,-0.00561843,-0.15398462,0.00251203,0.01650042,-0.00779460,0.04544206,-0.00075791,-0.02672875,-0.02275956,-0.04089130,-0.17582285,-0.09493028,-0.07793895,0.04818527,-0.11017294,0.02812189,0.01529838,-0.04526956,-0.00023147,-0.08053859,-0.13058761,-0.03970210,-0.08133546,0.01100099,-0.13485822,0.02927946,-0.09220688,0.02072786,0.01881661,-0.05113700,0.07856039,0.05332020,0.00297070,-0.04428061,0.13270007,0.08838823,-0.06421072,0.08190547,0.05412398,0.12761208,-0.17461029,-0.07212398,0.03035820,-0.20262305,-0.09547651,0.01704370,-0.18956733,-0.11320612,0.06864542,-0.07181638,0.01988704,-0.01961398,-0.03710712,0.17337988,0.01673022,-0.07181807,-0.07955205,-0.32645175,-0.09055600,0.03234913,-0.03260547,-0.03253333,0.05091051,0.04290409,-0.08141670,0.06134901,0.14793327,0.01981941,0.01288462,-0.02767137,0.04986194,0.06947405,0.09189826,-0.01940604,0.05307451,0.20140792,0.18376809,0.02598918,0.13297991,-0.15200247,0.07542665,0.00475696,0.04568365,-0.09079085,-0.09404057,0.02278078,-0.07329263,-0.07582504,0.08159672,0.03423199,-0.04817351,-0.16450639,-0.01128352,0.03034134,0.02026414,0.01035724,0.00261718,-0.06880470,0.03759105,0.02160382,0.20232661,0.04959020,0.01894065,0.03073454,0.00259057,0.10373726,0.07139078,0.04677126,-0.05042095,-0.11025088,0.13438135,-0.02826632,-0.04418348,0.04069835,-0.03549930,0.06050538,0.10866248,-0.00444805,0.20317189,-0.15325376,-0.01899294,-0.00666701,-0.19204202,-0.05074799,-0.12815346,0.08984581,0.15815182,-0.10686174,-0.00213932,-0.03708836,-0.03872583,0.17060132,0.04469477,-0.05371170,0.05374678,0.12978415,0.02898534,0.02675445,-0.00350467,-0.12116724,-0.00050397,0.08676049,0.00823141,0.02765613,0.04996091,0.04834886,0.04132254,0.03300261,0.10697952,0.11893066,-0.06426685,0.09244172,0.14844008,0.26702741,-0.09689269,0.02364914,-0.03534727,-0.02654814,0.16674872,-0.05761022,-0.02364595,0.08870669,-0.01340475,-0.07637979,-0.08696840,0.06600652,-0.06110093,0.02833499,-0.00024489,0.02411130,0.16696005,0.02384597,0.09702067,-0.01737484,0.08460633,0.06218737,-0.02470525,-0.06073256,-0.07332622,0.07981116,-0.01318063,0.20109122,-0.01929524,-0.01138035,0.03195423,-0.05223272,0.08797528,0.07891290,0.16107534,0.03196700,-0.03075727,-0.13317469,0.06117545,0.03875734,0.08702134,0.04860207,-0.06960844,0.06181597,0.06566796,-0.00199118,0.05924117,-0.10257131,0.18004039,0.23297308,-0.02201800,-0.01139304,0.01689360,-0.19045377,0.01131403,-0.06153124,0.03534956,0.12501076,-0.12844609,0.03090125,-0.03302711,0.00315107,-0.05308732,-0.02475944,0.10745699,0.08686642,-0.05944094,-0.03147965,-0.06930404,0.12837185,0.03986304,-0.08845825,-0.15668149,-0.00093961,-0.00295129,0.02488435,0.07395786,-0.03415150,-0.07108573,-0.03018084,0.00642320,0.06606418,-0.01467285,-0.00719636,0.04135531,-0.13465336,0.00346983,0.03764001,-0.11929348,-0.13953204,0.07991669,0.12064395,0.05142004,-0.05310930,-0.03781668,0.10446239,-0.01177408,-0.16457392,-0.08179057,0.05948231,-0.00049566,-0.07050683,0.11447790,0.12200594,0.01526462,-0.04712501,0.22376858,-0.01902416,-0.00282163,-0.05345833,-0.12050824,0.09293173,0.00183267,0.00196416,0.04393816,0.03442279,0.02524734,-0.06072331,0.15347630,0.04865247,-0.13797542,0.03555582,-0.06949084,0.03116202,-0.08692642,0.18184841,-0.03831025,-0.02048030,0.01064898,-0.05374138,0.06519115,0.14770265,0.16685204,-0.02045300,-0.15925734,-0.02513773,0.01244923,0.01162643,-0.12172971,-0.00056024,0.05633780,-0.02084468,-0.02117357,-0.14271913,0.06507716,0.05115182,0.20879871,0.00892675,0.07857216,-0.16543686,-0.00879021,-0.04266022,0.03072786,0.09239820,0.00959116,-0.06257249,0.04267597,0.08414467,-0.19661094,-0.08091175,-0.01659396,0.00732470,-0.06736454,-0.00767407,0.06094687,0.12015686,0.03966823,0.00263588,-0.15708682,0.03474997,-0.02010218,0.05370348,0.14120647,-0.03247631,-0.03358037,0.12710692,0.09565320,-0.01059536,-0.02127280,0.02734315,0.05093545,0.03270187,-0.03475185,-0.06610633,0.10042810,0.22171573,0.18124069,0.13586716,-0.08508884,0.15228978,0.05802543,0.00260136,-0.00104111,-0.09784736,0.12057306,0.07642869,-0.00881819,0.05915613,-0.07282463,-0.03281149,-0.17645906,0.03443424,-0.20608534,-0.07557791,0.10531484,0.07315458,-0.12718229,0.03679484,-0.01675277,-0.11245893,-0.00123383,-0.05971566,-0.05545625,-0.04201626,0.04479064,-0.05418371,-0.06081549,-0.04922933,0.00560588,0.03711135,0.14480369,0.04398233,0.03811888,0.06342782,-0.06961900,-0.06363251,-0.16263309,0.04606174,-0.02066488,-0.10630973,-0.02231108,0.05679353,-0.14688830,-0.10968643,0.01577095,-0.04604394,-0.04430457,0.10169062,0.03904434,0.02043666,0.09025706,0.05252606,-0.01474394,0.09686139,0.07653160,0.06251449,0.08363066,0.02214626,0.08174028,-0.09714648,0.09448198,-0.01708593,0.19923468,-0.05397112,-0.04727314,-0.02199855,0.06476535,-0.04719999,0.00219862,-0.06069086,-0.02650641,-0.10727978,-0.08824655,0.02059122,0.06575012,0.00196646,0.01660220,-0.06571963,0.05236823,-0.01938415,-0.04606321,0.01724232,0.18233721,-0.03842063,-0.01779043,-0.00668563,-0.05613940,-0.08170286,0.07094436,-0.10657284,0.14689542,-0.07384517,0.03462249,0.00606614,0.07731008,0.04307167,0.05237330,-0.15738954,0.09515423,-0.00546837,-0.14296581,-0.00943854,-0.00459717,-0.10547771,0.05798083,0.04001960,0.07805078,-0.08357745,-0.12774277,0.10649711,-0.06842373,0.10301263,-0.00369855,0.06274913,-0.03580013,0.01180242,0.02097275,-0.04500398,-0.00848259,0.09514088,-0.10298524,-0.01628481,0.05120043,-0.05762053,-0.14023237,-0.05171105,-0.02934044,0.04162566,0.04677802,0.04244951,0.05084920,0.10462742,0.06085692,-0.05119894,-0.00818888,-0.01585391,0.13478145,-0.08378947,0.04710892,0.06360210,0.05121036,0.00580942,-0.00509326,0.05085867,-0.06474606,-0.10821983,0.14763238,0.03829580,0.13287687,0.08267140,0.01078731,0.02768928,0.14867625,-0.04971774,0.14545055,0.09496676,-0.02364406,-0.02515094,-0.02699010,0.10359257,0.16969277,-0.19597103,-0.04557066,-0.02306173,0.05304585,0.04717688,0.10328079,0.06770830,-0.03824770,0.00915198,-0.00750971,0.03173202,-0.10169563,0.07067847,-0.09206478,0.02426744,0.18851794,0.04746807,-0.06402649,0.01334299,0.01794496,0.00584548,-0.06664327,0.16395915,0.05266524,-0.08339897,0.08875099,0.11141500,-0.11546758,0.07240646,0.01451661,0.12606236,-0.02358897,0.00631107,-0.10398588,0.02610719,-0.05353520,0.07188089,0.11062884,0.13151364,0.05183653,-0.06130970,-0.14171490,0.05118611,-0.01954523,-0.13622484,-0.10467864,-0.03729299,0.10457426,0.06193530,0.10247179,-0.21742707,-0.12456577,0.03894604,-0.05798918,-0.04369828,0.00728868,0.08398216,-0.15300640,0.01138469,0.00699179,0.10641581,0.02530069,-0.14156517,0.03921449,0.02667378,-0.17069876,-0.07488640,0.02253228,-0.08575165,-0.11423125,0.07207432,-0.05115477,-0.03822542,0.09951968,-0.10923302,0.02338718,-0.10123007,-0.00868146,-0.08551966,0.06934457,0.02585665,-0.03408585,0.15098193,0.16023067,-0.06030181,-0.08447938,-0.05005137,0.03369251,-0.03042987,-0.07721364,0.00506679,0.07334794,-0.16585097,-0.01034563,0.07609725,0.00104937,-0.22345765,0.00709940,-0.02078876,-0.07718711,-0.10242303,-0.02080018,-0.05741496,-0.11131680,-0.03673477,-0.06230449,-0.04937191,0.01170662,-0.06686182,0.01524686,0.18922234,0.08346648,0.07670828,-0.10518162,-0.05282128,0.05219971,0.05848643,-0.05360492,-0.02175661,0.00599768,0.00507610,0.07331327,0.12362581,0.08215610,-0.16662915,-0.03474310,0.16664925,-0.08729793,0.01817062,-0.05557617,0.04399589,-0.02720769,0.04620228,-0.10327569,-0.15475555,-0.00510984,0.03522350,0.13005258,-0.07977524,-0.04688393,0.01065071,0.11388683,0.12758602,0.09259205,-0.21826321,0.04910055,-0.12145796,0.11747089,-0.02433337,0.15677218,-0.01683359,-0.00561084,-0.11099677,-0.11943597,-0.06334808,-0.17362563,-0.08834906,0.10156442,0.09830923,0.00886085,-0.04255276,-0.06719530,-0.00284672,0.03389718,-0.07889578,-0.03078037,0.09652710,-0.12603760,-0.12703641,-0.12390313,-0.06118310,0.10925093,-0.07977688,0.08958187,0.15860227,-0.00377200,0.07138079,-0.12361542,0.03059359,-0.01737922,0.01703598,-0.14366566,-0.00096458,-0.10216919,0.10016522,-0.08765572,0.01692895,-0.04357743,-0.01886726,-0.15710858,-0.01985632,-0.04913411,0.04683703,0.08241260,0.00765414,0.01554818,0.03484863,-0.00316892,0.03569068,-0.02559206,0.00078620,0.05218496,-0.18767820,0.17983194,0.02034326,0.09342197,0.03331197,-0.03014744,-0.03163092,0.09810989,-0.01876126,0.04188533,-0.05041113,-0.08061677,0.10457025,-0.11971085,0.09699065,0.03372104,-0.19831687,0.10492393,-0.02207855,-0.02150472,0.02257128,-0.11268986,-0.10697682,-0.09390035,0.01403491,0.06020563,0.15025575,0.06795347,-0.14055556,-0.12268335,-0.01146556,-0.01078102,0.03064231,-0.12312930,-0.07974258,-0.07633351,-0.06154559,-0.14171059,-0.09504351,-0.11349996,-0.12612602,0.06176246,0.10642861,0.00157128,0.05700482,-0.01312329,-0.04657320,-0.06578025,-0.07653448,-0.01699083,0.04145103,0.00233249,-0.00829215,0.05758864,0.05327847,0.02425654,0.05791179,-0.09545517,-0.05963437,0.02790362,0.05583379,-0.00127927,-0.04123346,-0.03271130,-0.01778451,-0.17752638,-0.13523978,0.20065193,-0.03253779,0.05225039,-0.08121520,-0.01173142,0.11437362,0.13690640,-0.13771248,0.04020339,0.00047169,-0.14260499,-0.01288316,-0.13803877,0.02823083,0.00346689,0.00023907,0.02006421,0.17557842,-0.06369504,-0.03115943,0.08423764,0.08538948,-0.01701941,-0.09470911,0.02230888,-0.06501485,-0.02535342,0.06932953,-0.01760703,-0.05661977,-0.03566460,-0.00843013,0.05309092,-0.08812188,0.11659642,-0.12111185,0.08780287,-0.05741730,0.11691397,-0.12131837,-0.08088209,0.12099451,0.02138930,-0.01410631,0.02552853,-0.00567463,-0.01708286,0.15434721,0.05434500,0.16605589,0.06000485,-0.00485593,0.15812007,0.06868564,-0.05172070,0.11239130,0.07714082,0.13383472,0.02004016,-0.09008988,-0.12096422,-0.14314464,-0.04678532,-0.05220125,-0.08561580,-0.08343380,-0.08813783,-0.00057976,-0.03186476,0.08380537,-0.13647546,0.00716950,0.05547319,0.10791823,-0.14600509,-0.09939715,-0.04642441,-0.00860667,-0.00138829,0.05045513,-0.09322942,0.11108241,0.07201720,-0.08750891,0.09359171,-0.06740380,0.02987462,-0.00445541,0.03935373,-0.02634100,0.05675798,-0.04007218,0.05519768,0.15066783,0.03653638,-0.11655720,0.04438667,-0.07156640,-0.14046618,0.05705298,0.05978764,0.06705876,-0.17920753,-0.00203596,0.01602816,-0.09002619,0.11494768,-0.06359250,-0.15913472,-0.18204315,0.06933381,-0.02420755,0.01292848,-0.08706264,-0.03860902,0.00473165,-0.06410380,0.06004973,-0.14908127,-0.01704747,-0.00150829,0.03555592,0.01395664,0.08917209,-0.04570041,-0.09405217,0.03938114,-0.04937454,0.04461819,0.16730517,-0.13375594,0.00155596,0.04730294,-0.03305202,0.00697108,0.04116185,-0.06881712,0.04435203,0.08467351,-0.07225786,0.20007001,-0.05095164,-0.14903983,-0.02692644,0.05825081,0.10151465,-0.02634802,-0.00155815,-0.04065372,0.13385826,0.13315159,0.08155300,0.09493123,0.02237306,0.06630222,0.09471055,0.08034882,-0.20992012,-0.09928308,0.00287388,0.09347773,0.04792579,0.19024682,-0.00067916,-0.00170883,0.03488721,-0.00073489,-0.00555108,-0.02864480,-0.13509586,0.12287686,-0.05199784,-0.05593141,0.06937413,0.05106567,-0.08222328,-0.09405389,-0.01651746,0.01678572,0.09390967,0.02768438,0.00994911,0.07996763,-0.11516403,0.03307047,-0.00814749,0.06712773,0.16795963,-0.00840585,0.09459023,0.21736933,-0.05258626,0.05219298,-0.08490186,-0.12080172,-0.00562912,-0.14192730,0.03518823,-0.00534547,-0.07380284,0.03818634,0.15831964,0.11714794,-0.03802963,0.01215306,0.09514223,-0.02056714,0.07942522,0.14616323,-0.14413719,-0.02678997,0.01655557,-0.12042928,-0.07590255,-0.01236585,0.12109721,0.26976672,-0.04350095,0.22860880,-0.16459613,0.05749249,-0.16726485,0.11414068,0.07809149,-0.10561230,0.03000981,0.00360844,-0.05022013,0.11852905,0.01722233,0.05873445,0.04723407,-0.13119222,0.04548135,-0.06815591,0.05665371,-0.05435142,0.06636479,-0.00025450,-0.02977263,0.10502615,-0.08428713,0.13414955,-0.10331974,0.00977573,-0.00662564,-0.03330494,0.09062266,-0.06807892,0.11616000,-0.01989073,0.05516580,0.05961570,-0.01828003,-0.01418143,0.05265358,0.01249573,0.00058213,-0.15422601,0.02536141,-0.10112690,-0.09225927,0.05331697,0.03853122,0.06424808,0.12990999,-0.00570476,-0.03014211,0.08791070,-0.02191964,0.01763306,-0.02297918,-0.04144081,-0.08963646,0.01819259,-0.03644513,-0.16284481,-0.04247620,-0.06293606,-0.11282936,-0.05769371,-0.03897573,0.01795016,0.08953612,0.13015559,-0.04620508,0.10784747,-0.15011865,0.07247178,0.06657843,0.01202121,-0.06357338,-0.04196536,-0.01243677,0.03610846,0.01516832,-0.00998351,-0.04268846,-0.06893404,-0.03000809,-0.01624840,-0.06976508,0.12093201,-0.08931484,0.03532009,0.20029438,-0.17686477,-0.01064320,-0.08321402,0.06855250,0.05015315,0.04407696,0.10405400,-0.00929347,-0.01764839,-0.06387959,-0.01560936,-0.20654286,0.19876321,-0.11335010,-0.03205840,0.20537694,-0.03825783,-0.03281339,0.00182306,-0.13322683,0.00212320,0.13694932,0.07652351,0.15673923,-0.04264078,-0.12691879,-0.06873416,0.14148167,-0.01123763,-0.01766552,0.02783637,0.07212674,-0.02259421,0.07116394,0.16168137,0.13868594,-0.00013190,-0.00533536,0.05471611,0.20167966,-0.05783832,0.16588371,0.11716131,0.04933195,0.03294128,0.02007864,0.00318828,-0.14970294,-0.10776869,0.11550983,-0.04508360,0.13794222,0.01370202,-0.05063437,-0.12822171,0.04140827,-0.08610187,0.06833604,-0.04636537,0.02086222,0.16756870,0.12972923,-0.04743672,-0.01256044,-0.10864913,0.13032989,-0.15409586,0.05623671,-0.01498654,0.24418412,-0.12502900,-0.01391242,-0.07987844,-0.03811453,0.10041440,0.01898054,-0.10486779,-0.20080520,-0.07152762,-0.11361119,0.02157354,0.03270240,-0.08789743,-0.06201689,-0.13354802,-0.06448288,0.14182301,0.07864891,0.10766491,0.09502559,0.21647304,0.16646205,0.18210422,-0.04249980,0.06221651,0.01735586,0.07347544,-0.09621535,-0.04162956,0.00467521,-0.01495037,-0.02665054,-0.13437890,0.05682581,0.01551695,0.12109038,0.16040871,0.13197353,0.00910079,-0.02984474,0.04345274,-0.07910062,0.12018701,0.06250142,-0.10531351,-0.01827771,-0.01083435,-0.07547877,-0.17433812,0.04587661,-0.00949610,0.08100022,-0.00872345,0.04600739,-0.02864896,-0.04397346,-0.05289240,-0.08697856,-0.02085550,-0.04079635,0.14684395,-0.09215821,0.08435398,-0.12838747,0.11420903,0.09920603,0.04538727,0.11478581,-0.07467098,-0.07302868,0.06401566,-0.05071291,-0.01012357,-0.01048239,-0.00890346,-0.03554928,0.07197654,-0.03530754,0.02208281,0.00526595,0.14784758,-0.02102116,-0.04555763,0.06919692,0.05934026,0.14420202,0.10480798,-0.15756083,-0.13581552,-0.01587342,0.04380905,0.04785444,-0.12712795,0.07679159,-0.06314042,-0.03496240,0.01697697,0.09464262,-0.05405417,-0.01105908,0.17522186,-0.07820406,-0.01287271,0.02653669,0.04728839,0.07919229,0.04155793,0.02320719,-0.04023892,-0.16540557,0.14405309,-0.17938195,-0.02820121,0.00608907,-0.07245141,0.18339770,-0.10919771,-0.13218391,0.00765911,0.11795792,0.02611677,0.05316583,-0.04179459,0.11595792,0.00425086,0.18530723,-0.00959948,-0.17848052,0.13344622,0.00566302,0.13937294,0.15155464,-0.07405691,0.09609470,0.04777658,-0.15226194,-0.09025682,0.06217713,0.03148180,-0.06171243,0.06545028,0.15938887,-0.05746812,-0.03949155,0.04115233,0.13603304,0.09102562,0.10734145,0.01657845,0.05806863,0.01416739,0.05810496,-0.05892189,-0.06825277,-0.24051000,0.06790617,0.05687398,0.02526440,0.00683208,0.06860645,-0.12645578,0.03217795,-0.06701605,-0.08362082,-0.03173606,0.09816161,0.00111330,0.25056010,0.05095866,-0.04019804,-0.05035411,0.12646021,-0.08556433,0.05332860,-0.00935312,-0.04141538,0.09477406,0.07529256,-0.12318065,0.05623506,0.03195927,0.03784792,-0.01619088,-0.09439965,0.03303404,0.12479359,0.13057326,0.10304153,-0.21746580,-0.02241021,-0.04189848,-0.09900453,0.06754546,-0.11659572,0.04279266,-0.04600492,0.04838999,0.06550666,-0.06790632,0.04188249,0.02220702,-0.08093628,0.10140170,0.12063698,0.04123570,-0.04116961,0.01592274,-0.01297272,0.01045811,-0.04449976,0.01564630,-0.08912800,0.12493840,0.17241210,-0.10181224,-0.10059751,0.01355731,-0.00804394,-0.05443846,0.10320837,0.06278978,-0.00485736,0.17890407,0.00233216,0.08260968,-0.00404918,0.00801519,0.02938835,-0.10334340,0.13430756,0.05014248,0.06918052,0.07264282,0.02035709,0.06371859,0.07393257,-0.00619745,-0.05592740,-0.18830931,0.02060941,0.07712112,-0.02211503,-0.04724537,0.01242812,-0.00410834,-0.01091543,-0.11763506,-0.13823771,-0.08003914,0.01147133,0.04427302,0.00133112,0.00753774,-0.02431651,-0.06248729,0.06939041,-0.15235136,0.03585554,-0.09175339,0.06468745,0.08009167,0.08659055,0.06318548,0.11251925,0.03608061,-0.04225315,-0.10917531,0.16863677,0.02998707,-0.19799118,-0.03093144,-0.06168034,0.01305291,0.00214926,-0.20614453,0.13984346,0.05290147,-0.11730386,0.06011569,0.11376154,0.02786996,0.11056861,0.15842116,0.01489302,0.07404874,-0.12194818,-0.26727578,0.21188481,-0.01791448,-0.01922279,-0.07506614,0.02468920,0.12555945,0.03375699,0.00757385,0.01199214,-0.13980840,-0.08285494,0.20921420,-0.16597576,0.02006403,0.05030075,-0.04886485,-0.07635593,-0.12588876,-0.08602445,0.02583867,0.07673857,0.01598398,0.01398153,0.02140436,-0.02956345,0.20203929,-0.08355673,-0.08783978,0.02277473,0.02214998,0.03037249,-0.01658849,0.04879359,-0.08291078,0.01084019,-0.01811712,-0.05263891,-0.15083531,0.03511000,-0.12120157,-0.04125236,-0.04761437,0.15447250,-0.22246169,0.03897344,0.09650595,0.05282737,-0.03755178,0.02814925,-0.18542099,0.08256018,0.05091912,0.16347578,-0.08521380,0.05890528,-0.07878154,0.03350196,-0.03929727,-0.28717256,0.12684704,-0.07999586,-0.11317130,-0.03624564,0.00615171,0.04254930,0.08852864,0.06836276,-0.00270240,-0.12746243,0.12146410,-0.02187143,-0.01767332,0.09591218,-0.12253520,0.15829767,-0.01978290,-0.03611319,0.06962842,-0.31136614,-0.01810071,0.15489943,0.00640704,0.02586781,0.09764356,0.00444497,0.00889333,0.03610523,-0.05411898,0.17095771,0.00291867,0.08459336,-0.06036590,0.05125491,0.01273909,-0.04138684,0.25126645,0.03624497,0.08101346,-0.08659426,0.02960174,-0.10332903,0.06372981,0.19294252,-0.02271929,-0.07811277,-0.05777892,-0.03674909,0.03414598,-0.01250704,-0.11124884,-0.05340324,0.04214958,0.00727305,0.12157986,0.05973152,0.09081774,0.03709913,-0.05728278,-0.07092880,-0.10355982,-0.07293911,0.04213317,0.07860215,0.05231580,0.00111307,0.06209589,0.05981208,0.03534205,0.01023220,-0.04193751,-0.17184585,-0.00833215,0.05210476,0.03391977,0.04932975,-0.02751915,0.00390864,0.09066336,-0.09873228,0.15764546,0.06795222,0.07500843,0.16804355,0.01328636,0.12715092,-0.05329160,-0.02652254,-0.03039497,0.03572816,0.11516280,0.10594267,-0.01293642,0.01392605,0.04940673,-0.07795555,-0.08779868,-0.09500819,0.01543122,0.04424605,0.14613381,-0.00030524,0.21970412,-0.01026174,0.03045062,-0.00450990,-0.12988651,-0.08718828,-0.07517689,0.03281765,0.02252938,-0.10402043,0.00336833,-0.01023700,0.03072926,-0.09611851,0.02615525,-0.02143047,0.04436439,-0.16549443,0.05130157,0.08153728,-0.06600427,0.12352757,-0.02278201,0.13864563,0.11325198,-0.04678797,-0.00005464,-0.04150474,-0.12017481,-0.05156219,0.07662106,0.04470471,0.00551977,0.09331900,0.13897340,0.00952500,0.03857681,0.22495757,-0.04558212,0.04037080,-0.02421295,0.04094001,-0.01749042,-0.07582254,-0.08561187,-0.07486328,-0.03231458,-0.00642435,-0.08077645,-0.02791547,-0.01141145,0.14987305,-0.01384720,0.03197508,0.06810906,0.04685625,0.09547821,0.05613432,-0.11739352,0.04356955,-0.10852734,0.15673512,-0.03944672,0.07715683,-0.06894848,0.04670865,-0.02579256,0.00144439,-0.14125544,0.05902953,0.11177543,-0.03895343,0.04567631,0.03840639,0.04646978,-0.06144026,0.00746575,0.00778512,-0.14005753,-0.05709401,-0.01806867,0.01501701,0.03113902,-0.03766287,-0.07063458,0.00971345,0.10773987,-0.02547540,-0.16735406,-0.04609346,0.13342491,0.11966136,-0.14435045,-0.09427449,0.01004397,0.05842259,0.17433807,-0.00482067,-0.12356282,-0.00040891,0.02308261,-0.04447210,0.00191071,0.09732564,0.08278403,0.01657038,-0.03104684,0.01112208,-0.10540780,0.00615669,-0.05818960,0.12576994,-0.02406835,-0.00487821,0.10557392,-0.10241772,-0.10758533,-0.03463816,-0.00260189,0.00396662,0.00230330,0.09174289,0.07242447,0.08455975,-0.00303015,-0.04781085,0.03798435,0.18065439,0.11259253,0.07128451,-0.13586286,0.05322346,-0.00158223,-0.00253566,0.10289694,0.07142574,-0.05944958,0.13753453,-0.12108370,-0.03296331,-0.04040579,-0.04773671,0.02572969,-0.01724293,0.01433069,0.01069905,0.06250487,0.12873282,0.05662663,0.14881554,0.04343046,-0.06716182,0.04954011,-0.04988339,-0.01934203,0.15917575,0.17839974,-0.07587177,-0.07701544,0.01025044,-0.01198462,0.08565449,-0.03893438,-0.00658861,0.07162011,0.02235050,0.02714786,-0.03707287,-0.05473791,-0.18104725,-0.01157604,0.07366436,-0.14434749,-0.11478754,0.08225475,-0.08732865,-0.05429922,0.00545239,-0.00877332,-0.05006240,0.01391963,-0.04031501,-0.14879550,-0.02930576,0.11999002,0.08125008,-0.05780604,0.00666009,0.11848982,0.05125639,0.02738525,0.01727212,-0.01861085,-0.13918342,0.11360339,-0.06252734,0.03512909,0.13066599,0.06925728,0.08249766,-0.06454859,0.11536363,0.12653303,-0.11083043,0.14327410,-0.15977813,0.06184551,-0.03180151,-0.01218968,0.00501557,-0.01299777,-0.04607452,0.06599844,-0.02211210,-0.04171333,0.07412974,0.15035065,0.03154854,-0.01321441,0.03935870,-0.08471873,-0.03125603,-0.15101269,-0.10943880,-0.26680809,-0.07735848,-0.14651792,-0.01095766,-0.09366065,-0.16838013,0.04505265,0.04265841,-0.09123470,0.02521757,0.20433266,-0.02386222,0.09730794,-0.10720686,-0.06910361,-0.05054161,-0.05460784,0.14627191,0.05436416,-0.09322424,-0.07820112,-0.05168868,-0.00169862,-0.10915416,0.06411267,-0.02070811,0.00423712,-0.11067578,0.00419283,-0.11445517,-0.05060104,-0.07623905,-0.17308009,0.02215237,-0.05311718,-0.02822295,-0.00682739,0.10218073,-0.09927972,0.07782214,-0.02205688,0.02380958,0.10121961,-0.08838591,0.06937499,-0.06579461,0.11088423,0.03914265,0.02507138,-0.03484775,0.13358422,-0.11935575,0.00623351,0.05133435,0.12539041,-0.08040311,-0.07507689,0.03048007,-0.07085127,-0.01055433,-0.18141758,0.05786806,0.11580873,-0.12889960,0.03623519,0.00491443,-0.03601069,0.01143985,0.11319930,-0.06105378,0.08203738,-0.25252175,-0.04784541,0.06348148,0.12685128,0.09686890,0.10590515,-0.00303029,-0.02051783,0.00602345,0.06737434,0.03446837,0.08905237,0.06434888,0.08891512,-0.03774796,0.10322732,-0.04421818,0.09041271,0.10081637,0.09669518,-0.12243585,0.01041423,-0.15961944,0.10265947,-0.11650574,-0.06330510,-0.14236309,-0.03552862,0.23440625,-0.06119103,-0.05436851,0.02164629,0.08832911,-0.11352516,-0.05391415,-0.08339605,0.06660004,0.00286078,-0.11724088,-0.00227589,-0.01078281,0.00657688,0.00737858,0.10339212,-0.03403008,0.07921264,-0.04250142,-0.08441500,-0.04658387,0.04574022,0.00207500,-0.09441658,-0.09276752,0.10261885,-0.10672037,0.04505593,0.20339961,-0.08237293,0.01988619,0.02754598,-0.02501256,-0.03715421,-0.05339387,-0.03914256,0.14593954,-0.05878814,-0.00893984,-0.16457422,-0.00459928,0.12257763,0.03742404,0.12157356,0.09803264,-0.04353232,0.05982011,-0.14241418,-0.06382687,-0.02653312,-0.17808457,0.08633162,-0.11871694,0.01613376,0.00770668,0.10484324,0.02927488,-0.02798568,0.13818930,0.03445969,0.11715645,-0.06652517,0.06703586,-0.08890692,0.09471797,-0.02903998,-0.06518006,-0.02303506,0.00528887,0.07402769,-0.04373078,-0.07916749,0.05663206,-0.23882705,-0.12873003,0.12089825,0.09976455,-0.01046600,-0.13123095,0.04684565,-0.01070904,-0.08849424,-0.13736126,0.11493910,-0.03559012,0.00801902,0.15229191,0.06657454,-0.02591991,-0.11262020,-0.12222214,-0.08300343,0.02553753,-0.07130637,-0.02021761,0.15326400,-0.18646830,-0.01634934,-0.08737380,-0.03064932,0.02250625,0.07903603,-0.05972087,0.00112794,0.11482947,-0.06518064,-0.11484534,-0.05731306,0.02812478,-0.17578436,0.01731284,0.17281155,-0.00529766,0.11692664,-0.06257132,0.07331445,-0.08536661,-0.02639159,0.01880028,0.13616985,-0.10407435,-0.00143152,-0.03938118,0.03840476,0.12226886,0.13598880,0.09869331,-0.03950382,0.10393564,0.00775658,0.02510869,0.01079773,-0.06173873,0.02240784,0.03116667,-0.02408162,-0.02310374,-0.21483991,-0.04976952,-0.03874936,-0.05233792,-0.01628976,0.04639386,-0.06752981,-0.19661112,-0.03420395,-0.02630863,0.16553573,0.16557121,-0.06371730,-0.02672583,-0.08270139,0.12209294,-0.01155087,-0.20385654,-0.01459094,-0.01721569,-0.04716537,0.11886509,0.03586807,0.09723899,0.18240146,0.05411471,0.20194677,-0.02863751,-0.15841636,0.14806806,0.06489260,0.09675146,0.07666416,-0.08636515,-0.02459690,0.01342882,-0.00956969,-0.02961968,-0.04482003,-0.06447959,0.01304887,-0.02705949,0.08079447,-0.15541054,0.05084342,0.02589266,-0.01984314,-0.04399490,-0.11685166,-0.02746066,-0.03748631,0.10425667,-0.08993643,-0.00655625,-0.02624821,-0.01822023,-0.02751582,-0.02729932,0.11740076,-0.01934617,-0.10952401,0.02964585,0.08844753,0.09516280,0.10116623,-0.02766585,0.08049112,-0.09485925,-0.08800732,0.08837954,0.00095147,-0.01962072,0.06429231,0.15243345,-0.08030133,0.01837080,0.00126536,0.06119661,0.06976081,-0.11600997,0.00292551,0.11833520,0.03862139,-0.02532106,0.06773365,-0.02215214,-0.01719423,0.09543527,0.03796409,0.18441038,0.00119758,-0.17931008,0.06349695,0.02504751,-0.16776612,-0.00847566,-0.00038534,-0.04081759,-0.00994834,-0.07767065,0.04771374,-0.05224906,0.01391522,-0.05749789,0.03310267,0.00080872,0.02248222,-0.08346880,-0.05352171,-0.12471516,-0.17252021,0.07145236,-0.00206005,0.04727091,-0.02832255,-0.05995960,0.12109697,-0.01546155,0.01735497,-0.11927409,-0.14319365,-0.23969169,-0.01110450,-0.00035209,-0.13960548,-0.04102642,0.05339137,0.06374756,-0.06866446,-0.24545045,-0.02948633,-0.14601865,-0.04249957,-0.09051767,-0.03998730,-0.10666562,-0.07222661,0.15397707,0.02193919,-0.00232561,-0.09754518,0.09640428,-0.07137353,-0.00880870,-0.02083876,0.15651485,-0.06346634,0.06907961,-0.01248878,-0.04219601,0.04889428,0.05997092,-0.21037677,0.00659435,0.12794980,0.06878684,0.02085346,0.03146971,-0.16920196,-0.06450421,0.04886705,-0.03012711,0.09301582,0.03074970,0.01234413,-0.00499833,-0.13196583,-0.09290845,-0.11403156,0.10912202,0.04402251,-0.09455263,-0.04998555,0.10394635,0.14528334,-0.05705301,0.10480265,0.01629707,0.02893884,0.06740730,-0.08822380,-0.05376941,0.12513307,-0.06637796,-0.17473280,0.07709220,0.00690560,-0.04542199,-0.10557303,0.06122404,-0.01469374,-0.04571018,0.03196392,-0.14345254,0.13192381,-0.10479962,0.00240028,-0.13727176,-0.00315284,-0.02557250,0.09683528,-0.02923957,-0.00094926,-0.02621561,0.06249635,0.17748854,0.11635073,-0.04821339,-0.06749092,0.03597531,0.09432235,0.09773239,-0.13921575,0.08673786,-0.04742023,-0.01914308,0.10131902,-0.06087207,0.02449670,-0.05726706,0.00221834,-0.02421556,0.10391224,0.05390142,0.01780504,-0.06479329,-0.11090381,0.17836665,0.08410078,0.00846851,-0.01896574,0.06598482,0.00705525,-0.09735911,-0.06087748,0.03067343,-0.07081627,0.07334585,0.06398451,-0.11224198,0.05886744,-0.14069010,0.13769527,0.11909973,-0.09179659,-0.02574413,-0.06088751,-0.08078295,0.08201816,0.03929587,0.04500302,-0.00511506,-0.21623306,0.08273587,-0.09020400,-0.06219057,-0.00239390,0.03241204,-0.12951949,-0.11153160,0.10471295,-0.02361244,0.02348580,0.04717081,-0.03397829,-0.13498443,-0.11633459,-0.07108019,-0.09754018,-0.14152408,-0.00437663,0.04846725,0.04803458,-0.00729672,-0.13455816,0.00878669,-0.16952708,0.18235587,0.13437739,-0.15290822,-0.00863259,-0.03527899,-0.08314809,-0.19305344,0.14329174,-0.05780064,0.07028911,0.08450812,0.01802415,0.09405305,-0.05003758,-0.14236002,-0.19784969,0.00285694,-0.02052843,0.11307619,-0.13813055,-0.14648691,0.04975106,0.04516212,0.11303560,0.01079935,-0.01854715,0.18301384,-0.03055925,-0.02062314,-0.10324096,-0.02355577,-0.03530404,0.06898919,-0.01457491,-0.22272401,-0.10399748,-0.05307915,0.12112008,-0.01135691,-0.03508380,-0.14525819,0.04185176,0.19534923,-0.01813125,0.05257457,0.05137322,0.02925347,-0.11204814,0.10165503,-0.11198685,-0.06581745,-0.06362479,-0.06462979,0.07968239,-0.08307227,-0.03922455,0.03897190,-0.08720124,0.11259974,0.13494214,0.02568913,0.05055795,-0.01772167,-0.01178954,0.10818751,0.11642341,0.02365429,-0.03888437,0.02937202,0.09329826,-0.04540962,-0.11268192,-0.04346946,-0.09317417,0.04540083,0.03709978,0.17801906,-0.04012607,-0.11112648,0.00751908,0.03551262,-0.07925763,-0.16223741,-0.03602976,-0.08306795,-0.03240900,0.01113359,0.09966392,0.01054487,0.08798471,-0.02924252,-0.14171973,-0.01819745,0.11338647,-0.01364396,0.09309049,-0.04703341,0.10910137,-0.00627093,-0.00808464,0.06404380,0.17306167,-0.18903255,0.05638271,-0.05676765,-0.07438536,0.05614026,-0.03806242,-0.18069693,-0.08941871,-0.16723870,0.05449333,-0.05199707,-0.13826974,-0.03967366,0.17904691,0.00100488,0.11540372,0.04698348,-0.13286664,0.01057422,0.07767454,-0.01896215,-0.01461726,0.00003263,-0.19470632,-0.02191455,-0.02032796,-0.06952661,-0.11628647,-0.12401503,-0.00547905,-0.01220882,0.17869815,0.03344854,-0.07125603,0.00051065,-0.03615685,-0.11657958,0.06448877,-0.00219768,-0.02139122,0.05119995,0.03818140,0.04887751,0.04409914,0.12033458,0.05143528,-0.15977503,0.05178030,0.00490810,-0.04911527,-0.00339620,0.05514950,0.15392360,-0.19404203,0.15391019,0.02688301,0.00536475,0.04878893,-0.17205283,0.08109503,-0.03837944,-0.00376026,-0.10787048,0.10045348,-0.01539248,0.06731040,0.07051176,-0.04840617,-0.06755546,0.07703967,0.05256191,0.01333563,0.04988982,-0.10661916,-0.16224046,0.04674153,0.10239603,-0.09055980,0.09403383,-0.04676509,0.05101910,0.02911877,0.10269567,0.05793858,-0.03911133,-0.01288404,-0.16624969,0.15734378,0.10532621,0.06489569,-0.05297921,-0.02604881,0.01526095,0.08636266,-0.05967766,0.05326783,0.04079843,-0.11324519,0.14294174,-0.05922448,-0.09414914,-0.01362928,0.06551721,-0.02501818,-0.07396382,0.09630580,0.02198825,0.04271676,-0.07890534,0.02457797,0.03120634,-0.11239519,-0.10445165,0.03164703,-0.32429442,-0.17969273,0.12299430,0.00632698,-0.06666539,0.04308241,0.11929516,0.00328303,-0.41795862,-0.01403524,0.07739457,0.05152365,0.17042673,0.10094246,-0.00921987,-0.04988166,0.12629732,0.12555566,0.11919402,0.02501692,0.09905083,0.01670636,0.07783224,-0.05013500,0.07993989,0.05493394,0.03516991,0.12524384,0.06400360,-0.04550833,-0.05924215,-0.14845669,-0.02933317,-0.04546770,-0.01978665,0.10230011,0.13864149,-0.00315455,0.00011590,-0.00391288,0.07418008,-0.01142457,0.07630488,0.00587365,-0.14381388,0.07016183,-0.10517329,0.00620654,0.02416835,0.09952676,0.04867912,-0.04390391,-0.18792529,-0.00154519,0.00484416,-0.14459558,0.20976356,0.07164316,0.02895418,0.10645011,0.14825080,0.07965073,0.07453980,-0.03612958,-0.02491382,-0.17977555,0.16734904,0.06832808,0.10358788,0.03020526,-0.06975090,0.07142132,-0.03310946,0.03082516,0.01723043,0.00195019,0.12337380,-0.08604738,-0.09841634,-0.13230425,0.08394376,-0.01993917,0.11770450,-0.18987699,0.02903525,0.00208227,-0.16392124,0.14600869,0.01295929,-0.11694800,-0.01658827,0.02941004,-0.15214112,0.05128449,0.00116002,0.15872082,-0.13924834,0.11284842,0.02720430,0.20434336,0.02367157,0.01554865,0.13639362,-0.05484135,0.05400737,-0.07813994,-0.13197660,0.01848995,-0.12148472,-0.04666414,-0.01923131,-0.06397197,-0.08553974,-0.09202209,-0.09722424,-0.02136098,0.06791430,-0.01908874,0.03069302,0.00254226,0.08887570,-0.02037654,-0.01306496,-0.28615582,0.08433279,0.03306370,-0.20332254,0.04908223,-0.10333088,0.02979195,0.11522599,-0.11119282,0.01529883,-0.11250599,-0.01946005,0.02108418,0.05560970,0.11624651,-0.10759626,0.05392737,0.03783741,-0.08117197,-0.12607846,-0.14476231,0.02894364,0.10330307,-0.00950399,0.01590394,0.01163484,-0.10681381,0.10711888,-0.06794202,-0.14691421,-0.07287703,0.21145518,-0.02790441,0.04634216,0.16996944,0.01152451,0.01037398,0.05520684,-0.00154742,-0.03771951,0.04402432,0.02489944,0.04849872,-0.08005123,0.03306039,-0.03211726,-0.05910315,0.04298082,-0.00358670,-0.05270066,0.14194544,0.05327846,0.04758094,-0.17929982,-0.02268601,0.04514944,0.04472927,-0.12584631,0.02468948,-0.02324290,-0.01386854,-0.06284802,0.05176378,0.02196396,-0.01972802,-0.04445934,-0.06146419,0.00830838,0.02747185,0.01519836,-0.02686882,-0.09772457,-0.15237482,-0.07564443,-0.04895391,0.01831627,0.08479594,-0.02174314,0.14879161,-0.02735516,-0.06503547,0.03327104,0.02294550,0.16246670,-0.07046661,-0.01625679,0.07893854,-0.05684201,0.02640437,-0.17395689,-0.02769291,-0.15121241,-0.03584980,-0.06613159,-0.01888464,-0.08645179,-0.04676069,0.02089216,-0.03672880,0.20851892,-0.09917561,0.02376151,-0.20503604,-0.03111039,0.10402954,-0.07498746,-0.01752170,0.11578896,-0.03280982,0.03548828,0.15503509,0.02965965,0.00957468,-0.12949602,-0.07831544,-0.11341751,0.12985462,0.08627497,-0.10197995,-0.05887033,-0.05337287,-0.05915225,-0.03883336,0.07211563,0.13891782,0.02574199,0.08875393,0.11857717,0.02096346,0.10507467,-0.04631362,-0.05762303,-0.04939499,0.00386626,0.05295248,0.08313616,0.00510768,-0.08161575,-0.05311434,0.07833028,-0.00001340,-0.08092254,0.02473501,-0.04562519,0.13137835,-0.07705326,0.00064441,0.11914315,-0.07901951,0.03762924,-0.15522592,-0.11249683,-0.12963061,-0.01939798,0.12340397,-0.02546044,0.02238471,0.05292955,-0.03078708,0.01095763,-0.03339335,0.05457117,-0.03312773,-0.08602108,0.06188237,-0.09226019,0.06410844,-0.02011224,0.00519680,-0.03323900,-0.07443085,-0.18749709,-0.12660284,-0.08354385,0.03542633,0.00652703,0.04577559,-0.00102381,0.10763348,-0.14957184,-0.10415510,-0.11774401,-0.07109183,-0.00397096,0.01321953,-0.00730232,0.04594877,-0.00056807,0.00111392,0.09013049,0.09197638,-0.05446412,-0.11393598,-0.06677952,0.02175086,0.15754206,0.09018761,-0.09328818,-0.11428539,0.07326082,0.05399164,0.04921572,-0.08575242,-0.00708559,-0.11567954,-0.07676787,0.21125488,0.03191628,-0.04265992,0.13046369,0.02837563,0.10100292,-0.05446009,0.10615945,-0.08040849,0.11187692,-0.10943506,-0.05088758,0.01236353,-0.06844587,-0.11734774,-0.04703123,0.01232077,-0.11169117,-0.06154153,-0.15445228,-0.02887690,-0.03578630,0.07834708,-0.02260218,0.05616847,-0.10859321,0.08181900,0.16153425,-0.12096745,0.08702098,-0.00108207,-0.14364839,0.12312462,0.08388801,0.00892938,-0.07977384,0.10675460,-0.04721526,-0.15418439,-0.03932832,0.00387074,-0.15985765,0.03721807,-0.02467667,-0.03246021,0.06617895,-0.03533081,0.17137818,-0.06148910,0.00150139,0.03495673,0.07450801,-0.09803028,0.18887295,-0.07123176,0.07919241,0.12121169,0.07562915,0.13665627,0.02469815,0.04096214,-0.01817524,0.16610023,-0.08113489,-0.00044724,0.00276927,0.01038535,0.16117220,-0.00328495,0.04945110,-0.05673078,-0.04189881,0.06898530,-0.04750830,-0.01206085,0.01206515,-0.08735935,-0.05533675,-0.09019026,-0.08461473,-0.03879314,0.10477469,0.03722062,-0.07810670,-0.05607419,0.01182933,-0.04050242,0.17905812,0.01014424,0.09406727,0.10660619,0.03322088,-0.05048938,0.10544782,-0.03879208,-0.17136729,-0.04190432,-0.09983306,0.03966373,-0.09013373,0.09368204,-0.13183898,0.10385699,0.12327865,-0.08003316,-0.10199910,-0.05113687,0.01904551,0.02919335,-0.16094673,0.04363994,-0.04232719,-0.00119942,0.10989497,-0.08233752,-0.12078131,0.04169519,0.02383591,0.03201041,0.12332669,-0.07323694,-0.12195299,-0.09474956,0.04691191,-0.00313478,0.06114194,0.16323099,-0.03512223,0.10628244,-0.01821218,-0.16023198,0.04445992,0.00585900,0.03424495,-0.00707647,0.06999991,0.06415023,-0.09774590,0.11236324,-0.02496133,0.06766520,0.00509091,0.08721482,-0.09755635,-0.01447488,0.01328691,-0.04829033,-0.01402117,-0.12181730,0.03699998,-0.08587787,-0.02590491,-0.00751246,0.09904251,-0.12062022,0.03042881,-0.02439151,0.11102768,-0.10837147,-0.10844176,-0.08349745,-0.01338192,0.10012622,0.06152457,-0.00719843,-0.08401670,0.16875820,0.07288032,-0.00753777,-0.00730245,-0.08271833,0.01382642,-0.06284498,-0.03539058,0.03222784,-0.06726225,-0.09001265,0.02268100,-0.02312670,0.06766754,0.10604148,-0.21457779,0.09151866,0.11096239,0.17713228,0.01671595,-0.03720754,-0.03253997,-0.08500797,0.09681015,0.02225466,-0.07225034,0.07446510,-0.06939924,0.05478035,-0.08836593,0.01470860,0.10931614,0.16131599,-0.12039519,-0.04092151,0.05677435,0.09454440,-0.08024335,-0.11262494,0.03532197,0.00338436,0.09569135,0.13374162,-0.04973189,-0.16287559,-0.01976007,0.03060796,0.13955700,0.00309685,0.23320675,-0.05507413,-0.03942030,-0.04218673,0.18911904,0.02142728,-0.03185202,0.00937210,-0.06388518,0.11455613,0.08284697,0.07909942,-0.07634676,0.07522941,0.04580973,0.04727066,-0.05150423,-0.11836100,-0.01909844,0.08481187,-0.02395285,0.11727318,0.03660475,0.12831475,-0.02133635,0.00140310,0.01121153,-0.10716549,0.01595665,0.07646386,-0.14511533,0.04954223,0.12805483,-0.00633333,-0.03589076,0.05246073,-0.12800018,-0.02924381,0.19868903,-0.06276651,-0.03895088,-0.03801275,-0.17245902,-0.09061652,-0.00764030,-0.16425759,0.04566443,0.06921910,0.02110956,-0.07338163,-0.10882674,-0.02338912,0.04078160,-0.09010893,0.13977683,0.07433285,0.06317533,-0.03652610,-0.00059321,-0.06484001,0.08710631,-0.07374522,0.03954639,0.15246779,-0.19598518,0.08051080,0.05768581,-0.01613115,-0.14219676,-0.08103482,0.09367137,0.11317331,0.02776103,0.03613207,0.04645682,-0.02505930,-0.04906959,-0.10891252,0.01255750,-0.00302776,0.01129901,0.04501110,-0.04771981,0.08437897,-0.00090829,0.08179276,-0.02232430,-0.01220714,0.00125565,-0.02863585,0.09161648,0.10357837,-0.09373292,0.07030261,-0.01265227,-0.13391306,0.03692721,0.01817365,-0.02620592,0.00911001,-0.01167890,-0.00406264,-0.00160279,-0.07524290,0.04583008,0.03001164,-0.17447066,-0.07461500,0.07532703,0.07915566,0.04231977,0.00156750,-0.00674027,-0.02835576,-0.13636166,-0.10650001,0.05352397,-0.01271025,0.10369419,0.10330446,-0.03513289,0.11199479,-0.03132645,-0.16926068,-0.06727257,-0.08484899,0.10248121,0.01802079,-0.07076059,-0.02395462,-0.06156440,-0.04886066,0.05174723,-0.06692939,-0.04198796,-0.17992626,-0.01782951,0.17550756,0.00794418,-0.07771355,0.10018415,0.09149601,-0.00950857,0.06822009,0.03256328,0.03924995,0.11947883,0.19062564,-0.04140755,-0.07942788,-0.05001478,0.03899103,0.07965474,-0.03107421,0.10488950,0.00749528,-0.02648317,-0.11686503,0.08531197,-0.07763053,0.02228865,-0.03231155,-0.02294713,-0.08034074,-0.10955846,-0.05737593,-0.09037927,0.00716856,0.15317056,-0.03587326,0.01732790,-0.00800205,0.00371010,-0.04541343,0.01218350,-0.05636916,0.30099678,-0.05483451,-0.12597384,0.11070763,-0.03448652,0.09849570,-0.07071166,0.11862264,-0.05931200,-0.04447924,-0.04229764,0.09320559,-0.00201783,-0.04253468,0.13775694,-0.02888200,0.01995550,0.06015190,0.11548833,-0.08513139,-0.20306979,0.07249109,0.02788709,-0.07512326,0.03495198,0.13241239,0.11299138,0.05222106,0.03793087,0.01272273,-0.01610698,0.01101847,0.08650070,-0.02675631,-0.02618340,0.02339374,0.07263400,0.05356012,0.09030988,-0.14398696,-0.08868194,-0.01501748,0.19790405,-0.15942487,0.06823155,-0.06016791,-0.17473379,-0.03035595,-0.00379336,-0.04073727,0.00827218,-0.04838827,-0.01778270,0.04285666,0.12512262,-0.02266063,0.01534769,-0.01058260,-0.05036960,-0.02629825,-0.19307178,-0.07736611,-0.02414004,0.07160843,-0.08243819,-0.00489595,-0.13397580,0.04738149,0.13710833,-0.11593423,0.02838797,-0.09781641,0.01100900,0.03351221,-0.12592833,0.16123745,-0.13976109,0.19841586,-0.04192789,0.02045421,-0.11435185,-0.16790508,-0.05426406,-0.12364226,0.07563988,-0.03982857,-0.21369871,-0.09189951,0.00783140,0.10323486,-0.08298919,0.04823359,-0.05825731,-0.19782501,0.02413470,0.01656390,-0.03527568,-0.10961697,0.00274296,0.00817741,0.04684927,0.07749883,0.06867134,-0.15856828,0.05820652,-0.16074181,-0.06783146,-0.06143359,-0.10719106,-0.06713233,-0.02882819,0.03023715,0.00522018,-0.20960395,0.02788928,0.09566401,0.11848275,0.10806625,0.00926382,0.07469508,0.02825144,-0.03466854,-0.05217603,-0.02269474,0.03654152,0.05310487,-0.04662519,-0.14268607,-0.01419309,-0.03483213,0.18491139,0.06258477,0.07120991,0.16607852,0.15444084,-0.12204382,0.07830791,0.01856119,0.03048024,-0.10958467,0.04570872,-0.02068564,-0.02084308,0.14903092,0.04964004,-0.09903989,0.01282862,-0.14375208,-0.03138953,-0.14786747,-0.01240711,-0.07422046,0.05922213,-0.02015975,0.12718305,-0.06361406,-0.03060648,-0.02267355,-0.11691000,0.05972003,-0.01214275,-0.11436057,-0.00377962,-0.06187806,0.14024493,0.07975976,0.00268965,-0.31214136,0.10881034,0.08359098,0.19049525,0.01572584,-0.04882106,-0.10723927,-0.12627275,0.04376249,0.06986291,0.04280050,-0.10438457,-0.07180966,-0.09537483,0.00351350,0.09484664,0.06077028,0.06698960,-0.10702918,-0.02512033,0.00495321,-0.11189116,0.09206915,-0.06883980,0.17323893,-0.12113964,-0.12218761,-0.02862600,-0.03401608,0.08303767,-0.08008333,0.05940672,0.07501490,-0.07788563,0.01064856,-0.02584768,0.00308110,0.19550233,-0.00839883,-0.06080408,-0.09313218,-0.09211318,0.12174769,-0.08462869,-0.06703886,0.10144708,0.06113562,0.02844340,0.20942894,-0.02675950,0.13603561,-0.00588020,-0.20549534,-0.01057875,-0.01079035,0.05548979,0.00487045,0.00661165,-0.01165824,0.03397251,-0.09278558,-0.11229806,0.10749883,-0.09921288,-0.07301705,0.12670317,-0.05115559,0.14336599,0.04768089,-0.02859011,0.03644494,-0.10659090,-0.14198783,-0.01468428,0.00303008,0.02732677,-0.04741184,-0.01549438,0.13344148,-0.11650093,0.19729766,-0.05931011,-0.10159235,0.06708370,-0.04380910,0.00500297,-0.02646855,-0.08755433,-0.06915283,-0.03624862,-0.10255153,-0.07292468,0.04373379,0.01958901,0.02176072,-0.00189856,-0.13662133,-0.01285955,0.14928482,-0.06190673,-0.04990333,-0.07727882,-0.03725712,0.02295049,-0.14611250,0.03697827,-0.12946652,0.03092912,0.12857865,0.04582607,0.08721286,0.11201514,-0.07279596,0.02901390,-0.10355974,-0.00133899,-0.14003579,-0.04072911,0.05395032,-0.06465166,0.08974756,0.02032234,-0.14817740,0.07100844,0.02533346,0.15392150,-0.07895028,0.04384258,-0.02343214,-0.00008762,-0.03680294,0.00378907,-0.07879694,0.08200162,-0.08184469,-0.06249277,0.01641739,-0.19051695,0.00425649,-0.09375488,0.02930216,-0.10523415,-0.02135853,0.01602724,0.06779970,-0.06468976,0.01856999,0.17419700,-0.01227968,0.05241038,0.04800410,0.02429248,-0.04273516,0.08364102,0.02596458,-0.05569413,0.02935084,-0.02867805,0.14774269,-0.10108965,-0.20251885,0.01032592,0.03583404,0.02039098,-0.14618427,-0.17197049,-0.11096188,-0.00138221,-0.07729576,-0.02255579,0.06295981,-0.05722918,0.08613306,0.01547933,-0.07438143,0.04248958,-0.10688502,0.15467592,-0.08583396,-0.11840402,-0.12639454,-0.16480727,0.02401890,-0.00526845,-0.09344956,0.00791563,-0.11717491,-0.05969980,0.00665187,0.13279152,-0.01879700,-0.19039613,-0.03213566,-0.02845465,0.19010121,-0.03526393,0.00581310,0.21418910,-0.02441223,-0.09186779,0.02711746,0.25047970,0.03987143,0.01687846,0.06638301,0.07169402,0.03821293,0.03365647,0.11453675,-0.01777798,-0.01290997,0.01025382,-0.04974297,0.04020065,-0.03591901,-0.04516339,0.05036566,-0.03301714,-0.04617433,-0.05270943,-0.06717173,-0.14075604,-0.00296399,-0.07006780,0.07182537,0.01985167,0.08695498,0.07132182,-0.00702904,-0.15198077,-0.01288212,-0.02994084,-0.11425451,-0.03913899,-0.08532310,-0.05115315,-0.00358944,-0.12704922,0.11052225,0.05809316,-0.04890075,0.06962085,-0.07978215,0.06933438,-0.08045232,0.04738906,0.01911722,-0.00272455,-0.00141473,0.10600993,0.05821522,0.03194789,0.13175134,-0.01587493,0.01360432,0.00371929,0.05018564,0.06576195,0.21928526,0.04610121,0.00788988,-0.03859843,0.01052570,0.05870741,0.03324023,0.00984813,-0.08719006,-0.15689385,0.05705464,0.06754314,-0.06662310,0.01219077,-0.05016474,0.10043485,-0.02402085,0.18152624,-0.01245270,-0.06237783,-0.05716091,0.10164641,-0.09945948,-0.02162296,-0.01217296,-0.00576438,0.00235895,-0.13520744,0.00136810,0.02136234,0.02740844,-0.06610235,-0.02614640,-0.14419012,0.01972433,0.13373686,-0.04682876,-0.06223958,-0.01857509,-0.00328949,0.00256606,-0.10699034,0.12806343,0.09042127,0.04509817,0.11498670,-0.18482600,-0.00512838,0.10956543,-0.08687677,-0.02264990,-0.17115328,0.13502783,-0.02732506,-0.01589885,0.14964986,0.09776954,-0.06290790,-0.01684564,0.03817093,-0.08986633,0.07024522,-0.08574983,-0.03296627,-0.00234266,-0.03967338,0.01796422,0.12849598,0.01106523,0.01971716,-0.17149320,-0.03061693,-0.11981687,0.07955658,0.04463986,0.01914803,-0.01504223,0.02622311,0.05329748,-0.08923683,0.03222865,-0.06068731,0.03871100,0.06079530,-0.16808313,-0.02852309,0.18236056,0.05039699,0.00843362,0.05680553,-0.04305180,0.05325432,0.08880400,-0.18878768,0.12240385,0.02275364,0.05490936,-0.09946239,-0.09226218,0.00606702,0.01120277,-0.05755816,0.09355029,0.02098192,-0.00836830,0.21323679,0.12416344,-0.01426542,-0.24153985,0.01141904,0.17715217,-0.00985612,0.01067916,-0.04795179,-0.05238082,-0.08325185,-0.07843935,0.07745808,0.16044682,-0.08336576,-0.04026392,-0.07292082,-0.02295448,0.06747122,0.14575224,0.00730582,0.02871178,0.16975670,0.05387173,0.12467870,-0.08755655,-0.20708871,-0.02191080,0.05963406,-0.10995177,-0.08873413,-0.07643165,0.06871175,0.00931207,0.14963375,0.00656216,-0.01784155,0.00787560,0.11823987,0.03908576,-0.01879226,0.04344614,-0.05975837,0.11742751,0.06333201,0.01185591,0.12019350,0.04560212,-0.01780965,0.05839116,0.05500307,-0.00269452,-0.02900297,-0.00244090,-0.13857296,-0.03933089,0.04764009,0.10091253,0.11969339,-0.01082396,-0.22375581,0.01490007,0.05343672,0.01361705,-0.13589923,0.01208060,-0.06812352,0.07694504,-0.05052847,0.14772534,-0.08689332,-0.04119043,0.10409364,-0.03904566,0.05805316,0.01700079,-0.10568406,-0.14903355,-0.00947144,-0.13357507,-0.02213734,-0.02523821,0.03911189,0.02159638,0.06319874,0.02155030,0.05162572,-0.08658400,0.02317998,-0.01474676,0.01246998,0.00296127,-0.06223032,0.07301782,0.17688219,-0.03707568,-0.09715959,0.04458249,-0.09464396,0.05482000,-0.01312462,0.12795451,0.03281265,0.16671620,-0.12013472,-0.08485502,-0.03483753,0.00268528,0.06580066,0.15131687,0.11132891,-0.03010708,-0.19836514,-0.08875941,0.16698316,0.15094262,-0.06191851,-0.04636886,0.15678521,0.05823198,0.17064555,-0.03824323,0.07406364,-0.10956339,-0.05990948,-0.25121689,-0.16774264,0.00098523,0.07190574,-0.04819511,0.09291929,-0.04248348,-0.05269732,-0.03234785,0.03321264,-0.10041763,-0.14393674,0.12909910,-0.06341581,0.03361100,-0.01204111,-0.10765763,-0.11791408,-0.09771036,0.03947476,0.07096902,0.06948227,0.04426533,0.11543203,-0.14040975,0.04180804,-0.07212355,0.04068691,0.02187524,0.07199278,-0.01998212,0.06266969,-0.02231542,-0.10021438,0.03223932,0.06616590,-0.08918040,0.07110626,-0.06743094,0.06978860,-0.06433185,-0.07629288,0.03884633,-0.09014862,0.00335391,0.02171321,0.02202998,-0.03927057,-0.04664809,-0.20497920,0.06441595,0.01068894,0.07733006,0.11191518,0.17854071,-0.03184888,0.05706575,-0.10242962,-0.06806228,0.02904552,-0.12388334,-0.11883429,0.04513831,0.11457065,0.08794001,-0.05662896,0.02122468,-0.06752887,-0.04092929,-0.00514613,-0.09602299,0.13417646,0.04677426,-0.01219534,-0.01255819,0.07997820,-0.06904628,0.00559240,0.05353858,-0.10485385,0.13548887,-0.06278573,0.02652504,-0.06132174,0.05548073,0.09854389,-0.05985926,0.06196934,-0.08639471,0.06089308,-0.04755557,0.05768908,-0.21356636,-0.05037956,-0.08629046,-0.04279609,0.00768478,0.02469509,0.01453429,-0.03835341,-0.02033437,0.08278844,0.09244107,-0.10810360,0.19311406,0.10474280,-0.03910281,-0.17175713,0.17486686,0.10892365,-0.00285236,0.14588501,0.05531976,0.01319981,0.15472163,0.06761993,-0.08819965,-0.01546872,-0.04494764,0.14450479,0.21079527,0.05392523,-0.06372647,-0.11555678,0.10503040,-0.04514012,0.05271893,-0.02387139,0.01196962,-0.10723121,0.05680891,-0.13183913,-0.02249314,0.01118641,0.04528715,-0.08435129,-0.00489546,-0.02007639,0.00450932,0.21659179,-0.25680298,0.03013846,0.00649419,-0.12325518,0.12575248,0.07602420,0.07334079,-0.00977240,0.03319157,-0.02305278,0.03820676,-0.09601437,-0.00747408,0.06593283,-0.07734943,0.04534923,0.04224903,0.11754517,-0.01105431,0.05873947,-0.04466483,0.02737494,-0.05054428,-0.00970764,0.06085817,0.00493014,0.21943386,-0.14146124,-0.20284985,-0.09403458,0.02569163,-0.06995028,0.01041005,0.10663887,-0.16123515,0.02697100,-0.16511184,-0.02960779,-0.14488770,0.02825513,-0.05271008,-0.08378927,-0.06826349,0.02109389,0.04085177,0.15366185,-0.06934337,0.03682740,-0.10932662,0.00455068,-0.10713542,-0.13468836,-0.00237451,0.01122322,0.09367498,-0.05129305,0.06950517,0.10072500,-0.02412936,0.06192381,-0.09279187,-0.04554847,0.05108688,0.06856930,-0.02321692,0.04303618,-0.04720253,0.04383062,-0.16981988,0.06948785,0.03562356,-0.00729897,-0.02172378,0.03692092,-0.19187884,0.13803285,0.04187920,0.03702433,0.01578857,-0.05365321,0.04544816,0.05295477,-0.11643467,-0.08155439,-0.00558478,-0.13727908,0.00626732,-0.05384397,-0.02718070,-0.00661212,0.03224896,0.00892451,0.05659320,-0.01161858,-0.05108948,0.10873625,0.01501747,-0.08146936,-0.05414043,0.01122523,0.03432625,-0.21108192,0.10707005,0.15501811,-0.00956627,-0.03040035,-0.11757889,-0.01964636,0.21064901,-0.10912309,-0.04044249,-0.07351293,0.07394334,-0.00908967,-0.08530574,-0.12625961,0.13193379,0.04498405,0.01709573,0.04311949,0.12455544,-0.00448471,-0.07192300,-0.07322813,0.05494145,-0.01263229,0.03289951,-0.02436211,-0.01816463,0.05981824,0.12367665,-0.13460571,0.14825876,0.10481205,0.05348182,0.00367440,-0.00234913,0.09551256,-0.08703380,-0.19248170,0.03267492,-0.04705641,0.12779216,-0.05054314,0.06559338,-0.04203637,0.04799067,-0.06661388,-0.00695874,0.02197126,0.00259251,0.05981061,-0.01936334,0.03597393,0.00302045,0.01636417,-0.10626324,0.01695525,0.08867601,0.02070327,-0.15484315,-0.03277118,0.03346752,0.06120884,-0.02413594,0.07580912,-0.09165202,0.00096696,0.00792592,0.14564608,-0.10645275,0.00772534,0.07134883,0.04044085,-0.10030711,-0.14131203,-0.04773884,-0.05211242,-0.13342203,0.05387160,-0.05263935,-0.00696211,0.00871981,0.10466965,-0.04844220,-0.16319141,-0.04427232,-0.04826545,-0.19801927,0.12790485,0.00560973,0.04448146,-0.04827418,0.02090632,0.06260167,0.13456550,0.08386484,0.02403137,-0.13396084,0.02948587,0.05894488,-0.03990423,0.08580471,-0.13612631,0.08552792,0.04004691,-0.03068626,0.08072197,0.01930063,0.06752758,-0.01302587,-0.02139274,0.02937598,-0.18157345,-0.05536952,0.11534736,0.01395900,-0.15098305,0.07423363,0.01305923,0.04844290,-0.06748834,0.13040243,0.10294194,0.00536239,-0.04309515,-0.04312608,-0.09564150,-0.05432220,0.01920826,0.04530512,0.08713468,0.00521253,-0.10030464,0.06435097,-0.10263282,-0.19739883,0.07129296,0.02973093,-0.06369885,0.03756826,-0.02068651,-0.01161893,0.01893566,-0.01360788,-0.04002069,-0.02629803,0.01815636,0.05949707,0.01409819,0.06077571,0.04892013,0.13211036,-0.06479268,0.03236532,-0.14156753,0.08649610,-0.11387719,0.03288452,-0.14911352,0.03398850,0.04956549,-0.01621364,0.08581853,-0.05101000,-0.02579887,0.19223544,-0.16087317,-0.11479566,-0.02987400,0.09026945,0.07402997,0.00098189,-0.03463388,0.09097917,0.00117557,0.01156012,0.07316630,0.17925881,-0.00970579,-0.08227313,0.00050394,0.07484385,0.04264268,0.00751275,0.00179266,-0.02919286,-0.06793521,0.03444254,0.04697969,0.03384730,-0.18962975,-0.05742366,-0.13121554,0.08291114,-0.12659463,0.05629561,-0.00165304,-0.01116492,-0.02590752,0.10740341,0.09229601,0.13762921,-0.01286733,-0.04090646,0.01662326,-0.00784306,0.02807868,-0.06700767,0.04132540,0.08649556,0.01540984,0.15776250,0.16626257,-0.08544433,0.05143327,-0.01461441,0.06889829,0.02550327,0.01134838,0.15055066,-0.02874188,-0.08511057,-0.06375931,0.17616291,0.03803648,0.05556106,0.14596684,-0.02356205,0.13327590,0.07375359,0.11020549,0.03038176,-0.06014461,0.03206615,-0.12253318,0.03144920,-0.10264994,-0.09083026,0.04480888,0.02100311,0.08720404,-0.00611530,0.00325960,-0.07566386,-0.05160765,0.01200457,-0.10441077,-0.05660542,0.07552566,0.05910299,0.03402888,0.07353078,-0.14132382,-0.01172148,-0.08465517,-0.07774640,0.08362281,-0.14921136,-0.04686898,-0.06084986,0.08527927,0.08778773,0.04344653,-0.20002575,-0.15947598,0.08628997,-0.09781121,0.20545764,-0.01180991,0.02965537,0.15658048,0.05827256,0.12905262,-0.00986693,0.07931019,-0.03438861,0.04686452,-0.07094596,-0.00402572,0.28063971,0.06811562,-0.16270511,-0.04237477,0.12731421,-0.09208095,-0.00984149,0.01089052,-0.15941864,0.02077109,-0.06569608,-0.03570722,-0.02545849,0.06994394,0.07161120,-0.12832338,0.02300443,0.03196191,-0.01291953,-0.16341569,0.01618438,0.02073244,0.18242079,0.10178858,0.00132881,-0.14468040,0.10757076,-0.08016142,-0.01035592,-0.02847429,-0.18516295,0.06965074,0.02797795,0.05936331,0.08246550,-0.04466515,0.01564179,0.07288793,0.20658092,-0.06304175,-0.10214785,0.06192539,0.14751747,0.06804426,0.07093867,0.08899306,-0.03428935,0.07222841,-0.01656502,-0.16675645,0.07207496,0.17110042,0.02325527,-0.00030366,0.00115049,-0.07803643,0.05593434,0.07708159,0.14173362,-0.09394997,-0.00014702,-0.13266289,-0.12485405,-0.09567419,-0.00983608,0.07922306,0.24375801,-0.09133026,0.16573842,-0.16733071,-0.06387690,-0.05416218,0.09547468,0.00942735,0.12090566,0.07440657,0.01563403,0.13490702,0.00923780,-0.15013067,-0.01216817,-0.06119920,0.07871932,-0.01563560,0.01437838,0.19017410,0.04548568,0.08737623,0.16200119,0.06765757,0.09233094,-0.10005433,-0.09360737,0.15576044,-0.01728346,-0.22731000,0.03154682,-0.07130267,0.07680522,0.04762941,-0.10316870,0.06068155,-0.16984706,-0.04410755,0.06219519,-0.07509602,-0.07037812,0.06172294,0.00976173,-0.02821903,0.04307857,-0.07998444,0.06233345,-0.07495663,0.02024812,-0.07380351,-0.20091768,0.04702127,0.01964111,-0.21480311,-0.16192561,0.01245022,-0.01263306,0.07267903,0.06423737,0.03560747,-0.13835208,0.05861801,0.05669575,0.12404457,-0.06804323,-0.06425522,0.04435719,-0.01933968,-0.08511325,0.04958628,0.14572971,-0.03491398,0.18352672,-0.15313129,-0.07377697,-0.14063376,-0.10630734,0.01751564,-0.11680124,-0.09026258,0.05693822,0.09616672,0.01718124,-0.06556594,0.14862451,0.09993024,-0.07989544,-0.07505699,-0.09484772,-0.01076002,0.02138841,-0.01844693,-0.06027092,-0.13809361,0.10908893,-0.10628934,0.03175810,0.04849458,-0.11171483,-0.04122297,-0.18672453,-0.10342216,0.06002310,0.07016030,-0.06870265,0.02273160,0.06661737,-0.05728261,0.03074330,-0.10725247,-0.01494586,0.08072967,0.02094932,0.08238661,-0.03029853,0.07301015,0.04437371,0.12710842,0.15129551,-0.14655331,-0.01348325,0.05672927,-0.14434113,0.02271949,0.09116514,0.03651177,-0.11008465,0.16484830,0.07467267,-0.06473436,0.05220915,-0.11153196,0.04259738,-0.03326230,0.08790457,-0.01417698,0.01042826,-0.03767213,0.01258265,0.13475934,0.01807408,0.06585848,-0.07510716,0.01769262,0.23791364,0.10002294,-0.03385903,0.02818887,0.24475768,-0.05500394,-0.11604827,0.03120269,0.09958465,0.07649615,-0.04397569,-0.01782198,-0.02551265,0.03143767,0.09329735,0.03078827,0.03169841,-0.00765008,-0.01706768,-0.08588192,-0.14339460,-0.06045043,0.05567977,-0.13643938,0.12290908,-0.03566157,0.05226715,-0.15505978,0.03455152,-0.02510489,0.17931157,-0.05996738,-0.15164158,-0.14720157,-0.12350879,0.06577992,-0.03243338,-0.07275905,-0.10324032,-0.00412516,-0.04228942,-0.00110369,-0.07177806,-0.15300494,0.15764849,-0.04342933,-0.10896958,0.01373846,0.01265442,0.00236733,0.05789572,-0.17426859,-0.00086293,-0.13870066,-0.04199088,0.07592593,0.06456671,-0.10019127,0.03263712,-0.01577755,-0.05010084,-0.02634552,0.02373599,-0.00692823,-0.04990257,-0.03381011,0.03483045,0.02166872,0.19492443,0.04163166,-0.06341628,-0.04540216,-0.01071577,0.08557935,0.14139099,0.12705643,0.06296528,0.02974267,0.06390451,0.04053286,0.02674386,-0.11554915,-0.05158118,-0.09539683,-0.16074805,0.11894123,-0.20208383,-0.06015950,-0.08813682,0.07905793,-0.08189744,0.09491490,0.04641629,-0.03639242,-0.02383181,-0.02114421,0.19528066,0.04723937,-0.04185496,0.01612160,0.03688470,0.29936224,-0.02691250,0.02691886,-0.00594376,-0.15531087,-0.04798166,0.11932960,0.11650440,-0.11279410,-0.01033610,0.03457277,-0.00154284,0.23697318,0.04781665,0.07605653,-0.06242277,0.12096106,0.12462606,-0.16211396,-0.03669512,0.03410999,0.07534432,-0.00994702,-0.21556392,-0.08007164,0.04464399,-0.03051253,0.06479038,0.07379318,0.10101908,0.04128706,-0.00097957,-0.05528510,-0.12968045,0.16331263,-0.05748434,-0.05056745,0.08772347,-0.13133937,0.20075616,-0.08697945,-0.07427514,-0.16934423,-0.03618015,0.16360711,0.01765245,0.07611030,0.04584718,-0.03493645,-0.06215739,-0.05913762,-0.13814275,0.11123308,-0.00301315,0.08027499,-0.11978088,0.06602100,0.04275299,0.02846699,-0.06141594,-0.03505585,0.06057367,-0.06692739,-0.01610462,-0.02970853,-0.05213068,-0.00530579,0.01652064,-0.00268650,0.09710352,-0.11350264,0.01552442,0.03057188,-0.03490525,-0.17872761,0.07626951,-0.08693961,-0.03232282,-0.05333118,0.08223938,-0.03274590,0.09534570,0.07658874,0.08053566,-0.06507566,-0.16266479,0.06677089,-0.04803038,-0.00287859,-0.04884112,-0.02053262,0.02553821,0.04398184,-0.31041285,-0.09179438,-0.08556953,-0.06881610,-0.01139408,0.04854780,0.03711406,0.15424310,-0.05825973,0.11454939,-0.09400075,-0.01223051,-0.08889698,-0.07368531,-0.11070632,-0.05130709,0.01785746,0.02075649,0.05619689,0.01947600,-0.01788127,0.03806375,-0.04405191,0.03389676,0.06801934,-0.00668766,-0.08050334,-0.00148561,0.09351927,-0.05467492,-0.04565413,-0.03932890,-0.00789202,-0.17283767,0.00930856,-0.09455431,0.03103318,-0.05951615,0.00209193,0.03992314,0.00807415,-0.01093437,-0.06565811,0.03821161,0.07577586,-0.04048649,-0.02498217,-0.15221398,0.08175877,-0.01268318,-0.19750829,-0.06788448,-0.05478166,0.03459843,-0.22626160,0.10924216,-0.03251896,-0.00497627,0.01351546,-0.05193655,0.05072805,0.07510387,-0.02922927,-0.14113076,-0.12942186,-0.11079734,0.00622782,-0.12029091,0.02107058,0.05535647,0.15588255,-0.04067381,0.13899143,0.06238690,0.05480409,0.06729442,0.00245000,-0.10711789,0.02396368,-0.05677490,0.28656006,0.03696318,0.04421945,0.09947615,0.07322147,-0.08511926,0.18618926,-0.09845255,-0.00344208,-0.05904593,0.20142472,0.06018649,-0.15643844,-0.06682448,0.07133275,-0.05795630,0.08550061,0.09911667,-0.00123203,-0.00181726,-0.18456589,0.04445408,0.05092642,0.07581037,-0.03476457,0.27931052,-0.01758178,0.00358416,0.04365245,-0.02624739,0.06211483,-0.15625213,-0.18692248,0.01362281,-0.10458261,-0.08226115,0.01262340,0.01817156,0.04477023,-0.00834698,0.06216205,0.04199239,-0.10339842,-0.07395920,-0.12746987,0.01775034,0.18108262,-0.01560685,-0.03539126,0.06526103,0.01587337,0.03922728,0.00157055,0.12382282,0.11194701,0.00019421,-0.00346911,-0.03283362,-0.06066762,0.13414292,0.09122042,0.00386260,0.00294389,0.01072517,-0.05807085,0.03199275,0.07108976,0.02758514,-0.13441966,0.09806810,0.15689676,-0.12509015,-0.07063662,-0.12606458,-0.01237300,-0.09052589,-0.07644508,0.12633769,0.03325162,0.14983268,0.01902653,0.00065799,-0.14867304,-0.08268980,-0.08785807,0.16202629,0.04055153,-0.06021719,0.07844798,-0.03093831,-0.14165977,-0.14954132,0.09252221,0.03015556,0.22045811,-0.02713697,-0.07906584,0.00369149,-0.01052402,0.16881353,0.02362426,-0.05957770,0.02194430,0.17554426,-0.07838229,-0.01770829,-0.05416731,0.08936506,0.22338259,-0.06735314,0.02942142,-0.03114823,0.13065799,0.06424025,-0.01259124,0.15017979,0.12207296,0.14112452,-0.03022031,0.13542220,0.03823318,-0.09177293,-0.05020662,-0.00751456,-0.09360268,-0.01280269,-0.02277702,0.07180766,-0.09505635,0.13892879,0.04298091,0.02281591,-0.05318093,0.17860064,-0.04538347,0.05194608,-0.04399275,-0.05539270,-0.00678889,0.03147759,-0.12313783,-0.13347046,0.08844253,-0.07714549,-0.16777518,0.04254910,0.02492500,-0.07455634,0.05765224,-0.03438149,-0.02889376,0.02719566,-0.07228683,0.04474875,0.05384548,-0.08119105,-0.08219521,-0.04603103,-0.02516826,0.04496873,-0.03778122,-0.02939416,-0.02771270,-0.04069702,-0.01036330,-0.04361110,-0.02036907,0.04370844,-0.03187818,0.03132673,-0.10763467,0.04434557,0.08711722,0.00876452,-0.00374516,0.00809733,-0.12981185,0.09322139,0.05957053,0.13432452,0.12323595,0.05967594,0.02813286,-0.07968827,-0.07293565,-0.00558753,-0.12141833,0.06284417,-0.05002740,-0.04704232,-0.04767419,-0.06382167,0.00994908,-0.11186437,0.06705502,0.05598272,0.03027911,-0.06337605,-0.07545643,-0.17444682,-0.07796456,-0.00940156,-0.02878666,-0.15959361,-0.03197268,0.09055413,0.02310036,-0.03810126,0.02802940,-0.07702425,-0.15478460,0.03849182,-0.11586794,-0.11016280,-0.03051631,-0.09168253,-0.01125750,0.02062340,-0.00917960,-0.04635914,0.08774957,0.02880142,-0.01268340,0.10732753,-0.19753893,0.02027389,-0.02585952,-0.04841854,0.13275029,-0.05404750,0.02378557,0.08728629,-0.01715661,0.11399541,-0.03275099,-0.04909628,0.00476023,0.04028778,-0.10122305,-0.14051504,0.13182572,0.04850124,-0.04434714,0.06105971,-0.02084908,-0.03193831,0.09984210,0.02705401,-0.10399639,0.01521472,0.01490965,-0.13187583,0.05959060,-0.02796618,0.03682442,0.01351296,-0.05933835,0.03639551,-0.09095687,-0.05737517,0.02299565,-0.08653674,0.04160943,0.09680429,-0.01184961,-0.05584355,-0.06510580,-0.01172218,0.02921461,0.06276764,-0.05374649,-0.03989828,-0.00266949,-0.03792904,-0.00436221,-0.10864443,-0.08485584,-0.03158006,-0.10652978,-0.02769103,-0.05042741,0.11320335,0.00877109,0.00476439,-0.07997151,-0.04934702,0.10570836,-0.04085906,-0.03888014,0.04773543,-0.09896706,-0.03546341,0.00230499,0.08628730,-0.14353482,0.06846555,0.30522278,0.06751519,0.10738729,-0.03325823,-0.15573622,-0.13331133,0.14357777,0.00272998,-0.05158393,-0.01317319,0.07781039,0.08745118,0.04082436,0.02592461,0.04059460,0.19092929,0.06146034,-0.00425631,0.03092257,0.00636660,0.15270291,0.14605913,-0.06989487,0.10601494,-0.06949926,-0.06474800,-0.14711595,-0.11031002,-0.09616415,0.10209913,0.02802559,-0.11766264,-0.15171567,0.12751767,-0.18789391,0.13444658,-0.14810479,-0.06024204,-0.04357528,0.06278379,0.15463842,0.01850901,0.08758319,0.09984648,0.17640309,0.07238812,0.00525463,-0.09764092,-0.06489728,0.03784440,0.00014447,0.05545789,0.12203082,0.02494626,0.03101317,0.13384375,